{"learner":{"attributes":{"scikit_learn":"{\"_estimator_type\": \"regressor\"}"},"feature_names":[],"feature_types":[],"gradient_booster":{"model":{"cats":{"enc":[],"feature_segments":[],"sorted_idx":[]},"gbtree_model_param":{"num_parallel_tree":"1","num_trees":"97"},"iteration_indptr":[0,1,2,3,4,5,6,7,8,9,10,11,12,13,14,15,16,17,18,19,20,21,22,23,24,25,26,27,28,29,30,31,32,33,34,35,36,37,38,39,40,41,42,43,44,45,46,47,48,49,50,51,52,53,54,55,56,57,58,59,60,61,62,63,64,65,66,67,68,69,70,71,72,73,74,75,76,77,78,79,80,81,82,83,84,85,86,87,88,89,90,91,92,93,94,95,96,97],"tree_info":[0,0,0,0,0,0,0,0,0,0,0,0,0,0,0,0,0,0,0,0,0,0,0,0,0,0,0,0,0,0,0,0,0,0,0,0,0,0,0,0,0,0,0,0,0,0,0,0,0,0,0,0,0,0,0,0,0,0,0,0,0,0,0,0,0,0,0,0,0,0,0,0,0,0,0,0,0,0,0,0,0,0,0,0,0,0,0,0,0,0,0,0,0,0,0,0,0],"trees":[{"base_weights":[-0E0,-2.4948059E-2,1.6318785E-2,-5.2316446E-2,-0E0,1.1367985E-3,-0E0,-0E0,-8.392127E-2,-3.3302372E-3,-0E0],"categories":[],"categories_nodes":[],"categories_segments":[],"categories_sizes":[],"default_left":[0,0,0,0,0,0,0,0,0,0,0],"id":0,"left_children":[1,3,5,7,-1,-1,-1,-1,9,-1,-1],"loss_changes":[3.0131215E-1,4.1052437E-1,1.5961558E-1,2.890743E-1,0E0,0E0,0E0,0E0,2.4894065E-1,0E0,0E0],"parents":[2147483647,0,0,1,1,2,2,3,3,8,8],"right_children":[2,4,6,8,-1,-1,-1,-1,10,-1,-1],"split_conditions":[3E0,1.33992E2,1.2941632E2,5.1E1,-0E0,1.1367985E-3,-0E0,-0E0,5.278E0,-3.3302372E-3,-0E0],"split_indices":[4,18,18,15,0,0,0,0,11,0,0],"split_type":[0,0,0,0,0,0,0,0,0,0,0],"sum_hessian":[6.85E2,3.21E2,3.64E2,2.19E2,1.02E2,1.47E2,2.17E2,9.6E1,1.23E2,7.4E1,4.9E1],"tree_param":{"num_deleted":"0","num_feature":"24","num_nodes":"11","size_leaf_vector":"1"}},{"base_weights":[-0E0,-4.0088277E-2,1.5396513E-2,-3.704489E-3,-0E0,-0E0,3.804286E-2,-0E0,-2.9035334E-2,4.969035E-2,-0E0,-0E0,-1.3459807E-3,1.5027268E-3,-0E0],"categories":[],"categories_nodes":[],"categories_segments":[],"categories_sizes":[],"default_left":[0,0,0,0,0,0,0,0,0,0,0,0,0,0,0],"id":1,"left_children":[1,3,5,-1,7,-1,9,-1,11,13,-1,-1,-1,-1,-1],"loss_changes":[4.910584E-1,4.1054812E-1,2.8138545E-1,0E0,8.191078E-2,0E0,3.945768E-2,0E0,9.431582E-2,8.332342E-3,0E0,0E0,0E0,0E0,0E0],"parents":[2147483647,0,0,1,1,2,2,4,4,6,6,8,8,9,9],"right_children":[2,4,6,-1,8,-1,10,-1,12,14,-1,-1,-1,-1,-1],"split_conditions":[1.3369697E0,3.1792568E1,3E0,-3.704489E-3,7.2E0,-0E0,4.2664E1,-0E0,4.062857E1,1.58E1,-0E0,-0E0,-1.3459807E-3,1.5027268E-3,-0E0],"split_indices":[16,13,7,0,22,0,13,0,13,21,0,0,0,0,0],"split_type":[0,0,0,0,0,0,0,0,0,0,0,0,0,0,0],"sum_hessian":[6.79E2,2.34E2,4.45E2,3.9E1,1.95E2,1.82E2,2.63E2,1.03E2,9.2E1,1.68E2,9.5E1,2.3E1,6.9E1,1.42E2,2.6E1],"tree_param":{"num_deleted":"0","num_feature":"24","num_nodes":"15","size_leaf_vector":"1"}},{"base_weights":[-0E0,-2.7153835E-2,2.0657597E-2,-4.9687028E-2,-0E0,3.2953277E-2,-0E0,-0E0,-3.511696E-3,-0E0,3.90012E-2,-1.6417862E-4,-0E0,-0E0,1.1786497E-3],"categories":[],"categories_nodes":[],"categories_segments":[],"categories_sizes":[],"default_left":[0,0,0,0,0,0,0,0,0,0,0,0,0,0,0],"id":2,"left_children":[1,3,5,7,-1,9,-1,11,-1,-1,13,-1,-1,-1,-1],"loss_changes":[3.8649195E-1,2.8046805E-1,1.6755834E-1,2.8238845E-1,0E0,7.912865E-2,0E0,4.4604535E-3,0E0,0E0,2.4238467E-2,0E0,0E0,0E0,0E0],"parents":[2147483647,0,0,1,1,2,2,3,3,5,5,7,7,10,10],"right_children":[2,4,6,8,-1,10,-1,12,-1,-1,14,-1,-1,-1,-1],"split_conditions":[6.2123375E1,2.6405556E1,9.8E0,6.399E1,-0E0,3.2E0,-0E0,2.5065908E1,-3.511696E-3,-0E0,3E0,-1.6417862E-4,-0E0,-0E0,1.1786497E-3],"split_indices":[19,14,17,15,0,17,0,14,0,0,4,0,0,0,0],"split_type":[0,0,0,0,0,0,0,0,0,0,0,0,0,0,0],"sum_hessian":[6.82E2,2.88E2,3.94E2,1.96E2,9.2E1,3.06E2,8.8E1,1.53E2,4.3E1,3.7E1,2.69E2,1.21E2,3.2E1,3.2E1,2.37E2],"tree_param":{"num_deleted":"0","num_feature":"24","num_nodes":"15","size_leaf_vector":"1"}},{"base_weights":[-0E0,1.274518E-2,-2.6121043E-2,-0E0,2.819491E-2,-6.597167E-2,-0E0,-0E0,-2.995495E-4,-0E0,4.1027773E-2,-8.596332E-2,-0E0,1.2247572E-3,-0E0,-3.1444365E-3,-0E0],"categories":[],"categories_nodes":[],"categories_segments":[],"categories_sizes":[],"default_left":[0,0,0,0,0,0,0,0,0,0,0,0,0,0,0,0,0],"id":3,"left_children":[1,3,5,7,9,11,-1,-1,-1,-1,13,15,-1,-1,-1,-1,-1],"loss_changes":[2.301634E-1,2.159034E-1,3.3793253E-1,1.0258374E-2,1.3028902E-1,8.942869E-2,0E0,0E0,0E0,0E0,1.2938112E-2,8.105993E-3,0E0,0E0,0E0,0E0,0E0],"parents":[2147483647,0,0,1,1,2,2,3,3,4,4,5,5,10,10,11,11],"right_children":[2,4,6,8,10,12,-1,-1,-1,-1,14,16,-1,-1,-1,-1,-1],"split_conditions":[6.6E0,3.6445625E1,2.3010778E1,4.5E0,3E0,4E0,-0E0,-0E0,-2.995495E-4,-0E0,2.8808537E1,4.381E0,-0E0,1.2247572E-3,-0E0,-3.1444365E-3,-0E0],"split_indices":[22,19,14,17,9,0,0,0,0,0,14,11,0,0,0,0,0],"split_type":[0,0,0,0,0,0,0,0,0,0,0,0,0,0,0,0,0],"sum_hessian":[7.02E2,4.87E2,2.15E2,1.2E2,3.67E2,1.07E2,1.08E2,3.8E1,8.2E1,1.19E2,2.48E2,7.3E1,3.4E1,2.18E2,3E1,4E1,3.3E1],"tree_param":{"num_deleted":"0","num_feature":"24","num_nodes":"17","size_leaf_vector":"1"}},{"base_weights":[-0E0,-3.4065332E-2,1.5631747E-2,-0E0,-6.584442E-2,-0E0,3.9560895E-2,-0E0,-2.8010998E-3,4.3837186E-2,-0E0,1.3996148E-3,-0E0],"categories":[],"categories_nodes":[],"categories_segments":[],"categories_sizes":[],"default_left":[0,0,0,0,0,0,0,0,0,0,0,0,0],"id":4,"left_children":[1,3,5,-1,7,-1,9,-1,-1,11,-1,-1,-1],"loss_changes":[3.8917887E-1,5.110594E-1,1.8712665E-1,0E0,3.0279976E-1,0E0,2.1696806E-2,0E0,0E0,2.2836328E-3,0E0,0E0,0E0],"parents":[2147483647,0,0,1,1,2,2,4,4,6,6,9,9],"right_children":[2,4,6,-1,8,-1,10,-1,-1,12,-1,-1,-1],"split_conditions":[1.3369697E0,4.736111E1,1.3335417E2,-0E0,6.5E0,-0E0,8.6E0,-0E0,-2.8010998E-3,1.3304802E2,-0E0,1.3996148E-3,-0E0],"split_indices":[16,15,20,0,17,0,17,0,0,18,0,0,0],"split_type":[0,0,0,0,0,0,0,0,0,0,0,0,0],"sum_hessian":[6.82E2,2.35E2,4.47E2,5.8E1,1.77E2,2.62E2,1.85E2,7.6E1,1.01E2,1.61E2,2.4E1,1.2E2,4.1E1],"tree_param":{"num_deleted":"0","num_feature":"24","num_nodes":"13","size_leaf_vector":"1"}},{"base_weights":[-0E0,-3.856336E-2,1.4559811E-2,-2.5365816E-3,-0E0,-0E0,2.8158013E-2,-0E0,-1.426825E-4,-0E0,1.0782077E-3],"categories":[],"categories_nodes":[],"categories_segments":[],"categories_sizes":[],"default_left":[0,0,0,0,0,0,0,0,0,0,0],"id":5,"left_children":[1,3,5,-1,-1,7,9,-1,-1,-1,-1],"loss_changes":[4.419339E-1,4.2458424E-1,2.1246523E-1,0E0,0E0,2.0070227E-3,9.8460734E-2,0E0,0E0,0E0,0E0],"parents":[2147483647,0,0,1,1,2,2,5,5,6,6],"right_children":[2,4,6,-1,-1,8,10,-1,-1,-1,-1],"split_conditions":[9.2E0,4.381E0,3.6422157E1,-2.5365816E-3,-0E0,3E0,3E0,-0E0,-1.426825E-4,-0E0,1.0782077E-3],"split_indices":[21,11,19,0,0,10,7,0,0,0,0],"split_type":[0,0,0,0,0,0,0,0,0,0,0],"sum_hessian":[7.14E2,2.21E2,4.93E2,8.5E1,1.36E2,9.7E1,3.96E2,2.7E1,7E1,1.28E2,2.68E2],"tree_param":{"num_deleted":"0","num_feature":"24","num_nodes":"11","size_leaf_vector":"1"}},{"base_weights":[-0E0,-3.0282617E-2,1.6720286E-2,-5.1175702E-2,-0E0,1.2409056E-3,-0E0,-0E0,-7.599651E-2,-0E0,2.302714E-3,-2.9576088E-3,-0E0,2.0933093E-4,-0E0],"categories":[],"categories_nodes":[],"categories_segments":[],"categories_sizes":[],"default_left":[0,0,0,0,0,0,0,0,0,0,0,0,0,0,0],"id":6,"left_children":[1,3,5,7,-1,-1,9,-1,11,-1,13,-1,-1,-1,-1],"loss_changes":[3.7700853E-1,2.8103992E-1,1.4132747E-1,3.2470232E-1,0E0,0E0,1.2893538E-3,0E0,1.0986042E-1,0E0,1.1307214E-2,0E0,0E0,0E0,0E0],"parents":[2147483647,0,0,1,1,2,2,3,3,6,6,8,8,10,10],"right_children":[2,4,6,8,-1,-1,10,-1,12,-1,14,-1,-1,-1,-1],"split_conditions":[6.2123375E1,1.33992E2,3.6422157E1,3E0,-0E0,1.2409056E-3,1E1,-0E0,1.2496774E0,-0E0,1.46E1,-2.9576088E-3,-0E0,2.0933093E-4,-0E0],"split_indices":[19,18,13,10,0,0,1,0,16,0,22,0,0,0,0],"split_type":[0,0,0,0,0,0,0,0,0,0,0,0,0,0,0],"sum_hessian":[6.88E2,2.8E2,4.08E2,2.02E2,7.8E1,1.22E2,2.86E2,5.7E1,1.45E2,4.8E1,2.38E2,8E1,6.5E1,2.14E2,2.4E1],"tree_param":{"num_deleted":"0","num_feature":"24","num_nodes":"15","size_leaf_vector":"1"}},{"base_weights":[-0E0,1.2116181E-2,-4.4109948E-2,-7.898516E-3,2.6887236E-2,-9.220974E-2,-0E0,-0E0,-9.4326376E-4,-0E0,3.5944786E-2,-3.3233191E-3,-0E0,1.0690524E-3,-0E0],"categories":[],"categories_nodes":[],"categories_segments":[],"categories_sizes":[],"default_left":[0,0,0,0,0,0,0,0,0,0,0,0,0,0,0],"id":7,"left_children":[1,3,5,7,9,11,-1,-1,-1,-1,13,-1,-1,-1,-1],"loss_changes":[2.962013E-1,2.6751274E-1,2.6706243E-1,9.484779E-2,1.3444507E-1,2.8694868E-3,0E0,0E0,0E0,0E0,4.1075498E-2,0E0,0E0,0E0,0E0],"parents":[2147483647,0,0,1,1,2,2,3,3,4,4,5,5,10,10],"right_children":[2,4,6,8,10,12,-1,-1,-1,-1,14,-1,-1,-1,-1],"split_conditions":[1.28E1,3.6422157E1,4.381E0,1.805E1,3E0,4E0,-0E0,-0E0,-9.4326376E-4,-0E0,8E0,-3.3233191E-3,-0E0,1.0690524E-3,-0E0],"split_indices":[22,19,11,14,9,0,0,0,0,0,2,0,0,0,0],"split_type":[0,0,0,0,0,0,0,0,0,0,0,0,0,0,0],"sum_hessian":[6.82E2,5.79E2,1.03E2,1.05E2,4.74E2,5.1E1,5.2E1,2.3E1,8.2E1,1.07E2,3.67E2,2.8E1,2.3E1,3.43E2,2.4E1],"tree_param":{"num_deleted":"0","num_feature":"24","num_nodes":"15","size_leaf_vector":"1"}},{"base_weights":[-0E0,-2.756903E-2,1.042865E-2,-7.344792E-2,-0E0,-0E0,2.3454191E-2,-9.455334E-2,-0E0,-0E0,-2.6717545E-3,-0E0,9.357943E-4,-3.4741147E-3,-0E0,-1.9272963E-4,-0E0],"categories":[],"categories_nodes":[],"categories_segments":[],"categories_sizes":[],"default_left":[0,0,0,0,0,0,0,0,0,0,0,0,0,0,0,0,0],"id":8,"left_children":[1,3,5,7,-1,9,11,13,-1,-1,15,-1,-1,-1,-1,-1,-1],"loss_changes":[2.1987982E-1,4.053574E-1,1.5052769E-1,1.0820532E-1,0E0,6.150334E-4,8.082397E-2,1.6068822E-1,0E0,0E0,2.4134975E-3,0E0,0E0,0E0,0E0,0E0,0E0],"parents":[2147483647,0,0,1,1,2,2,3,3,5,5,6,6,7,7,10,10],"right_children":[2,4,6,8,-1,10,12,14,-1,-1,16,-1,-1,-1,-1,-1,-1],"split_conditions":[9.2E0,2.3010778E1,3.6445625E1,4.381E0,-0E0,4.5E0,3E0,2.4E1,-0E0,-0E0,3.1061687E1,-0E0,9.357943E-4,-3.4741147E-3,-0E0,-1.9272963E-4,-0E0],"split_indices":[21,14,19,11,0,17,9,1,0,0,13,0,0,0,0,0,0],"split_type":[0,0,0,0,0,0,0,0,0,0,0,0,0,0,0,0,0],"sum_hessian":[6.93E2,2.15E2,4.78E2,1.01E2,1.14E2,1.14E2,3.64E2,7.1E1,3E1,3.3E1,8.1E1,1.22E2,2.42E2,4.8E1,2.3E1,5.7E1,2.4E1],"tree_param":{"num_deleted":"0","num_feature":"24","num_nodes":"17","size_leaf_vector":"1"}},{"base_weights":[-0E0,-3.0301182E-2,1.3414969E-2,-3.3635586E-3,-0E0,-0E0,3.26433E-2,-8.300048E-4,-0E0,-0E0,4.4647995E-2,-9.3006005E-5,-0E0,-0E0,1.4241941E-3],"categories":[],"categories_nodes":[],"categories_segments":[],"categories_sizes":[],"default_left":[0,0,0,0,0,0,0,0,0,0,0,0,0,0,0],"id":9,"left_children":[1,3,5,-1,-1,7,9,11,-1,-1,13,-1,-1,-1,-1],"loss_changes":[2.996257E-1,4.6908078E-1,2.1375786E-1,0E0,0E0,9.5179515E-5,1.0552582E-1,1.0866288E-3,0E0,0E0,5.5036336E-2,0E0,0E0,0E0,0E0],"parents":[2147483647,0,0,1,1,2,2,5,5,6,6,7,7,10,10],"right_children":[2,4,6,-1,-1,8,10,12,-1,-1,14,-1,-1,-1,-1],"split_conditions":[1.3369697E0,3.1792568E1,4.786014E1,-3.3635586E-3,-0E0,4E0,1.5098684E0,1.9E1,-0E0,-0E0,2.25E1,-9.3006005E-5,-0E0,-0E0,1.4241941E-3],"split_indices":[16,13,15,0,0,3,16,1,0,0,12,0,0,0,0],"split_type":[0,0,0,0,0,0,0,0,0,0,0,0,0,0,0],"sum_hessian":[6.9E2,2.3E2,4.6E2,4.1E1,1.89E2,1.86E2,2.74E2,1.33E2,5.3E1,7.7E1,1.97E2,9.9E1,3.4E1,3E1,1.67E2],"tree_param":{"num_deleted":"0","num_feature":"24","num_nodes":"15","size_leaf_vector":"1"}},{"base_weights":[-0E0,-2.0337867E-2,1.9288046E-2,-6.0223676E-2,-0E0,3.5432942E-2,-0E0,-3.6892053E-3,-0E0,-0E0,4.9192403E-3,-0E0,1.0660951E-3,-9.074211E-5,-0E0,-0E0,3.9393202E-4],"categories":[],"categories_nodes":[],"categories_segments":[],"categories_sizes":[],"default_left":[0,0,0,0,0,0,0,0,0,0,0,0,0,0,0,0,0],"id":10,"left_children":[1,3,5,7,9,11,-1,-1,-1,13,15,-1,-1,-1,-1,-1,-1],"loss_changes":[2.8163123E-1,3.2183206E-1,1.330256E-1,2.0581606E-1,1.9881832E-3,6.0587227E-3,0E0,0E0,0E0,1.0277708E-3,9.239517E-3,0E0,0E0,0E0,0E0,0E0,0E0],"parents":[2147483647,0,0,1,1,2,2,3,3,4,4,5,5,9,9,10,10],"right_children":[2,4,6,8,10,12,-1,-1,-1,14,16,-1,-1,-1,-1,-1,-1],"split_conditions":[3E0,3.1061687E1,4.3138775E1,1.2496774E0,2E0,1.1558108E2,-0E0,-3.6892053E-3,-0E0,4.4349342E1,2.2274694E1,-0E0,1.0660951E-3,-9.074211E-5,-0E0,-0E0,3.9393202E-4],"split_indices":[4,13,13,16,0,20,0,0,0,13,14,0,0,0,0,0,0],"split_type":[0,0,0,0,0,0,0,0,0,0,0,0,0,0,0,0,0],"sum_hessian":[7.1E2,3.23E2,3.87E2,1.21E2,2.02E2,2.17E2,1.7E2,3.2E1,8.9E1,1.25E2,7.7E1,3.1E1,1.86E2,9E1,3.5E1,2.7E1,5E1],"tree_param":{"num_deleted":"0","num_feature":"24","num_nodes":"17","size_leaf_vector":"1"}},{"base_weights":[-0E0,-3.0442964E-2,1.5201994E-2,-0E0,-8.252544E-2,-0E0,3.5013936E-2,-0E0,-3.145911E-3,-0E0,3.8349025E-2,1.1648869E-3,-0E0],"categories":[],"categories_nodes":[],"categories_segments":[],"categories_sizes":[],"default_left":[0,0,0,0,0,0,0,0,0,0,0,0,0],"id":11,"left_children":[1,3,5,-1,7,-1,9,-1,-1,-1,11,-1,-1],"loss_changes":[3.2104564E-1,4.991732E-1,2.2840333E-1,0E0,3.5035402E-1,0E0,1.4872551E-2,0E0,0E0,0E0,2.497235E-2,0E0,0E0],"parents":[2147483647,0,0,1,1,2,2,4,4,6,6,10,10],"right_children":[2,4,6,-1,8,-1,10,-1,-1,-1,12,-1,-1],"split_conditions":[1.3369697E0,6.5E0,3E0,-0E0,5.1E1,-0E0,1.4443114E0,-0E0,-3.145911E-3,-0E0,8.6E0,1.1648869E-3,-0E0],"split_indices":[16,17,7,0,15,0,16,0,0,0,17,0,0],"split_type":[0,0,0,0,0,0,0,0,0,0,0,0,0],"sum_hessian":[6.74E2,2.29E2,4.45E2,1.29E2,1E2,1.79E2,2.66E2,2.3E1,7.7E1,3.5E1,2.31E2,2.04E2,2.7E1],"tree_param":{"num_deleted":"0","num_feature":"24","num_nodes":"13","size_leaf_vector":"1"}},{"base_weights":[-0E0,-2.932269E-2,1.29884E-2,-0E0,-6.980417E-2,-0E0,3.0856783E-2,-0E0,-3.0926832E-3,1.1092484E-3,-0E0],"categories":[],"categories_nodes":[],"categories_segments":[],"categories_sizes":[],"default_left":[0,0,0,0,0,0,0,0,0,0,0],"id":12,"left_children":[1,3,5,-1,7,-1,9,-1,-1,-1,-1],"loss_changes":[2.8149426E-1,3.1594196E-1,1.8944946E-1,0E0,2.4194896E-2,0E0,3.568068E-2,0E0,0E0,0E0,0E0],"parents":[2147483647,0,0,1,1,2,2,4,4,6,6],"right_children":[2,4,6,-1,8,-1,10,-1,-1,-1,-1],"split_conditions":[1.3369697E0,6.5E0,3E0,-0E0,5.8858025E1,-0E0,4.2664E1,-0E0,-3.0926832E-3,1.1092484E-3,-0E0],"split_indices":[16,17,7,0,15,0,13,0,0,0,0],"split_type":[0,0,0,0,0,0,0,0,0,0,0],"sum_hessian":[6.99E2,2.29E2,4.7E2,1.28E2,1.01E2,1.92E2,2.78E2,6.3E1,3.8E1,1.84E2,9.4E1],"tree_param":{"num_deleted":"0","num_feature":"24","num_nodes":"11","size_leaf_vector":"1"}},{"base_weights":[-0E0,6.707628E-3,-5.0510444E-2,-1.0947677E-2,1.959512E-2,-0E0,-2.085167E-3,-0E0,-8.859258E-4,-0E0,5.1035844E-2,-0E0,1.4547429E-4,1.8150194E-3,-0E0],"categories":[],"categories_nodes":[],"categories_segments":[],"categories_sizes":[],"default_left":[0,0,0,0,0,0,0,0,0,0,0,0,0,0,0],"id":13,"left_children":[1,3,5,7,9,-1,-1,-1,-1,11,13,-1,-1,-1,-1],"loss_changes":[2.974441E-1,1.7829366E-1,1.8630844E-1,4.5860544E-2,1.3984723E-1,0E0,0E0,0E0,0E0,6.2778713E-3,1.1194396E-1,0E0,0E0,0E0,0E0],"parents":[2147483647,0,0,1,1,2,2,3,3,4,4,9,9,10,10],"right_children":[2,4,6,8,10,-1,-1,-1,-1,12,14,-1,-1,-1,-1],"split_conditions":[1.28E1,3.1593151E1,4.5863636E1,3E0,3E0,-0E0,-2.085167E-3,-0E0,-8.859258E-4,3E0,6E0,-0E0,1.4547429E-4,1.8150194E-3,-0E0],"split_indices":[22,19,15,10,0,0,0,0,0,4,2,0,0,0,0],"split_type":[0,0,0,0,0,0,0,0,0,0,0,0,0,0,0],"sum_hessian":[6.87E2,5.86E2,1.01E2,8.6E1,5E2,2.6E1,7.5E1,3.6E1,5E1,3.77E2,1.23E2,1.56E2,2.21E2,9.8E1,2.5E1],"tree_param":{"num_deleted":"0","num_feature":"24","num_nodes":"15","size_leaf_vector":"1"}},{"base_weights":[-0E0,-2.4746548E-2,1.3262877E-2,-6.648295E-2,-0E0,-0E0,2.6373297E-2,-2.227172E-3,-0E0,-0E0,8.393932E-4],"categories":[],"categories_nodes":[],"categories_segments":[],"categories_sizes":[],"default_left":[0,0,0,0,0,0,0,0,0,0,0],"id":14,"left_children":[1,3,5,7,-1,-1,9,-1,-1,-1,-1],"loss_changes":[2.1542937E-1,3.2801074E-1,9.3030825E-2,2.2119164E-2,0E0,0E0,3.2926187E-2,0E0,0E0,0E0,0E0],"parents":[2147483647,0,0,1,1,2,2,3,3,6,6],"right_children":[2,4,6,8,-1,-1,10,-1,-1,-1,-1],"split_conditions":[9.2E0,2.3964666E1,3E0,4.381E0,-0E0,-0E0,2.8E0,-2.227172E-3,-0E0,-0E0,8.393932E-4],"split_indices":[21,14,4,11,0,0,17,0,0,0,0],"split_type":[0,0,0,0,0,0,0,0,0,0,0],"sum_hessian":[6.78E2,2.11E2,4.67E2,9.9E1,1.12E2,2.19E2,2.48E2,6.9E1,3E1,2.7E1,2.21E2],"tree_param":{"num_deleted":"0","num_feature":"24","num_nodes":"11","size_leaf_vector":"1"}},{"base_weights":[-0E0,-1.7763367E-2,1.6757885E-2,-4.154771E-2,-0E0,3.8129415E-2,-0E0,-7.355617E-2,-0E0,-0E0,1.1604392E-3,-0E0,-2.3986076E-3],"categories":[],"categories_nodes":[],"categories_segments":[],"categories_sizes":[],"default_left":[0,0,0,0,0,0,0,0,0,0,0,0,0],"id":15,"left_children":[1,3,5,7,-1,9,-1,11,-1,-1,-1,-1,-1],"loss_changes":[2.0887007E-1,2.7760977E-1,1.5812431E-1,1.9606307E-1,0E0,1.1307001E-2,0E0,3.5762787E-4,0E0,0E0,0E0,0E0,0E0],"parents":[2147483647,0,0,1,1,2,2,3,3,5,5,7,7],"right_children":[2,4,6,8,-1,10,-1,12,-1,-1,-1,-1,-1],"split_conditions":[3E0,1.33992E2,4.2664E1,5.278E0,-0E0,1.3612245E0,-0E0,5.5952095E1,-0E0,-0E0,1.1604392E-3,-0E0,-2.3986076E-3],"split_indices":[4,18,13,11,0,16,0,20,0,0,0,0,0],"split_type":[0,0,0,0,0,0,0,0,0,0,0,0,0],"sum_hessian":[6.94E2,3.14E2,3.8E2,2.14E2,1E2,1.78E2,2.02E2,1.01E2,1.13E2,2.6E1,1.52E2,3E1,7.1E1],"tree_param":{"num_deleted":"0","num_feature":"24","num_nodes":"13","size_leaf_vector":"1"}},{"base_weights":[-0E0,-1.3108724E-2,1.670771E-2,-6.014949E-2,-0E0,-0E0,3.0031223E-2,-2.926078E-3,-0E0,-1.1918643E-3,1.1133503E-3,-0E0,3.854305E-2,-0E0,-4.029711E-4,-0E0,8.590873E-5,1.1862364E-3,-0E0],"categories":[],"categories_nodes":[],"categories_segments":[],"categories_sizes":[],"default_left":[0,0,0,0,0,0,0,0,0,0,0,0,0,0,0,0,0,0,0],"id":16,"left_children":[1,3,5,7,9,-1,11,-1,-1,13,15,-1,17,-1,-1,-1,-1,-1,-1],"loss_changes":[1.5169054E-1,2.2157776E-1,9.183443E-2,1.0085115E-1,3.8003956E-4,0E0,5.1148728E-2,0E0,0E0,2.0303924E-2,1.1545769E-3,0E0,4.9219877E-3,0E0,0E0,0E0,0E0,0E0,0E0],"parents":[2147483647,0,0,1,1,2,2,3,3,4,4,6,6,9,9,10,10,12,12],"right_children":[2,4,6,8,10,-1,12,-1,-1,14,16,-1,18,-1,-1,-1,-1,-1,-1],"split_conditions":[1.5098684E0,3.1061687E1,4.786014E1,1.2496774E0,1.02E1,-0E0,4.381E0,-2.926078E-3,-0E0,4.121E1,2.8E0,-0E0,8.2522224E1,-0E0,-4.029711E-4,-0E0,8.590873E-5,1.1862364E-3,-0E0],"split_indices":[16,13,15,16,21,0,11,0,0,19,17,0,19,0,0,0,0,0,0],"split_type":[0,0,0,0,0,0,0,0,0,0,0,0,0,0,0,0,0,0,0],"sum_hessian":[6.7E2,3.51E2,3.19E2,7.3E1,2.78E2,1.22E2,1.97E2,2.9E1,4.4E1,1.2E2,1.58E2,4.5E1,1.52E2,2.9E1,9.1E1,2.3E1,1.35E2,1.24E2,2.8E1],"tree_param":{"num_deleted":"0","num_feature":"24","num_nodes":"19","size_leaf_vector":"1"}},{"base_weights":[-0E0,-3.333809E-2,1.2879247E-2,-2.6447773E-3,-0E0,-0E0,2.3880897E-2,-0E0,3.3664785E-2,9.779866E-4,-0E0],"categories":[],"categories_nodes":[],"categories_segments":[],"categories_sizes":[],"default_left":[0,0,0,0,0,0,0,0,0,0,0],"id":17,"left_children":[1,3,5,-1,-1,-1,7,-1,9,-1,-1],"loss_changes":[3.1577885E-1,6.0058516E-1,1.3055265E-1,0E0,0E0,0E0,7.6379746E-2,0E0,5.8329105E-4,0E0,0E0],"parents":[2147483647,0,0,1,1,2,2,6,6,8,8],"right_children":[2,4,6,-1,-1,-1,8,-1,10,-1,-1],"split_conditions":[9.2E0,4.381E0,3.6445625E1,-2.6447773E-3,-0E0,-0E0,3E0,-0E0,4.6E0,9.779866E-4,-0E0],"split_indices":[21,11,19,0,0,0,9,0,22,0,0],"split_type":[0,0,0,0,0,0,0,0,0,0,0],"sum_hessian":[6.84E2,2.07E2,4.77E2,8.6E1,1.21E2,1.13E2,3.64E2,1.16E2,2.48E2,2.24E2,2.4E1],"tree_param":{"num_deleted":"0","num_feature":"24","num_nodes":"11","size_leaf_vector":"1"}},{"base_weights":[-0E0,-2.095631E-2,1.2302833E-2,-4.2382702E-2,-0E0,9.0724666E-4,-0E0,-0E0,-6.0382977E-2,-2.4269035E-3,-0E0],"categories":[],"categories_nodes":[],"categories_segments":[],"categories_sizes":[],"default_left":[0,0,0,0,0,0,0,0,0,0,0],"id":18,"left_children":[1,3,5,7,-1,-1,-1,-1,9,-1,-1],"loss_changes":[1.9862849E-1,2.5754285E-1,1.16169624E-1,2.30445E-1,0E0,0E0,0E0,0E0,1.22900605E-1,0E0,0E0],"parents":[2147483647,0,0,1,1,2,2,3,3,8,8],"right_children":[2,4,6,8,-1,-1,-1,-1,10,-1,-1],"split_conditions":[3E0,1.33992E2,1.2941632E2,5.251875E1,-0E0,9.0724666E-4,-0E0,-0E0,5.278E0,-2.4269035E-3,-0E0],"split_indices":[4,18,18,20,0,0,0,0,11,0,0],"split_type":[0,0,0,0,0,0,0,0,0,0,0],"sum_hessian":[6.97E2,3.13E2,3.84E2,2.16E2,9.7E1,1.57E2,2.27E2,4.9E1,1.67E2,9.2E1,7.5E1],"tree_param":{"num_deleted":"0","num_feature":"24","num_nodes":"11","size_leaf_vector":"1"}},{"base_weights":[-0E0,1.1122336E-2,-2.4651581E-2,-0E0,1.9680431E-2,-6.1526053E-2,-0E0,-0E0,3.8775004E-2,-2.2916908E-3,-0E0,-0E0,1.2799756E-3],"categories":[],"categories_nodes":[],"categories_segments":[],"categories_sizes":[],"default_left":[0,0,0,0,0,0,0,0,0,0,0,0,0],"id":19,"left_children":[1,3,5,-1,7,9,-1,-1,11,-1,-1,-1,-1],"loss_changes":[1.9049029E-1,9.901194E-2,2.7307338E-1,0E0,1.1544791E-1,8.454928E-2,0E0,0E0,3.0360222E-3,0E0,0E0,0E0,0E0],"parents":[2147483647,0,0,1,1,2,2,4,4,5,5,8,8],"right_children":[2,4,6,-1,8,10,-1,-1,12,-1,-1,-1,-1],"split_conditions":[6.6E0,3.1593151E1,2.3010778E1,-0E0,2E0,4E0,-0E0,-0E0,3.7765957E1,-2.2916908E-3,-0E0,-0E0,1.2799756E-3],"split_indices":[22,19,14,0,0,0,0,0,15,0,0,0,0],"split_type":[0,0,0,0,0,0,0,0,0,0,0,0,0],"sum_hessian":[6.76E2,4.63E2,2.13E2,6.3E1,4E2,1.02E2,1.11E2,2.24E2,1.76E2,6.6E1,3.6E1,5.3E1,1.23E2],"tree_param":{"num_deleted":"0","num_feature":"24","num_nodes":"13","size_leaf_vector":"1"}},{"base_weights":[-0E0,-2.223345E-2,1.41189E-2,-5.032707E-2,-0E0,3.1673744E-2,-0E0,-0E0,-3.3808495E-3,1.0313955E-3,-0E0,-2.649385E-4,-0E0],"categories":[],"categories_nodes":[],"categories_segments":[],"categories_sizes":[],"default_left":[0,0,0,0,0,0,0,0,0,0,0,0,0],"id":20,"left_children":[1,3,5,7,-1,9,-1,11,-1,-1,-1,-1,-1],"loss_changes":[2.368367E-1,3.714998E-1,1.4229709E-1,1.6229302E-1,0E0,3.190641E-2,0E0,1.032648E-2,0E0,0E0,0E0,0E0,0E0],"parents":[2147483647,0,0,1,1,2,2,3,3,5,5,7,7],"right_children":[2,4,6,8,-1,10,-1,12,-1,-1,-1,-1,-1],"split_conditions":[3E0,1.2845926E2,4.3138775E1,6.399E1,-0E0,1.6809511E2,-0E0,2E0,-3.3808495E-3,1.0313955E-3,-0E0,-2.649385E-4,-0E0],"split_indices":[4,18,13,15,0,18,0,0,0,0,0,0,0],"split_type":[0,0,0,0,0,0,0,0,0,0,0,0,0],"sum_hessian":[7.04E2,3.15E2,3.89E2,2.04E2,1.11E2,2.15E2,1.74E2,1.63E2,4.1E1,1.76E2,3.9E1,1.07E2,5.6E1],"tree_param":{"num_deleted":"0","num_feature":"24","num_nodes":"13","size_leaf_vector":"1"}},{"base_weights":[-0E0,-2.5654929E-2,5.3504314E-3,-0E0,-6.5836646E-2,-0E0,2.1608166E-2,-2.2965977E-3,-0E0,2.5462646E-2,-0E0,-0E0,8.1082963E-4],"categories":[],"categories_nodes":[],"categories_segments":[],"categories_sizes":[],"default_left":[0,0,0,0,0,0,0,0,0,0,0,0,0],"id":21,"left_children":[1,3,5,-1,7,-1,9,-1,-1,11,-1,-1,-1],"loss_changes":[1.7596218E-1,3.2347882E-1,1.1378746E-1,0E0,7.532883E-2,0E0,2.6038453E-2,0E0,0E0,2.0356774E-2,0E0,0E0,0E0],"parents":[2147483647,0,0,1,1,2,2,4,4,6,6,9,9],"right_children":[2,4,6,-1,8,-1,10,-1,-1,12,-1,-1,-1],"split_conditions":[1.3369697E0,6.5E0,3E0,-0E0,2.4E1,-0E0,6E0,-2.2965977E-3,-0E0,1.4443114E0,-0E0,-0E0,8.1082963E-4],"split_indices":[16,17,7,0,1,0,2,0,0,16,0,0,0],"split_type":[0,0,0,0,0,0,0,0,0,0,0,0,0],"sum_hessian":[7.01E2,2.42E2,4.59E2,1.35E2,1.07E2,1.92E2,2.67E2,7.6E1,3.1E1,2.31E2,3.6E1,3.5E1,1.96E2],"tree_param":{"num_deleted":"0","num_feature":"24","num_nodes":"13","size_leaf_vector":"1"}},{"base_weights":[-0E0,-1.7585529E-2,1.0808428E-2,-4.667835E-2,-0E0,-0E0,3.9105672E-2,-1.7471762E-3,-0E0,1.2430953E-3,-0E0],"categories":[],"categories_nodes":[],"categories_segments":[],"categories_sizes":[],"default_left":[0,0,0,0,0,0,0,0,0,0,0],"id":22,"left_children":[1,3,5,7,-1,-1,9,-1,-1,-1,-1],"loss_changes":[1.2078303E-1,1.5665913E-1,1.17551684E-1,6.050858E-2,0E0,0E0,1.0192916E-2,0E0,0E0,0E0,0E0],"parents":[2147483647,0,0,1,1,2,2,3,3,6,6],"right_children":[2,4,6,8,-1,-1,10,-1,-1,-1,-1],"split_conditions":[9E0,2.3010778E1,3E0,4E0,-0E0,-0E0,7.465E1,-1.7471762E-3,-0E0,1.2430953E-3,-0E0],"split_indices":[21,14,0,0,0,0,15,0,0,0,0],"split_type":[0,0,0,0,0,0,0,0,0,0,0],"sum_hessian":[6.84E2,2.01E2,4.83E2,9.6E1,1.05E2,3.74E2,1.09E2,6.5E1,3.1E1,8.6E1,2.3E1],"tree_param":{"num_deleted":"0","num_feature":"24","num_nodes":"11","size_leaf_vector":"1"}},{"base_weights":[-0E0,9.770905E-3,-2.4099197E-2,-0E0,2.0847691E-2,-0E0,-3.7311755E-2,-0E0,-4.748006E-4,-0E0,3.2019753E-2,-5.785118E-2,-0E0,-0E0,1.6396819E-3,-2.2132837E-3,-0E0],"categories":[],"categories_nodes":[],"categories_segments":[],"categories_sizes":[],"default_left":[0,0,0,0,0,0,0,0,0,0,0,0,0,0,0,0,0],"id":23,"left_children":[1,3,5,7,9,-1,11,-1,-1,-1,13,15,-1,-1,-1,-1,-1],"loss_changes":[1.647615E-1,1.3887912E-1,8.4447615E-2,1.6014937E-2,1.3470367E-1,0E0,6.423463E-2,0E0,0E0,0E0,2.0537168E-2,8.949399E-2,0E0,0E0,0E0,0E0,0E0],"parents":[2147483647,0,0,1,1,2,2,3,3,4,4,6,6,10,10,11,11],"right_children":[2,4,6,8,10,-1,12,-1,-1,-1,14,16,-1,-1,-1,-1,-1],"split_conditions":[8.2E0,3.1593151E1,4.692258E1,3E0,3E0,-0E0,4.94E0,-0E0,-4.748006E-4,-0E0,3E0,2.4E1,-0E0,-0E0,1.6396819E-3,-2.2132837E-3,-0E0],"split_indices":[22,19,15,10,9,0,11,0,0,0,0,1,0,0,0,0,0],"split_type":[0,0,0,0,0,0,0,0,0,0,0,0,0,0,0,0,0],"sum_hessian":[6.98E2,5.03E2,1.95E2,7.7E1,4.26E2,5.6E1,1.39E2,2.8E1,4.9E1,1.17E2,3.09E2,7.4E1,6.5E1,2.17E2,9.2E1,5E1,2.4E1],"tree_param":{"num_deleted":"0","num_feature":"24","num_nodes":"17","size_leaf_vector":"1"}},{"base_weights":[-0E0,-2.9261949E-2,9.992248E-3,-7.417547E-2,-0E0,-0E0,1.860075E-2,-2.4800783E-3,-0E0,-0E0,9.562695E-4],"categories":[],"categories_nodes":[],"categories_segments":[],"categories_sizes":[],"default_left":[0,0,0,0,0,0,0,0,0,0,0],"id":24,"left_children":[1,3,5,7,-1,-1,9,-1,-1,-1,-1],"loss_changes":[2.349433E-1,3.862862E-1,9.44611E-2,6.5558374E-2,0E0,0E0,7.109293E-2,0E0,0E0,0E0,0E0],"parents":[2147483647,0,0,1,1,2,2,3,3,6,6],"right_children":[2,4,6,8,-1,-1,10,-1,-1,-1,-1],"split_conditions":[9E0,2.3010778E1,3.1593151E1,1.5E1,-0E0,-0E0,2E0,-2.4800783E-3,-0E0,-0E0,9.562695E-4],"split_indices":[21,14,19,23,0,0,0,0,0,0,0],"split_type":[0,0,0,0,0,0,0,0,0,0,0],"sum_hessian":[6.9E2,2.13E2,4.77E2,9.9E1,1.14E2,7E1,4.07E2,7.4E1,2.5E1,2.34E2,1.73E2],"tree_param":{"num_deleted":"0","num_feature":"24","num_nodes":"11","size_leaf_vector":"1"}},{"base_weights":[-0E0,-2.562706E-2,9.265922E-3,-6.3937515E-2,-0E0,-0E0,1.7792372E-2,-2.1995222E-3,-0E0,-0E0,7.515149E-4],"categories":[],"categories_nodes":[],"categories_segments":[],"categories_sizes":[],"default_left":[0,0,0,0,0,0,0,0,0,0,0],"id":25,"left_children":[1,3,5,7,-1,-1,9,-1,-1,-1,-1],"loss_changes":[1.964339E-1,3.1845206E-1,7.937373E-2,7.823017E-2,0E0,0E0,7.8514405E-2,0E0,0E0,0E0,0E0],"parents":[2147483647,0,0,1,1,2,2,3,3,6,6],"right_children":[2,4,6,8,-1,-1,10,-1,-1,-1,-1],"split_conditions":[9.2E0,2.3964666E1,3.6422157E1,1.5E1,-0E0,-0E0,3E0,-2.1995222E-3,-0E0,-0E0,7.515149E-4],"split_indices":[21,14,19,23,0,0,9,0,0,0,0],"split_type":[0,0,0,0,0,0,0,0,0,0,0],"sum_hessian":[6.94E2,2.33E2,4.61E2,1.11E2,1.22E2,8.9E1,3.72E2,8.2E1,2.9E1,1.1E2,2.62E2],"tree_param":{"num_deleted":"0","num_feature":"24","num_nodes":"11","size_leaf_vector":"1"}},{"base_weights":[-0E0,1.1072113E-2,-2.1643383E-2,-0E0,2.1405362E-2,-5.4872226E-2,-0E0,-0E0,3.070833E-2,-7.70353E-2,-0E0,9.0868876E-4,-0E0,-2.86731E-3,-0E0],"categories":[],"categories_nodes":[],"categories_segments":[],"categories_sizes":[],"default_left":[0,0,0,0,0,0,0,0,0,0,0,0,0,0,0],"id":26,"left_children":[1,3,5,-1,7,9,-1,-1,11,13,-1,-1,-1,-1,-1],"loss_changes":[1.5810248E-1,1.1181097E-1,2.3484659E-1,0E0,7.0554614E-2,9.3530506E-2,0E0,0E0,5.4127574E-3,3.7201524E-2,0E0,0E0,0E0,0E0,0E0],"parents":[2147483647,0,0,1,1,2,2,4,4,5,5,8,8,9,9],"right_children":[2,4,6,-1,8,10,-1,-1,12,14,-1,-1,-1,-1,-1],"split_conditions":[6.6E0,3.6445625E1,2.3010778E1,-0E0,3E0,4E0,-0E0,-0E0,2.8808537E1,4.381E0,-0E0,9.0868876E-4,-0E0,-2.86731E-3,-0E0],"split_indices":[22,19,14,0,9,0,0,0,14,11,0,0,0,0,0],"split_type":[0,0,0,0,0,0,0,0,0,0,0,0,0,0,0],"sum_hessian":[6.78E2,4.7E2,2.08E2,1.04E2,3.66E2,1.06E2,1.02E2,1.16E2,2.5E2,6.7E1,3.9E1,2.22E2,2.8E1,3.8E1,2.9E1],"tree_param":{"num_deleted":"0","num_feature":"24","num_nodes":"15","size_leaf_vector":"1"}},{"base_weights":[-0E0,-1.9669391E-2,1.0102986E-2,-4.4557318E-2,-0E0,9.0389804E-4,-0E0,-0E0,-1.9048841E-3],"categories":[],"categories_nodes":[],"categories_segments":[],"categories_sizes":[],"default_left":[0,0,0,0,0,0,0,0,0],"id":27,"left_children":[1,3,5,7,-1,-1,-1,-1,-1],"loss_changes":[1.5937874E-1,1.49454E-1,1.0236998E-1,1.6276133E-1,0E0,0E0,0E0,0E0,0E0],"parents":[2147483647,0,0,1,1,2,2,3,3],"right_children":[2,4,6,8,-1,-1,-1,-1,-1],"split_conditions":[6.2123375E1,3.1061687E1,4.121E1,2.4569912E1,-0E0,9.0389804E-4,-0E0,-0E0,-1.9048841E-3],"split_indices":[19,13,13,13,0,0,0,0,0],"split_type":[0,0,0,0,0,0,0,0,0],"sum_hessian":[7.08E2,2.97E2,4.11E2,1.29E2,1.68E2,1.3E2,2.81E2,4.4E1,8.5E1],"tree_param":{"num_deleted":"0","num_feature":"24","num_nodes":"9","size_leaf_vector":"1"}},{"base_weights":[-0E0,1.1241858E-2,-1.847163E-2,-0E0,2.2270964E-2,-5.1847138E-2,-0E0,-0E0,3.1324744E-2,-2.247653E-3,-0E0,1.0461113E-3,-0E0],"categories":[],"categories_nodes":[],"categories_segments":[],"categories_sizes":[],"default_left":[0,0,0,0,0,0,0,0,0,0,0,0,0],"id":28,"left_children":[1,3,5,-1,7,9,-1,-1,11,-1,-1,-1,-1],"loss_changes":[1.3310948E-1,1.2204036E-1,1.3805586E-1,0E0,6.923373E-2,1.0902713E-1,0E0,0E0,1.4882833E-2,0E0,0E0,0E0,0E0],"parents":[2147483647,0,0,1,1,2,2,4,4,5,5,8,8],"right_children":[2,4,6,-1,8,10,-1,-1,12,-1,-1,-1,-1],"split_conditions":[6.6E0,3.6445625E1,4.381E0,-0E0,3E0,4E0,-0E0,-0E0,1.70656E2,-2.247653E-3,-0E0,1.0461113E-3,-0E0],"split_indices":[22,19,11,0,9,0,0,0,18,0,0,0,0],"split_type":[0,0,0,0,0,0,0,0,0,0,0,0,0],"sum_hessian":[6.84E2,4.78E2,2.06E2,1.14E2,3.64E2,7.3E1,1.33E2,1.12E2,2.52E2,4.3E1,3E1,1.81E2,7.1E1],"tree_param":{"num_deleted":"0","num_feature":"24","num_nodes":"13","size_leaf_vector":"1"}},{"base_weights":[-0E0,-1.2992539E-2,9.19666E-3,-3.4100667E-2,-0E0,1.7038336E-2,-0E0,-4.510554E-2,-0E0,-0E0,2.990427E-2,-0E0,-1.5927932E-3,9.592743E-5,-0E0,-0E0,8.9869724E-4],"categories":[],"categories_nodes":[],"categories_segments":[],"categories_sizes":[],"default_left":[0,0,0,0,0,0,0,0,0,0,0,0,0,0,0,0,0],"id":29,"left_children":[1,3,5,7,-1,9,-1,11,-1,13,15,-1,-1,-1,-1,-1,-1],"loss_changes":[7.684907E-2,1.230269E-1,8.8561416E-2,4.544209E-2,0E0,3.726767E-2,0E0,3.9677307E-2,0E0,2.1866139E-3,5.4774135E-3,0E0,0E0,0E0,0E0,0E0,0E0],"parents":[2147483647,0,0,1,1,2,2,3,3,5,5,7,7,9,9,10,10],"right_children":[2,4,6,8,-1,10,-1,12,-1,14,16,-1,-1,-1,-1,-1,-1],"split_conditions":[9E0,2.5065908E1,7.5665306E1,4E0,-0E0,2E0,-0E0,4.5863636E1,-0E0,1.3E1,7.851136E1,-0E0,-1.5927932E-3,9.592743E-5,-0E0,-0E0,8.9869724E-4],"split_indices":[21,14,15,0,0,0,0,15,0,23,18,0,0,0,0,0,0],"split_type":[0,0,0,0,0,0,0,0,0,0,0,0,0,0,0,0,0],"sum_hessian":[6.9E2,2.04E2,4.86E2,1.31E2,7.3E1,4.43E2,4.3E1,9.5E1,3.6E1,2.61E2,1.82E2,2.7E1,6.8E1,1.76E2,8.5E1,2.4E1,1.58E2],"tree_param":{"num_deleted":"0","num_feature":"24","num_nodes":"17","size_leaf_vector":"1"}},{"base_weights":[-0E0,-8.9450926E-4,1.9247083E-3,1.3359303E-2,-1.9449499E-2,-0E0,2.4410088E-2,-8.724081E-4,-0E0,-0E0,7.6969044E-4],"categories":[],"categories_nodes":[],"categories_segments":[],"categories_sizes":[],"default_left":[0,0,0,0,0,0,0,0,0,0,0],"id":30,"left_children":[1,-1,3,5,7,-1,9,-1,-1,-1,-1],"loss_changes":[9.587696E-2,0E0,1.2309802E-1,9.472787E-2,1.1313263E-2,0E0,2.568999E-2,0E0,0E0,0E0,0E0],"parents":[2147483647,0,0,2,2,3,3,4,4,6,6],"right_children":[2,-1,4,6,8,-1,10,-1,-1,-1,-1],"split_conditions":[1.0056819E0,-8.9450926E-4,1.38E1,3E0,2.0551924E1,-0E0,3.6445625E1,-8.724081E-4,-0E0,-0E0,7.6969044E-4],"split_indices":[16,0,22,7,14,0,19,0,0,0,0],"split_type":[0,0,0,0,0,0,0,0,0,0,0],"sum_hessian":[7E2,8.4E1,6.16E2,5.53E2,6.3E1,2.32E2,3.21E2,3.2E1,3.1E1,4.3E1,2.78E2],"tree_param":{"num_deleted":"0","num_feature":"24","num_nodes":"11","size_leaf_vector":"1"}},{"base_weights":[-0E0,8.348642E-3,-2.0697635E-2,-0E0,1.9755011E-2,-1.9119614E-3,-0E0,-0E0,-5.855345E-5,-0E0,3.590752E-2,1.1205002E-3,-0E0],"categories":[],"categories_nodes":[],"categories_segments":[],"categories_sizes":[],"default_left":[0,0,0,0,0,0,0,0,0,0,0,0,0],"id":31,"left_children":[1,3,5,7,9,-1,-1,-1,-1,-1,11,-1,-1],"loss_changes":[1.2975383E-1,1.3056037E-1,2.1726608E-1,2.3006977E-4,8.6486936E-2,0E0,0E0,0E0,0E0,0E0,3.024137E-2,0E0,0E0],"parents":[2147483647,0,0,1,1,2,2,3,3,4,4,10,10],"right_children":[2,4,6,8,10,-1,-1,-1,-1,-1,12,-1,-1],"split_conditions":[6.6E0,3.3852173E1,9.53777E1,3E0,2E0,-1.9119614E-3,-0E0,-0E0,-5.855345E-5,-0E0,6E0,1.1205002E-3,-0E0],"split_indices":[22,19,18,10,0,0,0,0,0,0,2,0,0],"split_type":[0,0,0,0,0,0,0,0,0,0,0,0,0],"sum_hessian":[7.08E2,4.91E2,2.17E2,7.3E1,4.18E2,6E1,1.57E2,2.7E1,4.6E1,2.28E2,1.9E2,1.66E2,2.4E1],"tree_param":{"num_deleted":"0","num_feature":"24","num_nodes":"13","size_leaf_vector":"1"}},{"base_weights":[-0E0,-1.3551576E-3,3.7813724E-3,1.3699717E-2,-8.1333163E-4,-0E0,2.0126741E-2,-4.3154488E-4,-0E0,6.11006E-4,-0E0],"categories":[],"categories_nodes":[],"categories_segments":[],"categories_sizes":[],"default_left":[0,0,0,0,0,0,0,0,0,0,0],"id":32,"left_children":[1,-1,3,5,7,-1,9,-1,-1,-1,-1],"loss_changes":[2.1629676E-1,0E0,9.1554224E-2,1.0681126E-1,1.3174828E-2,0E0,1.9248292E-2,0E0,0E0,0E0,0E0],"parents":[2147483647,0,0,2,2,3,3,4,4,6,6],"right_children":[2,-1,4,6,8,-1,10,-1,-1,-1,-1],"split_conditions":[1.0056819E0,-1.3551576E-3,1.275E1,7E0,2.5113985E1,-0E0,7E0,-4.3154488E-4,-0E0,6.11006E-4,-0E0],"split_indices":[16,0,22,1,14,0,2,0,0,0,0],"split_type":[0,0,0,0,0,0,0,0,0,0,0],"sum_hessian":[6.88E2,8.1E1,6.07E2,5.29E2,7.8E1,2.3E1,5.06E2,4.9E1,2.9E1,4.57E2,4.9E1],"tree_param":{"num_deleted":"0","num_feature":"24","num_nodes":"11","size_leaf_vector":"1"}},{"base_weights":[-0E0,-1.9979483E-2,9.944993E-3,-5.2497108E-2,-0E0,-0E0,1.8879896E-2,-1.8784481E-3,-0E0,-0E0,2.5049848E-2,7.373023E-4,-0E0],"categories":[],"categories_nodes":[],"categories_segments":[],"categories_sizes":[],"default_left":[0,0,0,0,0,0,0,0,0,0,0,0,0],"id":33,"left_children":[1,3,5,7,-1,-1,9,-1,-1,-1,11,-1,-1],"loss_changes":[1.399614E-1,1.5344572E-1,8.318735E-2,2.3462385E-2,0E0,0E0,3.2374725E-2,0E0,0E0,0E0,5.8560222E-3,0E0,0E0],"parents":[2147483647,0,0,1,1,2,2,3,3,6,6,10,10],"right_children":[2,4,6,8,-1,-1,10,-1,-1,-1,12,-1,-1],"split_conditions":[9.2E0,4.381E0,3.6445625E1,2.4E1,-0E0,-0E0,3E0,-1.8784481E-3,-0E0,-0E0,4.6E0,7.373023E-4,-0E0],"split_indices":[21,11,19,1,0,0,9,0,0,0,22,0,0],"split_type":[0,0,0,0,0,0,0,0,0,0,0,0,0],"sum_hessian":[7.03E2,2.26E2,4.77E2,8.4E1,1.42E2,1.15E2,3.62E2,5.3E1,3.1E1,1.07E2,2.55E2,2.32E2,2.3E1],"tree_param":{"num_deleted":"0","num_feature":"24","num_nodes":"13","size_leaf_vector":"1"}},{"base_weights":[-0E0,-1.0979966E-2,1.018399E-2,-3.159945E-2,-0E0,9.271733E-4,-0E0,-0E0,-4.758715E-2,-0E0,-1.58837E-3],"categories":[],"categories_nodes":[],"categories_segments":[],"categories_sizes":[],"default_left":[0,0,0,0,0,0,0,0,0,0,0],"id":34,"left_children":[1,3,5,7,-1,-1,-1,-1,9,-1,-1],"loss_changes":[7.826729E-2,1.7001201E-1,1.4229241E-1,1.5383664E-1,0E0,0E0,0E0,0E0,9.120634E-2,0E0,0E0],"parents":[2147483647,0,0,1,1,2,2,3,3,8,8],"right_children":[2,4,6,8,-1,-1,-1,-1,10,-1,-1],"split_conditions":[3E0,1.2845926E2,1.2941632E2,5.251875E1,-0E0,9.271733E-4,-0E0,-0E0,3E0,-0E0,-1.58837E-3],"split_indices":[4,18,18,20,0,0,0,0,10,0,0],"split_type":[0,0,0,0,0,0,0,0,0,0,0],"sum_hessian":[6.92E2,3.17E2,3.75E2,2.04E2,1.13E2,1.56E2,2.19E2,4.9E1,1.55E2,2.3E1,1.32E2],"tree_param":{"num_deleted":"0","num_feature":"24","num_nodes":"11","size_leaf_vector":"1"}},{"base_weights":[-0E0,-1.9403275E-2,7.297802E-3,-5.214395E-2,-0E0,-0E0,1.6197344E-2,-1.8461262E-3,-0E0,-0E0,6.081009E-4],"categories":[],"categories_nodes":[],"categories_segments":[],"categories_sizes":[],"default_left":[0,0,0,0,0,0,0,0,0,0,0],"id":35,"left_children":[1,3,5,7,-1,-1,9,-1,-1,-1,-1],"loss_changes":[1.10757165E-1,2.1316472E-1,8.2064435E-2,3.0249715E-2,0E0,0E0,3.2042347E-2,0E0,0E0,0E0,0E0],"parents":[2147483647,0,0,1,1,2,2,3,3,6,6],"right_children":[2,4,6,8,-1,-1,10,-1,-1,-1,-1],"split_conditions":[9E0,2.3010778E1,3.6422157E1,4E0,-0E0,-0E0,3E0,-1.8461262E-3,-0E0,-0E0,6.081009E-4],"split_indices":[21,14,19,0,0,0,9,0,0,0,0],"split_type":[0,0,0,0,0,0,0,0,0,0,0],"sum_hessian":[7.21E2,2.17E2,5.04E2,1.04E2,1.13E2,9.3E1,4.11E2,6.8E1,3.6E1,1.25E2,2.86E2],"tree_param":{"num_deleted":"0","num_feature":"24","num_nodes":"11","size_leaf_vector":"1"}},{"base_weights":[-0E0,-1.7945591E-2,4.037314E-3,-4.00372E-2,-0E0,1.8540433E-2,-0E0,-0E0,-6.184604E-2,5.862685E-4,-0E0,-2.100928E-3,-0E0],"categories":[],"categories_nodes":[],"categories_segments":[],"categories_sizes":[],"default_left":[0,0,0,0,0,0,0,0,0,0,0,0,0],"id":36,"left_children":[1,3,5,7,-1,9,-1,-1,11,-1,-1,-1,-1],"loss_changes":[8.664458E-2,2.4478349E-1,6.315309E-2,1.3172102E-1,0E0,8.4449425E-3,0E0,0E0,3.726101E-2,0E0,0E0,0E0,0E0],"parents":[2147483647,0,0,1,1,2,2,3,3,5,5,8,8],"right_children":[2,4,6,8,-1,10,-1,-1,12,-1,-1,-1,-1],"split_conditions":[2.3010778E1,1.7489412E2,2.45E1,1.8E0,-0E0,1.8568391E2,-0E0,-0E0,4E0,5.862685E-4,-0E0,-2.100928E-3,-0E0],"split_indices":[14,20,12,22,0,18,0,0,0,0,0,0,0],"split_type":[0,0,0,0,0,0,0,0,0,0,0,0,0],"sum_hessian":[6.88E2,2.41E2,4.47E2,1.97E2,4.4E1,2E2,2.47E2,8.3E1,1.14E2,1.7E2,3E1,8E1,3.4E1],"tree_param":{"num_deleted":"0","num_feature":"24","num_nodes":"13","size_leaf_vector":"1"}},{"base_weights":[-0E0,-2.2209346E-2,6.610257E-3,-5.180683E-2,-0E0,-0E0,1.3540749E-2,-1.7280392E-3,-0E0,-0E0,1.7212203E-2,-0E0,5.088613E-4],"categories":[],"categories_nodes":[],"categories_segments":[],"categories_sizes":[],"default_left":[0,0,0,0,0,0,0,0,0,0,0,0,0],"id":37,"left_children":[1,3,5,7,-1,-1,9,-1,-1,-1,11,-1,-1],"loss_changes":[1.2727176E-1,1.8734416E-1,5.1000424E-2,3.274131E-2,0E0,0E0,3.554558E-2,0E0,0E0,0E0,7.3508024E-3,0E0,0E0],"parents":[2147483647,0,0,1,1,2,2,3,3,6,6,10,10],"right_children":[2,4,6,8,-1,-1,10,-1,-1,-1,12,-1,-1],"split_conditions":[9E0,2.3010778E1,3.6422157E1,2.4E1,-0E0,-0E0,8E0,-1.7280392E-3,-0E0,-0E0,2.2E1,-0E0,5.088613E-4],"split_indices":[21,14,19,1,0,0,1,0,0,0,12,0,0],"split_type":[0,0,0,0,0,0,0,0,0,0,0,0,0],"sum_hessian":[6.99E2,2.09E2,4.9E2,1.04E2,1.05E2,9.9E1,3.91E2,7.8E1,2.6E1,3.1E1,3.6E2,2.5E1,3.35E2],"tree_param":{"num_deleted":"0","num_feature":"24","num_nodes":"13","size_leaf_vector":"1"}},{"base_weights":[-0E0,5.382202E-3,-3.0749945E-2,-0E0,1.2925045E-2,-1.917672E-3,-0E0,2.0588107E-2,-0E0,-0E0,7.9261913E-4],"categories":[],"categories_nodes":[],"categories_segments":[],"categories_sizes":[],"default_left":[0,0,0,0,0,0,0,0,0,0,0],"id":38,"left_children":[1,3,5,-1,7,-1,-1,9,-1,-1,-1],"loss_changes":[1.1383897E-1,7.667199E-2,1.8876676E-1,0E0,8.418064E-2,0E0,0E0,6.266101E-2,0E0,0E0,0E0],"parents":[2147483647,0,0,1,1,2,2,4,4,7,7],"right_children":[2,4,6,-1,8,-1,-1,10,-1,-1,-1],"split_conditions":[7.338053E1,7E0,3.431032E1,-0E0,5E0,-1.917672E-3,-0E0,4.1910713E1,-0E0,-0E0,7.9261913E-4],"split_indices":[15,1,13,0,2,0,0,15,0,0,0],"split_type":[0,0,0,0,0,0,0,0,0,0,0],"sum_hessian":[6.87E2,5.9E2,9.7E1,3.3E1,5.57E2,5.4E1,4.3E1,4.15E2,1.42E2,1.28E2,2.87E2],"tree_param":{"num_deleted":"0","num_feature":"24","num_nodes":"11","size_leaf_vector":"1"}},{"base_weights":[-0E0,1.1419074E-3,-3.844123E-2,1.0126817E-2,-0E0,-1.5357513E-3,-0E0,-0E0,1.8587044E-2,-3.482672E-4,-0E0,-0E0,9.055293E-4],"categories":[],"categories_nodes":[],"categories_segments":[],"categories_sizes":[],"default_left":[0,0,0,0,0,0,0,0,0,0,0,0,0],"id":39,"left_children":[1,3,5,7,9,-1,-1,-1,11,-1,-1,-1,-1],"loss_changes":[1.1774257E-1,5.1347412E-2,3.8198628E-2,1.15499154E-1,7.5027933E-3,0E0,0E0,0E0,6.487794E-2,0E0,0E0,0E0,0E0],"parents":[2147483647,0,0,1,1,2,2,3,3,4,4,8,8],"right_children":[2,4,6,8,10,-1,-1,-1,12,-1,-1,-1,-1],"split_conditions":[1.38E1,7.338053E1,4.94E0,7E0,3.431032E1,-1.5357513E-3,-0E0,-0E0,2E0,-3.482672E-4,-0E0,-0E0,9.055293E-4],"split_indices":[22,15,11,1,13,0,0,0,0,0,0,0,0],"split_type":[0,0,0,0,0,0,0,0,0,0,0,0,0],"sum_hessian":[6.56E2,5.82E2,7.4E1,5.03E2,7.9E1,4.5E1,2.9E1,2.3E1,4.8E2,4.2E1,3.7E1,2.69E2,2.11E2],"tree_param":{"num_deleted":"0","num_feature":"24","num_nodes":"13","size_leaf_vector":"1"}},{"base_weights":[-0E0,-2.869021E-2,6.9888607E-3,-0E0,-5.905553E-2,-0E0,1.4513277E-2,-2.001796E-3,-0E0,-0E0,9.944128E-4],"categories":[],"categories_nodes":[],"categories_segments":[],"categories_sizes":[],"default_left":[0,0,0,0,0,0,0,0,0,0,0],"id":40,"left_children":[1,3,5,-1,7,-1,9,-1,-1,-1,-1],"loss_changes":[2.0714226E-1,1.935247E-1,6.273049E-2,0E0,2.8346747E-2,0E0,4.632335E-2,0E0,0E0,0E0,0E0],"parents":[2147483647,0,0,1,1,2,2,4,4,6,6],"right_children":[2,4,6,-1,8,-1,10,-1,-1,-1,-1],"split_conditions":[9.2E0,5.251875E1,3.1593151E1,-0E0,2.4E1,-0E0,3E0,-2.001796E-3,-0E0,-0E0,9.944128E-4],"split_indices":[21,15,19,0,1,0,0,0,0,0,0],"split_type":[0,0,0,0,0,0,0,0,0,0,0],"sum_hessian":[6.93E2,2.18E2,4.75E2,1.15E2,1.03E2,7.1E1,4.04E2,7.2E1,3.1E1,3.07E2,9.7E1],"tree_param":{"num_deleted":"0","num_feature":"24","num_nodes":"11","size_leaf_vector":"1"}},{"base_weights":[-0E0,-1.7374428E-2,7.7246036E-3,-3.2878593E-2,-0E0,2.4425626E-2,-0E0,-0E0,-4.973253E-2,-0E0,7.4114464E-4,-1.6615591E-3,-0E0],"categories":[],"categories_nodes":[],"categories_segments":[],"categories_sizes":[],"default_left":[0,0,0,0,0,0,0,0,0,0,0,0,0],"id":41,"left_children":[1,3,5,7,-1,9,-1,-1,11,-1,-1,-1,-1],"loss_changes":[1.193309E-1,1.6837147E-1,1.0508629E-1,2.1767554E-1,0E0,3.4748465E-3,0E0,0E0,9.7281784E-2,0E0,0E0,0E0,0E0],"parents":[2147483647,0,0,1,1,2,2,3,3,5,5,8,8],"right_children":[2,4,6,8,-1,10,-1,-1,12,-1,-1,-1,-1],"split_conditions":[3E0,1.4144907E2,4.3138775E1,5.251875E1,-0E0,4.1910713E1,-0E0,-0E0,2.676111E1,-0E0,7.4114464E-4,-1.6615591E-3,-0E0],"split_indices":[4,18,13,20,0,15,0,0,14,0,0,0,0],"split_type":[0,0,0,0,0,0,0,0,0,0,0,0,0],"sum_hessian":[6.9E2,3.15E2,3.75E2,2.4E2,7.5E1,2.09E2,1.66E2,5E1,1.9E2,3.2E1,1.77E2,1.55E2,3.5E1],"tree_param":{"num_deleted":"0","num_feature":"24","num_nodes":"13","size_leaf_vector":"1"}},{"base_weights":[-0E0,-2.210125E-2,2.3315474E-3,-5.1462244E-2,-0E0,-0E0,1.2075771E-2,-1.8600866E-3,-0E0,-0E0,4.972069E-4],"categories":[],"categories_nodes":[],"categories_segments":[],"categories_sizes":[],"default_left":[0,0,0,0,0,0,0,0,0,0,0],"id":42,"left_children":[1,3,5,7,-1,-1,9,-1,-1,-1,-1],"loss_changes":[1.091792E-1,1.798833E-1,5.457079E-2,9.0955734E-2,0E0,0E0,5.8951862E-2,0E0,0E0,0E0,0E0],"parents":[2147483647,0,0,1,1,2,2,3,3,6,6],"right_children":[2,4,6,8,-1,-1,10,-1,-1,-1,-1],"split_conditions":[9.2E0,2.3964666E1,3.6422157E1,1.5E1,-0E0,-0E0,8E0,-1.8600866E-3,-0E0,-0E0,4.972069E-4],"split_indices":[21,14,19,23,0,0,1,0,0,0,0],"split_type":[0,0,0,0,0,0,0,0,0,0,0],"sum_hessian":[6.89E2,2.13E2,4.76E2,1.03E2,1.1E2,8.9E1,3.87E2,7.8E1,2.5E1,3.4E1,3.53E2],"tree_param":{"num_deleted":"0","num_feature":"24","num_nodes":"11","size_leaf_vector":"1"}},{"base_weights":[-0E0,3.401175E-3,-2.1519149E-2,-0E0,1.28113795E-2,-5.1819175E-2,-0E0,-0E0,4.1119967E-2,-1.9315723E-3,-0E0,1.3873561E-3,-0E0],"categories":[],"categories_nodes":[],"categories_segments":[],"categories_sizes":[],"default_left":[0,0,0,0,0,0,0,0,0,0,0,0,0],"id":43,"left_children":[1,3,5,-1,7,9,-1,-1,11,-1,-1,-1,-1],"loss_changes":[1.08917154E-1,6.2399052E-2,1.9783548E-1,0E0,1.01379015E-1,6.174904E-2,0E0,0E0,2.2921115E-2,0E0,0E0,0E0,0E0],"parents":[2147483647,0,0,1,1,2,2,4,4,5,5,8,8],"right_children":[2,4,6,-1,8,10,-1,-1,12,-1,-1,-1,-1],"split_conditions":[6.6E0,3.1593151E1,2.3010778E1,-0E0,3E0,4E0,-0E0,-0E0,1.3926294E2,-1.9315723E-3,-0E0,1.3873561E-3,-0E0],"split_indices":[22,19,14,0,0,0,0,0,19,0,0,0,0],"split_type":[0,0,0,0,0,0,0,0,0,0,0,0,0],"sum_hessian":[6.95E2,4.77E2,2.18E2,6.8E1,4.09E2,1.07E2,1.11E2,3.14E2,9.5E1,6.9E1,3.8E1,7.1E1,2.4E1],"tree_param":{"num_deleted":"0","num_feature":"24","num_nodes":"13","size_leaf_vector":"1"}},{"base_weights":[-0E0,-1.6223714E-2,4.9117994E-3,-3.739181E-2,-0E0,-0E0,2.8214324E-2,-4.7227893E-2,-0E0,8.992297E-4,-0E0,-0E0,-1.6508544E-3],"categories":[],"categories_nodes":[],"categories_segments":[],"categories_sizes":[],"default_left":[0,0,0,0,0,0,0,0,0,0,0,0,0],"id":44,"left_children":[1,3,5,7,-1,-1,9,11,-1,-1,-1,-1,-1],"loss_changes":[6.6395745E-2,9.617084E-2,7.4757576E-2,3.2032087E-2,0E0,0E0,2.1017566E-3,3.2014847E-3,0E0,0E0,0E0,0E0,0E0],"parents":[2147483647,0,0,1,1,2,2,3,3,6,6,7,7],"right_children":[2,4,6,8,-1,-1,10,12,-1,-1,-1,-1,-1],"split_conditions":[9.2E0,2.3964666E1,3E0,4E0,-0E0,-0E0,9.8E0,4.8426575E1,-0E0,8.992297E-4,-0E0,-0E0,-1.6508544E-3],"split_indices":[21,14,0,0,0,0,17,15,0,0,0,0,0],"split_type":[0,0,0,0,0,0,0,0,0,0,0,0,0],"sum_hessian":[6.69E2,2.04E2,4.65E2,1.03E2,1.01E2,3.62E2,1.03E2,7.7E1,2.6E1,7.8E1,2.5E1,3E1,4.7E1],"tree_param":{"num_deleted":"0","num_feature":"24","num_nodes":"13","size_leaf_vector":"1"}},{"base_weights":[-0E0,-1.5817033E-2,9.055475E-3,-3.0416735E-2,-0E0,2.1824691E-2,-0E0,-0E0,-4.923018E-2,-0E0,7.007219E-4,-1.6033648E-3,-0E0],"categories":[],"categories_nodes":[],"categories_segments":[],"categories_sizes":[],"default_left":[0,0,0,0,0,0,0,0,0,0,0,0,0],"id":45,"left_children":[1,3,5,7,-1,9,-1,-1,11,-1,-1,-1,-1],"loss_changes":[1.0647576E-1,1.2529409E-1,7.456641E-2,1.9487664E-1,0E0,1.6847387E-2,0E0,0E0,6.949219E-2,0E0,0E0,0E0,0E0],"parents":[2147483647,0,0,1,1,2,2,3,3,5,5,8,8],"right_children":[2,4,6,8,-1,10,-1,-1,12,-1,-1,-1,-1],"split_conditions":[6.2123375E1,1.33992E2,1.2941632E2,5.251875E1,-0E0,3E0,-0E0,-0E0,2.6405556E1,-0E0,7.007219E-4,-1.6033648E-3,-0E0],"split_indices":[19,18,19,20,0,4,0,0,14,0,0,0,0],"split_type":[0,0,0,0,0,0,0,0,0,0,0,0,0],"sum_hessian":[6.91E2,2.86E2,4.05E2,2.09E2,7.7E1,2.22E2,1.83E2,5.2E1,1.57E2,3.3E1,1.89E2,1.32E2,2.5E1],"tree_param":{"num_deleted":"0","num_feature":"24","num_nodes":"13","size_leaf_vector":"1"}},{"base_weights":[-0E0,6.8029542E-3,-1.4366062E-2,-0E0,1.6543647E-2,-1.3313836E-3,-0E0,-4.1095056E-5,-0E0,-0E0,2.5496712E-2,-0E0,1.0716483E-3],"categories":[],"categories_nodes":[],"categories_segments":[],"categories_sizes":[],"default_left":[0,0,0,0,0,0,0,0,0,0,0,0,0],"id":46,"left_children":[1,3,5,7,9,-1,-1,-1,-1,-1,11,-1,-1],"loss_changes":[6.491631E-2,9.426399E-2,1.8650344E-1,1.1997255E-4,8.6122E-2,0E0,0E0,0E0,0E0,0E0,3.466609E-2,0E0,0E0],"parents":[2147483647,0,0,1,1,2,2,3,3,4,4,10,10],"right_children":[2,4,6,8,10,-1,-1,-1,-1,-1,12,-1,-1],"split_conditions":[7.6E0,3.1593151E1,2.3010778E1,6.174E0,3E0,-1.3313836E-3,-0E0,-4.1095056E-5,-0E0,-0E0,2E0,-0E0,1.0716483E-3],"split_indices":[22,19,14,11,9,0,0,0,0,0,0,0,0],"split_type":[0,0,0,0,0,0,0,0,0,0,0,0,0],"sum_hessian":[6.93E2,4.96E2,1.97E2,7.2E1,4.24E2,9.3E1,1.04E2,4.9E1,2.3E1,1.16E2,3.08E2,1.55E2,1.53E2],"tree_param":{"num_deleted":"0","num_feature":"24","num_nodes":"13","size_leaf_vector":"1"}},{"base_weights":[-0E0,-8.59531E-3,7.196588E-3,-4.052172E-2,-0E0,1.1187765E-2,-0E0,-1.525252E-3,-0E0,-0E0,1.0420346E-3],"categories":[],"categories_nodes":[],"categories_segments":[],"categories_sizes":[],"default_left":[0,0,0,0,0,0,0,0,0,0,0],"id":47,"left_children":[1,3,5,7,-1,9,-1,-1,-1,-1,-1],"loss_changes":[4.1916158E-2,1.7029996E-1,3.082944E-2,6.325592E-2,0E0,5.8574677E-2,0E0,0E0,0E0,0E0,0E0],"parents":[2147483647,0,0,1,1,2,2,3,3,5,5],"right_children":[2,4,6,8,-1,10,-1,-1,-1,-1,-1],"split_conditions":[9.2E0,2.3964666E1,7.5665306E1,4E0,-0E0,3E0,-0E0,-1.525252E-3,-0E0,-0E0,1.0420346E-3],"split_indices":[21,14,15,0,0,0,0,0,0,0,0],"split_type":[0,0,0,0,0,0,0,0,0,0,0],"sum_hessian":[7E2,2.27E2,4.73E2,1.09E2,1.18E2,4.39E2,3.4E1,7.7E1,3.2E1,3.64E2,7.5E1],"tree_param":{"num_deleted":"0","num_feature":"24","num_nodes":"11","size_leaf_vector":"1"}},{"base_weights":[-0E0,1.072268E-2,-3.998319E-3,1.7136484E-2,-0E0,-3.7304472E-2,-0E0,-0E0,2.4846394E-2,-1.3740724E-3,-0E0,7.593583E-4,-0E0],"categories":[],"categories_nodes":[],"categories_segments":[],"categories_sizes":[],"default_left":[0,0,0,0,0,0,0,0,0,0,0,0,0],"id":48,"left_children":[1,3,5,7,-1,9,-1,-1,11,-1,-1,-1,-1],"loss_changes":[6.080826E-2,7.710024E-2,1.1961355E-1,6.775084E-2,0E0,2.6302435E-2,0E0,0E0,1.7628849E-2,0E0,0E0,0E0,0E0],"parents":[2147483647,0,0,1,1,2,2,3,3,5,5,8,8],"right_children":[2,4,6,8,-1,10,-1,-1,12,-1,-1,-1,-1],"split_conditions":[8.2E0,7.5665306E1,2.3010778E1,3.8306667E1,-0E0,2.2E1,-0E0,-0E0,2.9E1,-1.3740724E-3,-0E0,7.593583E-4,-0E0],"split_indices":[22,15,14,15,0,1,0,0,1,0,0,0,0],"split_type":[0,0,0,0,0,0,0,0,0,0,0,0,0],"sum_hessian":[6.84E2,4.97E2,1.87E2,4.54E2,4.3E1,8.3E1,1.04E2,1.31E2,3.23E2,5.5E1,2.8E1,2.86E2,3.7E1],"tree_param":{"num_deleted":"0","num_feature":"24","num_nodes":"13","size_leaf_vector":"1"}},{"base_weights":[-0E0,-1.36273E-2,4.7234166E-3,-4.5373496E-2,-0E0,-0E0,1.3020878E-2,-1.5538455E-3,-0E0,-0E0,2.0677295E-2,-0E0,6.584202E-4],"categories":[],"categories_nodes":[],"categories_segments":[],"categories_sizes":[],"default_left":[0,0,0,0,0,0,0,0,0,0,0,0,0],"id":49,"left_children":[1,3,5,7,-1,-1,9,-1,-1,-1,11,-1,-1],"loss_changes":[5.372911E-2,1.8798266E-1,5.602523E-2,2.2952035E-2,0E0,0E0,5.3810485E-2,0E0,0E0,0E0,6.8266615E-3,0E0,0E0],"parents":[2147483647,0,0,1,1,2,2,3,3,6,6,10,10],"right_children":[2,4,6,8,-1,-1,10,-1,-1,-1,12,-1,-1],"split_conditions":[9.2E0,2.3964666E1,3.6422157E1,4E0,-0E0,-0E0,3E0,-1.5538455E-3,-0E0,-0E0,3.8306667E1,-0E0,6.584202E-4],"split_indices":[21,14,19,0,0,0,9,0,0,0,15,0,0],"split_type":[0,0,0,0,0,0,0,0,0,0,0,0,0],"sum_hessian":[7.05E2,2.26E2,4.79E2,1.07E2,1.19E2,9E1,3.89E2,7.5E1,3.2E1,1.12E2,2.77E2,5.8E1,2.19E2],"tree_param":{"num_deleted":"0","num_feature":"24","num_nodes":"13","size_leaf_vector":"1"}},{"base_weights":[-0E0,-1.6238157E-2,3.0937183E-3,-3.6964837E-2,-0E0,5.00859E-4,-0E0,-0E0,-5.2774746E-2,-1.7141697E-3,-0E0],"categories":[],"categories_nodes":[],"categories_segments":[],"categories_sizes":[],"default_left":[0,0,0,0,0,0,0,0,0,0,0],"id":50,"left_children":[1,3,5,7,-1,-1,-1,-1,9,-1,-1],"loss_changes":[8.910276E-2,2.2218466E-1,5.3677462E-2,1.8297777E-1,0E0,0E0,0E0,0E0,9.196141E-2,0E0,0E0],"parents":[2147483647,0,0,1,1,2,2,3,3,8,8],"right_children":[2,4,6,8,-1,-1,-1,-1,10,-1,-1],"split_conditions":[3E0,1.33992E2,4.2664E1,5.251875E1,-0E0,5.00859E-4,-0E0,-0E0,2.6405556E1,-1.7141697E-3,-0E0],"split_indices":[4,18,13,20,0,0,0,0,14,0,0],"split_type":[0,0,0,0,0,0,0,0,0,0,0],"sum_hessian":[6.93E2,3.19E2,3.74E2,2.2E2,9.9E1,1.69E2,2.05E2,4.9E1,1.71E2,1.46E2,2.5E1],"tree_param":{"num_deleted":"0","num_feature":"24","num_nodes":"11","size_leaf_vector":"1"}},{"base_weights":[-0E0,-9.079734E-3,6.43216E-3,-2.0503576E-3,-0E0,-0E0,2.1662457E-2,-0E0,2.6283255E-2,-0E0,9.982088E-4],"categories":[],"categories_nodes":[],"categories_segments":[],"categories_sizes":[],"default_left":[0,0,0,0,0,0,0,0,0,0,0],"id":51,"left_children":[1,3,5,-1,-1,-1,7,-1,9,-1,-1],"loss_changes":[4.187814E-2,2.7875865E-1,1.0701807E-1,0E0,0E0,0E0,3.757813E-2,0E0,5.609764E-2,0E0,0E0],"parents":[2147483647,0,0,1,1,2,2,6,6,8,8],"right_children":[2,4,6,-1,-1,-1,8,-1,10,-1,-1],"split_conditions":[1.4443114E0,3.1792568E1,4.786014E1,-2.0503576E-3,-0E0,-0E0,2.25E1,-0E0,1.518797E0,-0E0,9.982088E-4],"split_indices":[16,13,15,0,0,0,12,0,16,0,0],"split_type":[0,0,0,0,0,0,0,0,0,0,0],"sum_hessian":[6.96E2,3.03E2,3.93E2,5E1,2.53E2,1.35E2,2.58E2,3E1,2.28E2,6.7E1,1.61E2],"tree_param":{"num_deleted":"0","num_feature":"24","num_nodes":"11","size_leaf_vector":"1"}},{"base_weights":[-0E0,-1.007623E-2,7.5907353E-3,-3.9497353E-2,-0E0,-0E0,1.4494564E-2,-4.8787504E-2,-0E0,-0E0,6.8999885E-4,-1.6777384E-3,-0E0],"categories":[],"categories_nodes":[],"categories_segments":[],"categories_sizes":[],"default_left":[0,0,0,0,0,0,0,0,0,0,0,0,0],"id":52,"left_children":[1,3,5,7,-1,-1,9,11,-1,-1,-1,-1,-1],"loss_changes":[5.058467E-2,1.5211357E-1,5.8867604E-2,2.7725384E-2,0E0,0E0,3.0911118E-2,2.68009E-2,0E0,0E0,0E0,0E0,0E0],"parents":[2147483647,0,0,1,1,2,2,3,3,6,6,7,7],"right_children":[2,4,6,8,-1,-1,10,12,-1,-1,-1,-1,-1],"split_conditions":[9.2E0,2.3964666E1,3.1593151E1,1.5E1,-0E0,-0E0,2E0,2.4E1,-0E0,-0E0,6.8999885E-4,-1.6777384E-3,-0E0],"split_indices":[21,14,19,23,0,0,0,1,0,0,0,0,0],"split_type":[0,0,0,0,0,0,0,0,0,0,0,0,0],"sum_hessian":[6.96E2,2.2E2,4.76E2,1.07E2,1.13E2,6.9E1,4.07E2,8E1,2.7E1,2.24E2,1.83E2,5.7E1,2.3E1],"tree_param":{"num_deleted":"0","num_feature":"24","num_nodes":"13","size_leaf_vector":"1"}},{"base_weights":[-0E0,3.1397183E-4,-2.667855E-2,-0E0,1.006176E-2,-0E0,-1.1765955E-3,-2.8988929E-4,-0E0,-0E0,1.7103989E-2,-0E0,5.8142404E-4],"categories":[],"categories_nodes":[],"categories_segments":[],"categories_sizes":[],"default_left":[0,0,0,0,0,0,0,0,0,0,0,0,0],"id":53,"left_children":[1,3,5,7,9,-1,-1,-1,-1,-1,11,-1,-1],"loss_changes":[7.348168E-2,4.9059052E-2,5.94235E-2,9.166487E-3,5.5661302E-2,0E0,0E0,0E0,0E0,0E0,2.7873538E-2,0E0,0E0],"parents":[2147483647,0,0,1,1,2,2,3,3,4,4,10,10],"right_children":[2,4,6,8,10,-1,-1,-1,-1,-1,12,-1,-1],"split_conditions":[1.28E1,3.6422157E1,4.5863636E1,1.5098684E0,3.8306667E1,-0E0,-1.1765955E-3,-2.8988929E-4,-0E0,-0E0,3E0,-0E0,5.8142404E-4],"split_indices":[22,19,15,16,15,0,0,0,0,0,9,0,0],"split_type":[0,0,0,0,0,0,0,0,0,0,0,0,0],"sum_hessian":[6.82E2,5.84E2,9.8E1,1.04E2,4.8E2,3E1,6.8E1,7.8E1,2.6E1,1.27E2,3.53E2,5.9E1,2.94E2],"tree_param":{"num_deleted":"0","num_feature":"24","num_nodes":"13","size_leaf_vector":"1"}},{"base_weights":[-0E0,-1.4475033E-2,3.6084603E-3,-4.1872952E-2,-0E0,1.1005688E-2,-0E0,-1.8686859E-3,-0E0,1.4255021E-2,-0E0,4.5118216E-4,-0E0],"categories":[],"categories_nodes":[],"categories_segments":[],"categories_sizes":[],"default_left":[0,0,0,0,0,0,0,0,0,0,0,0,0],"id":54,"left_children":[1,3,5,7,-1,9,-1,-1,-1,11,-1,-1,-1],"loss_changes":[5.3547535E-2,1.089416E-1,4.6668954E-2,6.884085E-2,0E0,1.852772E-2,0E0,0E0,0E0,9.322144E-3,0E0,0E0,0E0],"parents":[2147483647,0,0,1,1,2,2,3,3,5,5,9,9],"right_children":[2,4,6,8,-1,10,-1,-1,-1,12,-1,-1,-1],"split_conditions":[9.2E0,4.381E0,7.5665306E1,1.62E1,-0E0,1.7E1,-0E0,-1.8686859E-3,-0E0,7.202841E1,-0E0,4.5118216E-4,-0E0],"split_indices":[21,11,15,17,0,23,0,0,0,15,0,0,0],"split_type":[0,0,0,0,0,0,0,0,0,0,0,0,0],"sum_hessian":[6.89E2,2.21E2,4.68E2,8.4E1,1.37E2,4.31E2,3.7E1,4.4E1,4E1,3.46E2,8.5E1,2.97E2,4.9E1],"tree_param":{"num_deleted":"0","num_feature":"24","num_nodes":"13","size_leaf_vector":"1"}},{"base_weights":[-0E0,-1.9252244E-2,2.4799656E-4,-5.2788433E-2,-0E0,-0E0,5.1094644E-4,-1.9128976E-3,-0E0],"categories":[],"categories_nodes":[],"categories_segments":[],"categories_sizes":[],"default_left":[0,0,0,0,0,0,0,0,0],"id":55,"left_children":[1,3,5,7,-1,-1,-1,-1,-1],"loss_changes":[8.422601E-2,1.6147164E-1,3.598079E-2,4.3077335E-2,0E0,0E0,0E0,0E0,0E0],"parents":[2147483647,0,0,1,1,2,2,3,3],"right_children":[2,4,6,8,-1,-1,-1,-1,-1],"split_conditions":[9.2E0,4.381E0,3E0,2.4E1,-0E0,-0E0,5.1094644E-4,-1.9128976E-3,-0E0],"split_indices":[21,11,0,1,0,0,0,0,0],"split_type":[0,0,0,0,0,0,0,0,0],"sum_hessian":[6.95E2,2.22E2,4.73E2,8.3E1,1.39E2,3.73E2,1E2,5.5E1,2.8E1],"tree_param":{"num_deleted":"0","num_feature":"24","num_nodes":"9","size_leaf_vector":"1"}},{"base_weights":[-0E0,-1.5191549E-2,3.510459E-3,-5.0969608E-2,-0E0,-0E0,1.0778378E-2,-6.225334E-2,-0E0,1.6128145E-2,-0E0,-2.1130801E-3,-0E0,-0E0,5.1655166E-4],"categories":[],"categories_nodes":[],"categories_segments":[],"categories_sizes":[],"default_left":[0,0,0,0,0,0,0,0,0,0,0,0,0,0,0],"id":56,"left_children":[1,3,5,7,-1,-1,9,11,-1,13,-1,-1,-1,-1,-1],"loss_changes":[6.3458316E-2,2.2799045E-1,3.8900457E-2,4.7726452E-2,0E0,0E0,3.62533E-2,3.0143827E-2,0E0,1.483462E-2,0E0,0E0,0E0,0E0,0E0],"parents":[2147483647,0,0,1,1,2,2,3,3,6,6,7,7,9,9],"right_children":[2,4,6,8,-1,-1,10,12,-1,14,-1,-1,-1,-1,-1],"split_conditions":[2.3010778E1,9.25E0,9E0,2.4E1,-0E0,-0E0,3E1,1.5E1,-0E0,1.1E1,-0E0,-2.1130801E-3,-0E0,-0E0,5.1655166E-4],"split_indices":[14,21,1,1,0,0,12,23,0,1,0,0,0,0,0],"split_type":[0,0,0,0,0,0,0,0,0,0,0,0,0,0,0],"sum_hessian":[6.69E2,2.47E2,4.22E2,1.05E2,1.42E2,4.7E1,3.75E2,8.1E1,2.4E1,3.04E2,7.1E1,5.7E1,2.4E1,3.7E1,2.67E2],"tree_param":{"num_deleted":"0","num_feature":"24","num_nodes":"15","size_leaf_vector":"1"}},{"base_weights":[-0E0,-5.7211644E-3,5.814846E-3,-1.7632468E-2,-0E0,5.6119397E-4,-0E0,-0E0,-3.0487007E-2,-1.1039005E-3,-0E0],"categories":[],"categories_nodes":[],"categories_segments":[],"categories_sizes":[],"default_left":[0,0,0,0,0,0,0,0,0,0,0],"id":57,"left_children":[1,3,5,7,-1,-1,-1,-1,9,-1,-1],"loss_changes":[2.3314843E-2,6.309102E-2,5.7411678E-2,8.783269E-2,0E0,0E0,0E0,0E0,5.988933E-2,0E0,0E0],"parents":[2147483647,0,0,1,1,2,2,3,3,8,8],"right_children":[2,4,6,8,-1,-1,-1,-1,10,-1,-1],"split_conditions":[3E0,1.4144907E2,1.2941632E2,5.5952095E1,-0E0,5.6119397E-4,-0E0,-0E0,2.676111E1,-1.1039005E-3,-0E0],"split_indices":[4,18,18,20,0,0,0,0,14,0,0],"split_type":[0,0,0,0,0,0,0,0,0,0,0],"sum_hessian":[6.89E2,3.01E2,3.88E2,2.3E2,7.1E1,1.66E2,2.22E2,6.2E1,1.68E2,1.33E2,3.5E1],"tree_param":{"num_deleted":"0","num_feature":"24","num_nodes":"11","size_leaf_vector":"1"}},{"base_weights":[-0E0,-1.3803496E-2,7.7251124E-4,-4.739169E-4,-0E0,7.674666E-3,-0E0,-0E0,1.14017045E-2,-0E0,3.771532E-4],"categories":[],"categories_nodes":[],"categories_segments":[],"categories_sizes":[],"default_left":[0,0,0,0,0,0,0,0,0,0,0],"id":58,"left_children":[1,3,5,-1,-1,7,-1,-1,9,-1,-1],"loss_changes":[1.9242804E-2,3.5429224E-3,2.5046328E-2,0E0,0E0,2.0124862E-2,0E0,0E0,1.4400892E-2,0E0,0E0],"parents":[2147483647,0,0,1,1,2,2,5,5,8,8],"right_children":[2,4,6,-1,-1,8,-1,-1,10,-1,-1],"split_conditions":[9E0,1E1,5E0,-4.739169E-4,-0E0,3.6445625E1,-0E0,-0E0,1.855988E1,-0E0,3.771532E-4],"split_indices":[1,17,2,0,0,19,0,0,14,0,0],"split_type":[0,0,0,0,0,0,0,0,0,0,0],"sum_hessian":[6.74E2,9.4E1,5.8E2,7.1E1,2.3E1,4.26E2,1.54E2,8.1E1,3.45E2,2.9E1,3.16E2],"tree_param":{"num_deleted":"0","num_feature":"24","num_nodes":"11","size_leaf_vector":"1"}},{"base_weights":[-0E0,-1.1818132E-2,4.2905733E-3,-3.2623388E-2,-0E0,5.4186484E-4,-0E0,-0E0,-4.5745645E-2,-1.4811234E-3,-0E0],"categories":[],"categories_nodes":[],"categories_segments":[],"categories_sizes":[],"default_left":[0,0,0,0,0,0,0,0,0,0,0],"id":59,"left_children":[1,3,5,7,-1,-1,-1,-1,9,-1,-1],"loss_changes":[5.103143E-2,1.0862459E-1,6.1706766E-2,7.188675E-2,0E0,0E0,0E0,0E0,1.2160778E-2,0E0,0E0],"parents":[2147483647,0,0,1,1,2,2,3,3,8,8],"right_children":[2,4,6,8,-1,-1,-1,-1,10,-1,-1],"split_conditions":[3E0,3.431032E1,4.2664E1,5.8174862E1,-0E0,5.4186484E-4,-0E0,-0E0,3.1792568E1,-1.4811234E-3,-0E0],"split_indices":[4,13,13,15,0,0,0,0,13,0,0],"split_type":[0,0,0,0,0,0,0,0,0,0,0],"sum_hessian":[6.99E2,3.08E2,3.91E2,1.38E2,1.7E2,1.74E2,2.17E2,3.6E1,1.02E2,7.7E1,2.5E1],"tree_param":{"num_deleted":"0","num_feature":"24","num_nodes":"11","size_leaf_vector":"1"}},{"base_weights":[-0E0,-9.46138E-3,9.249559E-3,-2.6872385E-2,-0E0,6.1516266E-4,-0E0,-0E0,-4.782852E-2,-1.5369656E-3,-0E0],"categories":[],"categories_nodes":[],"categories_segments":[],"categories_sizes":[],"default_left":[0,0,0,0,0,0,0,0,0,0,0],"id":60,"left_children":[1,3,5,7,-1,-1,-1,-1,9,-1,-1],"loss_changes":[6.326537E-2,1.3258494E-1,4.800144E-2,2.4110633E-1,0E0,0E0,0E0,0E0,6.5392435E-2,0E0,0E0],"parents":[2147483647,0,0,1,1,2,2,3,3,8,8],"right_children":[2,4,6,8,-1,-1,-1,-1,10,-1,-1],"split_conditions":[3E0,1.33992E2,1.2941632E2,5.251875E1,-0E0,6.1516266E-4,-0E0,-0E0,2.6405556E1,-1.5369656E-3,-0E0],"split_indices":[4,18,18,20,0,0,0,0,14,0,0],"split_type":[0,0,0,0,0,0,0,0,0,0,0],"sum_hessian":[7.14E2,3.22E2,3.92E2,2.19E2,1.03E2,1.6E2,2.32E2,4.8E1,1.71E2,1.46E2,2.5E1],"tree_param":{"num_deleted":"0","num_feature":"24","num_nodes":"11","size_leaf_vector":"1"}},{"base_weights":[-0E0,-5.2093603E-3,8.752124E-3,-1.9692527E-2,-0E0,1.8197425E-2,-0E0,-0E0,-3.6520146E-2,6.0714793E-4,-0E0,-1.1873568E-3,-0E0],"categories":[],"categories_nodes":[],"categories_segments":[],"categories_sizes":[],"default_left":[0,0,0,0,0,0,0,0,0,0,0,0,0],"id":61,"left_children":[1,3,5,7,-1,9,-1,-1,11,-1,-1,-1,-1],"loss_changes":[3.8201075E-2,7.92405E-2,4.024376E-2,1.4819035E-1,0E0,1.2681834E-2,0E0,0E0,4.6943247E-2,0E0,0E0,0E0,0E0],"parents":[2147483647,0,0,1,1,2,2,3,3,5,5,8,8],"right_children":[2,4,6,8,-1,10,-1,-1,12,-1,-1,-1,-1],"split_conditions":[3E0,1.33992E2,4.3138775E1,5.251875E1,-0E0,1.6809511E2,-0E0,-0E0,2.6405556E1,6.0714793E-4,-0E0,-1.1873568E-3,-0E0],"split_indices":[4,18,13,20,0,18,0,0,14,0,0,0,0],"split_type":[0,0,0,0,0,0,0,0,0,0,0,0,0],"sum_hessian":[6.99E2,3.21E2,3.78E2,2.22E2,9.9E1,2.05E2,1.73E2,5E1,1.72E2,1.65E2,4E1,1.48E2,2.4E1],"tree_param":{"num_deleted":"0","num_feature":"24","num_nodes":"13","size_leaf_vector":"1"}},{"base_weights":[-0E0,-1.350701E-2,3.1932737E-3,-2.2825904E-3,-0E0,-0E0,1.172635E-2,-3.2318246E-3,-0E0,-0E0,1.6427815E-2,-0E0,-3.1303318E-4,5.343635E-4,-0E0],"categories":[],"categories_nodes":[],"categories_segments":[],"categories_sizes":[],"default_left":[0,0,0,0,0,0,0,0,0,0,0,0,0,0,0],"id":62,"left_children":[1,3,5,-1,-1,7,9,11,-1,-1,13,-1,-1,-1,-1],"loss_changes":[3.790943E-2,2.351191E-1,5.360658E-2,0E0,0E0,8.0591213E-4,4.8170187E-2,6.1552776E-3,0E0,0E0,1.9096948E-2,0E0,0E0,0E0,0E0],"parents":[2147483647,0,0,1,1,2,2,5,5,6,6,7,7,10,10],"right_children":[2,4,6,-1,-1,8,10,12,-1,-1,14,-1,-1,-1,-1],"split_conditions":[3.1061687E1,1.2496774E0,2.2274694E1,-2.2825904E-3,-0E0,4E0,8E0,4E0,-0E0,-0E0,2.9844318E1,-0E0,-3.1303318E-4,5.343635E-4,-0E0],"split_indices":[13,16,14,0,0,0,1,22,0,0,14,0,0,0,0],"split_type":[0,0,0,0,0,0,0,0,0,0,0,0,0,0,0],"sum_hessian":[6.98E2,1.73E2,5.25E2,3.4E1,1.39E2,1.01E2,4.24E2,7.2E1,2.9E1,3.2E1,3.92E2,2.3E1,4.9E1,3.32E2,6E1],"tree_param":{"num_deleted":"0","num_feature":"24","num_nodes":"15","size_leaf_vector":"1"}},{"base_weights":[-0E0,3.7766504E-3,-1.2738412E-2,-0E0,8.953026E-3,-3.4059778E-2,-0E0,1.585729E-2,-0E0,-4.0589783E-2,-0E0,-0E0,4.8592288E-4,-1.4218404E-3,-0E0],"categories":[],"categories_nodes":[],"categories_segments":[],"categories_sizes":[],"default_left":[0,0,0,0,0,0,0,0,0,0,0,0,0,0,0],"id":63,"left_children":[1,3,5,-1,7,9,-1,11,-1,13,-1,-1,-1,-1,-1],"loss_changes":[3.917457E-2,2.6739057E-2,1.060789E-1,0E0,3.920302E-2,1.030758E-2,0E0,6.6838935E-3,0E0,1.8940583E-2,0E0,0E0,0E0,0E0,0E0],"parents":[2147483647,0,0,1,1,2,2,4,4,5,5,7,7,9,9],"right_children":[2,4,6,-1,8,10,-1,12,-1,14,-1,-1,-1,-1,-1],"split_conditions":[8.2E0,3.3852173E1,2.5065908E1,-0E0,1.2941632E2,4E0,-0E0,1.855988E1,-0E0,2.3010778E1,-0E0,-0E0,4.8592288E-4,-1.4218404E-3,-0E0],"split_indices":[22,19,14,0,19,0,0,14,0,14,0,0,0,0,0],"split_type":[0,0,0,0,0,0,0,0,0,0,0,0,0,0,0],"sum_hessian":[6.8E2,4.87E2,1.93E2,7.1E1,4.16E2,1.14E2,7.9E1,2.85E2,1.31E2,8.5E1,2.9E1,3.3E1,2.52E2,5.8E1,2.7E1],"tree_param":{"num_deleted":"0","num_feature":"24","num_nodes":"15","size_leaf_vector":"1"}},{"base_weights":[-0E0,-7.0420583E-3,5.8410033E-3,-1.430092E-3,-0E0,-0E0,1.9681806E-2,-0E0,2.518008E-2,7.779638E-4,-0E0],"categories":[],"categories_nodes":[],"categories_segments":[],"categories_sizes":[],"default_left":[0,0,0,0,0,0,0,0,0,0,0],"id":64,"left_children":[1,3,5,-1,-1,-1,7,-1,9,-1,-1],"loss_changes":[2.916353E-2,1.4312184E-1,8.990655E-2,0E0,0E0,0E0,2.5320135E-2,0E0,1.4210641E-2,0E0,0E0],"parents":[2147483647,0,0,1,1,2,2,6,6,8,8],"right_children":[2,4,6,-1,-1,-1,8,-1,10,-1,-1],"split_conditions":[1.4443114E0,3.1792568E1,4.786014E1,-1.430092E-3,-0E0,-0E0,2E-1,-0E0,2.4E1,7.779638E-4,-0E0],"split_indices":[16,13,15,0,0,0,22,0,1,0,0],"split_type":[0,0,0,0,0,0,0,0,0,0,0],"sum_hessian":[7.02E2,3.09E2,3.93E2,5.4E1,2.55E2,1.31E2,2.62E2,6.4E1,1.98E2,1.75E2,2.3E1],"tree_param":{"num_deleted":"0","num_feature":"24","num_nodes":"11","size_leaf_vector":"1"}},{"base_weights":[-0E0,3.1204682E-3,-6.5880246E-3,-0E0,1.1767195E-2,-3.0349588E-4,-0E0,-0E0,1.7233338E-2,-0E0,5.8630714E-4],"categories":[],"categories_nodes":[],"categories_segments":[],"categories_sizes":[],"default_left":[0,0,0,0,0,0,0,0,0,0,0],"id":65,"left_children":[1,3,5,-1,7,-1,-1,-1,9,-1,-1],"loss_changes":[1.2668103E-2,5.164096E-2,6.5186536E-3,0E0,4.690273E-2,0E0,0E0,0E0,3.750571E-2,0E0,0E0],"parents":[2147483647,0,0,1,1,2,2,4,4,8,8],"right_children":[2,4,6,-1,8,-1,-1,-1,10,-1,-1],"split_conditions":[5E0,3E0,1.68E0,-0E0,1.0056819E0,-3.0349588E-4,-0E0,-0E0,8E0,-0E0,5.8630714E-4],"split_indices":[2,9,16,0,16,0,0,0,1,0,0],"split_type":[0,0,0,0,0,0,0,0,0,0,0],"sum_hessian":[6.92E2,5.24E2,1.68E2,1.19E2,4.05E2,1.11E2,5.7E1,6.1E1,3.44E2,3.6E1,3.08E2],"tree_param":{"num_deleted":"0","num_feature":"24","num_nodes":"11","size_leaf_vector":"1"}},{"base_weights":[-0E0,3.708715E-3,-1.5377573E-2,1.1401495E-2,-0E0,-4.4239186E-2,-0E0,-0E0,9.636548E-4,-1.6905887E-3,-0E0,2.5204379E-6,-0E0],"categories":[],"categories_nodes":[],"categories_segments":[],"categories_sizes":[],"default_left":[0,0,0,0,0,0,0,0,0,0,0,0,0],"id":66,"left_children":[1,3,5,7,-1,9,-1,11,-1,-1,-1,-1,-1],"loss_changes":[5.5225916E-2,5.32598E-2,1.4383182E-1,5.204793E-2,0E0,6.716214E-2,0E0,2.0094692E-6,0E0,0E0,0E0,0E0,0E0],"parents":[2147483647,0,0,1,1,2,2,3,3,5,5,7,7],"right_children":[2,4,6,8,-1,10,-1,12,-1,-1,-1,-1,-1],"split_conditions":[8.2E0,7.5665306E1,2.3010778E1,3E0,-0E0,4E0,-0E0,1.3E1,9.636548E-4,-1.6905887E-3,-0E0,2.5204379E-6,-0E0],"split_indices":[22,15,14,0,0,0,0,23,0,0,0,0,0],"split_type":[0,0,0,0,0,0,0,0,0,0,0,0,0],"sum_hessian":[6.99E2,5E2,1.99E2,4.58E2,4.2E1,9.3E1,1.06E2,3.71E2,8.7E1,6.4E1,2.9E1,2.36E2,1.35E2],"tree_param":{"num_deleted":"0","num_feature":"24","num_nodes":"13","size_leaf_vector":"1"}},{"base_weights":[-0E0,4.0584044E-3,-2.043715E-2,1.3320199E-2,-0E0,-1.9029635E-3,-0E0,-0E0,3.143877E-2,-0E0,9.839495E-4],"categories":[],"categories_nodes":[],"categories_segments":[],"categories_sizes":[],"default_left":[0,0,0,0,0,0,0,0,0,0,0],"id":67,"left_children":[1,3,5,7,-1,-1,-1,-1,9,-1,-1],"loss_changes":[5.6011617E-2,7.058025E-2,1.589946E-1,1.10338025E-1,0E0,0E0,0E0,0E0,2.2627905E-2,0E0,0E0],"parents":[2147483647,0,0,1,1,2,2,3,3,8,8],"right_children":[2,4,6,8,-1,-1,-1,-1,10,-1,-1],"split_conditions":[7.338053E1,5E0,3.1061687E1,2E0,-0E0,-1.9029635E-3,-0E0,-0E0,2.6720959E1,-0E0,9.839495E-4],"split_indices":[15,2,13,0,0,0,0,0,13,0,0],"split_type":[0,0,0,0,0,0,0,0,0,0,0],"sum_hessian":[7.07E2,6.02E2,1.05E2,4.49E2,1.53E2,3.8E1,6.7E1,2.61E2,1.88E2,2.5E1,1.63E2],"tree_param":{"num_deleted":"0","num_feature":"24","num_nodes":"11","size_leaf_vector":"1"}},{"base_weights":[-0E0,1.4671477E-3,-1.996806E-2,-5.62099E-4,1.2211436E-2,-1.3227834E-3,-0E0,1.7788066E-2,-0E0,-0E0,6.9930416E-4],"categories":[],"categories_nodes":[],"categories_segments":[],"categories_sizes":[],"default_left":[0,0,0,0,0,0,0,0,0,0,0],"id":68,"left_children":[1,3,5,-1,7,-1,-1,9,-1,-1,-1],"loss_changes":[5.3920418E-2,9.454119E-2,1.014436E-1,0E0,7.35603E-2,0E0,0E0,5.6341648E-2,0E0,0E0,0E0],"parents":[2147483647,0,0,1,1,2,2,4,4,7,7],"right_children":[2,4,6,-1,8,-1,-1,10,-1,-1,-1],"split_conditions":[7.202841E1,7E0,3.431032E1,-5.62099E-4,1.42E1,-1.3227834E-3,-0E0,4.1910713E1,-0E0,-0E0,6.9930416E-4],"split_indices":[15,1,13,0,22,0,0,15,0,0,0],"split_type":[0,0,0,0,0,0,0,0,0,0,0],"sum_hessian":[6.91E2,5.64E2,1.27E2,3.3E1,5.31E2,6.2E1,6.5E1,4.8E2,5.1E1,1.58E2,3.22E2],"tree_param":{"num_deleted":"0","num_feature":"24","num_nodes":"11","size_leaf_vector":"1"}},{"base_weights":[-0E0,-0E0,-1.5024414E-2,-0E0,8.413873E-3,-4.5284875E-2,-0E0,-0E0,3.117249E-2,-6.00546E-2,-0E0,1.1330795E-3,-0E0,-2.3361503E-3,-0E0],"categories":[],"categories_nodes":[],"categories_segments":[],"categories_sizes":[],"default_left":[0,0,0,0,0,0,0,0,0,0,0,0,0,0,0],"id":69,"left_children":[1,3,5,-1,7,9,-1,-1,11,13,-1,-1,-1,-1,-1],"loss_changes":[4.7891516E-2,2.9248942E-2,1.6776215E-1,0E0,7.196583E-2,6.623462E-2,0E0,0E0,3.0407533E-2,6.286788E-2,0E0,0E0,0E0,0E0,0E0],"parents":[2147483647,0,0,1,1,2,2,4,4,5,5,8,8,9,9],"right_children":[2,4,6,-1,8,10,-1,-1,12,14,-1,-1,-1,-1,-1],"split_conditions":[6.6E0,3.3852173E1,2.3010778E1,-0E0,3E0,4E0,-0E0,-0E0,1.8255789E2,4.381E0,-0E0,1.1330795E-3,-0E0,-2.3361503E-3,-0E0],"split_indices":[22,19,14,0,0,0,0,0,18,11,0,0,0,0,0],"split_type":[0,0,0,0,0,0,0,0,0,0,0,0,0,0,0],"sum_hessian":[6.9E2,4.83E2,2.07E2,7.5E1,4.08E2,1E2,1.07E2,3.09E2,9.9E1,7.3E1,2.7E1,7.3E1,2.6E1,4.3E1,3E1],"tree_param":{"num_deleted":"0","num_feature":"24","num_nodes":"15","size_leaf_vector":"1"}},{"base_weights":[-0E0,2.3376879E-3,-2.0202268E-2,-0E0,9.831821E-3,-0E0,-3.5919193E-2,-0E0,1.6739896E-2,-1.3870248E-3,-0E0,5.055689E-4,-0E0],"categories":[],"categories_nodes":[],"categories_segments":[],"categories_sizes":[],"default_left":[0,0,0,0,0,0,0,0,0,0,0,0,0],"id":70,"left_children":[1,3,5,-1,7,-1,9,-1,11,-1,-1,-1,-1],"loss_changes":[4.859847E-2,4.8500523E-2,5.676339E-2,0E0,8.506313E-2,0E0,3.2014623E-2,0E0,1.6809657E-2,0E0,0E0,0E0,0E0],"parents":[2147483647,0,0,1,1,2,2,4,4,6,6,8,8],"right_children":[2,4,6,-1,8,-1,10,-1,12,-1,-1,-1,-1],"split_conditions":[1.28E1,1.0056819E0,4.5863636E1,-0E0,8E0,-0E0,4E0,-0E0,8E0,-1.3870248E-3,-0E0,5.055689E-4,-0E0],"split_indices":[22,16,15,0,1,0,0,0,2,0,0,0,0],"split_type":[0,0,0,0,0,0,0,0,0,0,0,0,0],"sum_hessian":[6.92E2,5.86E2,1.06E2,5.6E1,5.3E2,3.2E1,7.4E1,4.7E1,4.83E2,4.8E1,2.6E1,4.53E2,3E1],"tree_param":{"num_deleted":"0","num_feature":"24","num_nodes":"13","size_leaf_vector":"1"}},{"base_weights":[-0E0,-1.13805E-2,2.225581E-3,-1.3815999E-3,-0E0,-0E0,1.1464228E-2,3.9051677E-4,-0E0],"categories":[],"categories_nodes":[],"categories_segments":[],"categories_sizes":[],"default_left":[0,0,0,0,0,0,0,0,0],"id":71,"left_children":[1,3,5,-1,-1,-1,7,-1,-1],"loss_changes":[3.751416E-2,7.0179E-2,2.4433963E-2,0E0,0E0,0E0,8.068271E-3,0E0,0E0],"parents":[2147483647,0,0,1,1,2,2,6,6],"right_children":[2,4,6,-1,-1,-1,8,-1,-1],"split_conditions":[1.415909E0,3.1792568E1,1.3335417E2,-1.3815999E-3,-0E0,-0E0,4.2664E1,3.9051677E-4,-0E0],"split_indices":[16,13,20,0,0,0,13,0,0],"split_type":[0,0,0,0,0,0,0,0,0],"sum_hessian":[6.94E2,2.68E2,4.26E2,3.7E1,2.31E2,2.29E2,1.97E2,1.68E2,2.9E1],"tree_param":{"num_deleted":"0","num_feature":"24","num_nodes":"9","size_leaf_vector":"1"}},{"base_weights":[-0E0,-1.21518085E-2,-0E0,-0E0,-3.1038813E-2,-0E0,9.569137E-3,-4.3350007E-2,-0E0,1.528029E-2,-0E0,-1.437342E-3,-0E0,5.019193E-4,-0E0],"categories":[],"categories_nodes":[],"categories_segments":[],"categories_sizes":[],"default_left":[0,0,0,0,0,0,0,0,0,0,0,0,0,0,0],"id":72,"left_children":[1,3,5,-1,7,-1,9,11,-1,13,-1,-1,-1,-1,-1],"loss_changes":[3.989357E-2,1.3463739E-1,2.6203211E-2,0E0,7.382716E-2,0E0,2.2632983E-2,1.2220547E-2,0E0,9.043582E-3,0E0,0E0,0E0,0E0,0E0],"parents":[2147483647,0,0,1,1,2,2,4,4,6,6,7,7,9,9],"right_children":[2,4,6,-1,8,-1,10,12,-1,14,-1,-1,-1,-1,-1],"split_conditions":[1.415909E0,4.692258E1,4.786014E1,-0E0,1.5E1,-0E0,1.5E1,2.4E1,-0E0,7E0,-0E0,-1.437342E-3,-0E0,5.019193E-4,-0E0],"split_indices":[16,15,15,0,23,0,23,1,0,2,0,0,0,0,0],"split_type":[0,0,0,0,0,0,0,0,0,0,0,0,0,0,0],"sum_hessian":[6.84E2,2.65E2,4.19E2,8.9E1,1.76E2,1.38E2,2.81E2,1.27E2,4.9E1,2.04E2,7.7E1,9.1E1,3.6E1,1.7E2,3.4E1],"tree_param":{"num_deleted":"0","num_feature":"24","num_nodes":"15","size_leaf_vector":"1"}},{"base_weights":[-0E0,-6.506993E-3,2.8730591E-3,-2.4819413E-2,-0E0,1.3676899E-2,-0E0,-0E0,-3.2492645E-2,4.3957014E-4,-0E0,-1.1532996E-3,-0E0],"categories":[],"categories_nodes":[],"categories_segments":[],"categories_sizes":[],"default_left":[0,0,0,0,0,0,0,0,0,0,0,0,0],"id":73,"left_children":[1,3,5,7,-1,9,-1,-1,11,-1,-1,-1,-1],"loss_changes":[1.6463548E-2,1.22359775E-1,3.891382E-2,5.2477047E-2,0E0,4.8096552E-3,0E0,0E0,5.1199928E-2,0E0,0E0,0E0,0E0],"parents":[2147483647,0,0,1,1,2,2,3,3,5,5,8,8],"right_children":[2,4,6,8,-1,10,-1,-1,12,-1,-1,-1,-1],"split_conditions":[3E0,1.33992E2,4.3138775E1,3.6E0,-0E0,1.6809511E2,-0E0,-0E0,1E1,4.3957014E-4,-0E0,-1.1532996E-3,-0E0],"split_indices":[4,18,13,17,0,18,0,0,17,0,0,0,0],"split_type":[0,0,0,0,0,0,0,0,0,0,0,0,0],"sum_hessian":[6.91E2,3.08E2,3.83E2,2.15E2,9.3E1,2.2E2,1.63E2,4.2E1,1.73E2,1.8E2,4E1,1.32E2,4.1E1],"tree_param":{"num_deleted":"0","num_feature":"24","num_nodes":"13","size_leaf_vector":"1"}},{"base_weights":[-0E0,-2.0380607E-3,5.516615E-4,-1.1550904E-3,-0E0,-0E0,7.964996E-3,1.2665131E-2,-0E0,-0E0,4.2653433E-4],"categories":[],"categories_nodes":[],"categories_segments":[],"categories_sizes":[],"default_left":[0,0,0,0,0,0,0,0,0,0,0],"id":74,"left_children":[1,3,5,-1,-1,-1,7,9,-1,-1,-1],"loss_changes":[1.4369283E-3,9.696252E-2,1.9878726E-2,0E0,0E0,0E0,2.2859832E-2,1.0399595E-2,0E0,0E0,0E0],"parents":[2147483647,0,0,1,1,2,2,6,6,7,7],"right_children":[2,4,6,-1,-1,-1,8,10,-1,-1,-1],"split_conditions":[1.4443114E0,3.1792568E1,3E0,-1.1550904E-3,-0E0,-0E0,7E0,2E-1,-0E0,-0E0,4.2653433E-4],"split_indices":[16,13,9,0,0,0,2,22,0,0,0],"split_type":[0,0,0,0,0,0,0,0,0,0,0],"sum_hessian":[6.87E2,3.13E2,3.74E2,5.1E1,2.62E2,6.4E1,3.1E2,2.62E2,4.8E1,4.4E1,2.18E2],"tree_param":{"num_deleted":"0","num_feature":"24","num_nodes":"11","size_leaf_vector":"1"}},{"base_weights":[-0E0,-8.676877E-3,2.9432604E-3,-0E0,-2.0964306E-2,-0E0,1.7837651E-2,-3.6263477E-2,-0E0,-0E0,6.4026343E-4,-1.2568046E-3,-0E0],"categories":[],"categories_nodes":[],"categories_segments":[],"categories_sizes":[],"default_left":[0,0,0,0,0,0,0,0,0,0,0,0,0],"id":75,"left_children":[1,3,5,-1,7,-1,9,11,-1,-1,-1,-1,-1],"loss_changes":[3.1223826E-2,8.777848E-2,5.9511114E-2,0E0,1.1818858E-1,0E0,2.101529E-2,7.889432E-2,0E0,0E0,0E0,0E0,0E0],"parents":[2147483647,0,0,1,1,2,2,4,4,6,6,7,7],"right_children":[2,4,6,-1,8,-1,10,12,-1,-1,-1,-1,-1],"split_conditions":[1.5098684E0,4.692258E1,4.786014E1,-0E0,2.907205E1,-0E0,4.381E0,1.7657408E2,-0E0,-0E0,6.4026343E-4,-1.2568046E-3,-0E0],"split_indices":[16,15,15,0,14,0,11,20,0,0,0,0,0],"split_type":[0,0,0,0,0,0,0,0,0,0,0,0,0],"sum_hessian":[7.01E2,3.71E2,3.3E2,1.12E2,2.59E2,1.39E2,1.91E2,1.73E2,8.6E1,4.1E1,1.5E2,1.46E2,2.7E1],"tree_param":{"num_deleted":"0","num_feature":"24","num_nodes":"13","size_leaf_vector":"1"}},{"base_weights":[-0E0,-9.920182E-3,-0E0,-2.0826308E-2,-0E0,8.335646E-3,-0E0,-0E0,-3.3379085E-2,-0E0,1.0387791E-2,-1.1791593E-3,-0E0,3.0670146E-4,-0E0],"categories":[],"categories_nodes":[],"categories_segments":[],"categories_sizes":[],"default_left":[0,0,0,0,0,0,0,0,0,0,0,0,0,0,0],"id":76,"left_children":[1,3,5,7,-1,9,-1,-1,11,-1,13,-1,-1,-1,-1],"loss_changes":[3.1408537E-2,7.622716E-2,2.3218442E-2,1.131469E-1,0E0,9.926029E-3,0E0,0E0,7.6783046E-2,0E0,6.533787E-5,0E0,0E0,0E0,0E0],"parents":[2147483647,0,0,1,1,2,2,3,3,5,5,8,8,10,10],"right_children":[2,4,6,8,-1,10,-1,-1,12,-1,14,-1,-1,-1,-1],"split_conditions":[3E0,1.4144907E2,1.42E1,5.251875E1,-0E0,8E0,-0E0,-0E0,2.676111E1,-0E0,7.11761E1,-1.1791593E-3,-0E0,3.0670146E-4,-0E0],"split_indices":[4,18,22,20,0,1,0,0,14,0,15,0,0,0,0],"split_type":[0,0,0,0,0,0,0,0,0,0,0,0,0,0,0],"sum_hessian":[6.81E2,3.14E2,3.67E2,2.43E2,7.1E1,3.29E2,3.8E1,5E1,1.93E2,2.7E1,3.02E2,1.58E2,3.5E1,2.64E2,3.8E1],"tree_param":{"num_deleted":"0","num_feature":"24","num_nodes":"15","size_leaf_vector":"1"}},{"base_weights":[-0E0,1.8214461E-3,-1.2960573E-2,1.8751645E-2,-0E0,-1.5151814E-3,-0E0,-0E0,2.3027413E-2,-0E0,-6.628671E-3,7.1917416E-4,-0E0,-4.961448E-4,-0E0],"categories":[],"categories_nodes":[],"categories_segments":[],"categories_sizes":[],"default_left":[0,0,0,0,0,0,0,0,0,0,0,0,0,0,0],"id":77,"left_children":[1,3,5,7,9,-1,-1,-1,11,-1,13,-1,-1,-1,-1],"loss_changes":[2.1348568E-2,9.510015E-2,1.13634616E-1,3.554572E-2,6.3782255E-3,0E0,0E0,0E0,1.3316438E-2,0E0,3.0481748E-2,0E0,0E0,0E0,0E0],"parents":[2147483647,0,0,1,1,2,2,3,3,4,4,8,8,10,10],"right_children":[2,4,6,8,10,-1,-1,-1,12,-1,14,-1,-1,-1,-1],"split_conditions":[7.338053E1,4.121E1,3.1061687E1,3.2E0,4.6E0,-1.5151814E-3,-0E0,-0E0,2.3E1,-0E0,4E0,7.1917416E-4,-0E0,-4.961448E-4,-0E0],"split_indices":[15,13,13,17,22,0,0,0,1,0,0,0,0,0,0],"split_type":[0,0,0,0,0,0,0,0,0,0,0,0,0,0,0],"sum_hessian":[7.09E2,5.99E2,1.1E2,2.71E2,3.28E2,3.9E1,7.1E1,2.6E1,2.45E2,1.88E2,1.4E2,2.1E2,3.5E1,1.09E2,3.1E1],"tree_param":{"num_deleted":"0","num_feature":"24","num_nodes":"15","size_leaf_vector":"1"}},{"base_weights":[-0E0,-0E0,-2.2021083E-2,-0E0,7.1720025E-3,-0E0,-3.967796E-2,-0E0,-2.2086824E-4,-0E0,3.3127546E-2,-1.4765402E-3,-0E0,1.3062434E-3,-0E0],"categories":[],"categories_nodes":[],"categories_segments":[],"categories_sizes":[],"default_left":[0,0,0,0,0,0,0,0,0,0,0,0,0,0,0],"id":78,"left_children":[1,3,5,7,9,-1,11,-1,-1,-1,13,-1,-1,-1,-1],"loss_changes":[5.051011E-2,2.5675602E-2,6.939163E-2,4.2973557E-3,1.21556155E-1,0E0,3.211785E-2,0E0,0E0,0E0,9.707518E-2,0E0,0E0,0E0,0E0],"parents":[2147483647,0,0,1,1,2,2,3,3,4,4,6,6,10,10],"right_children":[2,4,6,8,10,-1,12,-1,-1,-1,14,-1,-1,-1,-1],"split_conditions":[1.28E1,3.1593151E1,4.5863636E1,1.805E1,3E0,-0E0,4E0,-0E0,-2.2086824E-4,-0E0,6E0,-1.4765402E-3,-0E0,1.3062434E-3,-0E0],"split_indices":[22,19,15,14,0,0,0,0,0,0,2,0,0,0,0],"split_type":[0,0,0,0,0,0,0,0,0,0,0,0,0,0,0],"sum_hessian":[6.85E2,5.86E2,9.9E1,9.2E1,4.94E2,2.8E1,7.1E1,3E1,6.2E1,3.65E2,1.29E2,4.8E1,2.3E1,1.04E2,2.5E1],"tree_param":{"num_deleted":"0","num_feature":"24","num_nodes":"15","size_leaf_vector":"1"}},{"base_weights":[-0E0,-4.1489513E-3,4.671045E-3,-2.1320788E-2,-0E0,1.1882228E-2,-0E0,-0E0,-3.4634512E-2,-0E0,3.6259656E-4,-1.3973482E-3,-0E0],"categories":[],"categories_nodes":[],"categories_segments":[],"categories_sizes":[],"default_left":[0,0,0,0,0,0,0,0,0,0,0,0,0],"id":79,"left_children":[1,3,5,7,-1,9,-1,-1,11,-1,-1,-1,-1],"loss_changes":[1.393206E-2,9.591479E-2,2.2538938E-2,1.1226855E-1,0E0,2.713373E-3,0E0,0E0,4.2812124E-2,0E0,0E0,0E0,0E0],"parents":[2147483647,0,0,1,1,2,2,3,3,5,5,8,8],"right_children":[2,4,6,8,-1,10,-1,-1,12,-1,-1,-1,-1],"split_conditions":[3E0,1.33992E2,4.3138775E1,5.251875E1,-0E0,4.309E0,-0E0,-0E0,5.278E0,-0E0,3.6259656E-4,-1.3973482E-3,-0E0],"split_indices":[4,18,13,20,0,11,0,0,11,0,0,0,0],"split_type":[0,0,0,0,0,0,0,0,0,0,0,0,0],"sum_hessian":[6.96E2,3.16E2,3.8E2,2.18E2,9.8E1,2.14E2,1.66E2,4.5E1,1.73E2,2.4E1,1.9E2,9.5E1,7.8E1],"tree_param":{"num_deleted":"0","num_feature":"24","num_nodes":"13","size_leaf_vector":"1"}},{"base_weights":[-0E0,2.4366008E-4,-5.5124755E-3,-0E0,6.239684E-3,-2.716784E-2,-0E0,-0E0,1.0195211E-2,-1.042428E-3,-0E0,3.4138764E-4,-0E0],"categories":[],"categories_nodes":[],"categories_segments":[],"categories_sizes":[],"default_left":[0,0,0,0,0,0,0,0,0,0,0,0,0],"id":80,"left_children":[1,3,5,-1,7,9,-1,-1,11,-1,-1,-1,-1],"loss_changes":[7.1734544E-3,1.6914811E-2,7.563844E-2,0E0,1.5712151E-2,3.7171647E-2,0E0,0E0,1.1396248E-2,0E0,0E0,0E0,0E0],"parents":[2147483647,0,0,1,1,2,2,4,4,5,5,8,8],"right_children":[2,4,6,-1,8,10,-1,-1,12,-1,-1,-1,-1],"split_conditions":[4.6E0,9.79375E-1,2.3010778E1,-0E0,3E0,4.381E0,-0E0,-0E0,8E0,-1.042428E-3,-0E0,3.4138764E-4,-0E0],"split_indices":[22,16,14,0,9,11,0,0,2,0,0,0,0],"split_type":[0,0,0,0,0,0,0,0,0,0,0,0,0],"sum_hessian":[6.89E2,4.59E2,2.3E2,2.9E1,4.3E2,1.07E2,1.23E2,1.21E2,3.09E2,7.9E1,2.8E1,2.83E2,2.6E1],"tree_param":{"num_deleted":"0","num_feature":"24","num_nodes":"13","size_leaf_vector":"1"}},{"base_weights":[-0E0,-6.1340486E-3,1.9499901E-4,-2.794779E-4,-0E0,8.032779E-3,-0E0,1.3855209E-2,-0E0,-3.389851E-5,-0E0,4.2467698E-4,-0E0],"categories":[],"categories_nodes":[],"categories_segments":[],"categories_sizes":[],"default_left":[0,0,0,0,0,0,0,0,0,0,0,0,0],"id":81,"left_children":[1,3,5,-1,-1,7,9,11,-1,-1,-1,-1,-1],"loss_changes":[3.7162802E-3,2.3676194E-3,3.0701626E-2,0E0,0E0,5.0316226E-2,7.2589144E-5,1.3384648E-2,0E0,0E0,0E0,0E0,0E0],"parents":[2147483647,0,0,1,1,2,2,5,5,6,6,7,7],"right_children":[2,4,6,-1,-1,8,10,12,-1,-1,-1,-1,-1],"split_conditions":[9E0,1.2545071E2,7.11761E1,-2.794779E-4,-0E0,1.4E1,1.19170906E2,8E0,-0E0,-3.389851E-5,-0E0,4.2467698E-4,-0E0],"split_indices":[1,20,15,0,0,22,18,2,0,0,0,0,0],"split_type":[0,0,0,0,0,0,0,0,0,0,0,0,0],"sum_hessian":[6.89E2,9.3E1,5.96E2,5.4E1,3.9E1,4.71E2,1.25E2,4.17E2,5.4E1,4.3E1,8.2E1,3.94E2,2.3E1],"tree_param":{"num_deleted":"0","num_feature":"24","num_nodes":"13","size_leaf_vector":"1"}},{"base_weights":[-0E0,-8.734913E-3,9.809068E-4,-2.315257E-2,-0E0,6.658175E-3,-0E0,-0E0,-3.7373602E-2,-0E0,1.258327E-2,-1.2196687E-3,-0E0,3.8001986E-4,-0E0],"categories":[],"categories_nodes":[],"categories_segments":[],"categories_sizes":[],"default_left":[0,0,0,0,0,0,0,0,0,0,0,0,0,0,0],"id":82,"left_children":[1,3,5,7,-1,9,-1,-1,11,-1,13,-1,-1,-1,-1],"loss_changes":[2.5174106E-2,9.481372E-2,1.4847907E-2,1.208477E-1,0E0,2.107216E-2,0E0,0E0,5.0574362E-2,0E0,1.440946E-3,0E0,0E0,0E0,0E0],"parents":[2147483647,0,0,1,1,2,2,3,3,5,5,8,8,10,10],"right_children":[2,4,6,8,-1,10,-1,-1,12,-1,14,-1,-1,-1,-1],"split_conditions":[3E0,1.33992E2,1.46E1,5.251875E1,-0E0,1.1558108E2,-0E0,-0E0,2.6405556E1,-0E0,1.55E1,-1.2196687E-3,-0E0,3.8001986E-4,-0E0],"split_indices":[4,18,22,20,0,20,0,0,14,0,21,0,0,0,0],"split_type":[0,0,0,0,0,0,0,0,0,0,0,0,0,0,0],"sum_hessian":[6.94E2,3.2E2,3.74E2,2.18E2,1.02E2,3.38E2,3.6E1,5.1E1,1.67E2,1.14E2,2.24E2,1.44E2,2.3E1,1.94E2,3E1],"tree_param":{"num_deleted":"0","num_feature":"24","num_nodes":"15","size_leaf_vector":"1"}},{"base_weights":[-0E0,2.431529E-3,-3.2971592E-3,-0E0,9.267339E-3,-3.4727124E-4,-0E0,-0E0,1.5067E-2,-0E0,7.496741E-4],"categories":[],"categories_nodes":[],"categories_segments":[],"categories_sizes":[],"default_left":[0,0,0,0,0,0,0,0,0,0,0],"id":83,"left_children":[1,3,5,-1,7,-1,-1,-1,9,-1,-1],"loss_changes":[5.168002E-3,3.1866543E-2,1.0699697E-2,0E0,4.398313E-2,0E0,0E0,0E0,3.4605145E-2,0E0,0E0],"parents":[2147483647,0,0,1,1,2,2,4,4,8,8],"right_children":[2,4,6,-1,8,-1,-1,-1,10,-1,-1],"split_conditions":[5E0,3E0,1.0666667E1,-0E0,1.0056819E0,-3.4727124E-4,-0E0,-0E0,2E0,-0E0,7.496741E-4],"split_indices":[2,9,21,0,16,0,0,0,0,0,0],"split_type":[0,0,0,0,0,0,0,0,0,0,0],"sum_hessian":[7.11E2,5.34E2,1.77E2,1.31E2,4.03E2,7.5E1,1.02E2,6E1,3.43E2,1.94E2,1.49E2],"tree_param":{"num_deleted":"0","num_feature":"24","num_nodes":"11","size_leaf_vector":"1"}},{"base_weights":[-0E0,-1.0254248E-2,-0E0,-3.7290864E-2,-0E0,-0E0,5.36378E-3,-1.24707E-3,-0E0,-0E0,7.211317E-4],"categories":[],"categories_nodes":[],"categories_segments":[],"categories_sizes":[],"default_left":[0,0,0,0,0,0,0,0,0,0,0],"id":84,"left_children":[1,3,5,7,-1,-1,9,-1,-1,-1,-1],"loss_changes":[2.3149733E-2,1.4116456E-1,1.1829129E-2,2.776131E-2,0E0,0E0,5.035185E-2,0E0,0E0,0E0,0E0],"parents":[2147483647,0,0,1,1,2,2,3,3,6,6],"right_children":[2,4,6,8,-1,-1,10,-1,-1,-1,-1],"split_conditions":[9.2E0,2.3964666E1,3.1593151E1,1.5E1,-0E0,-0E0,3E0,-1.24707E-3,-0E0,-0E0,7.211317E-4],"split_indices":[21,14,19,23,0,0,0,0,0,0,0],"split_type":[0,0,0,0,0,0,0,0,0,0,0],"sum_hessian":[6.94E2,2.15E2,4.79E2,1.13E2,1.02E2,7.3E1,4.06E2,8.9E1,2.4E1,3.2E2,8.6E1],"tree_param":{"num_deleted":"0","num_feature":"24","num_nodes":"11","size_leaf_vector":"1"}},{"base_weights":[-0E0,-0E0,9.997199E-3,-2.1107916E-2,-0E0,-0E0,1.9233894E-2,-1.0588312E-3,-0E0,2.207793E-2,-0E0,-0E0,7.3522195E-4],"categories":[],"categories_nodes":[],"categories_segments":[],"categories_sizes":[],"default_left":[0,0,0,0,0,0,0,0,0,0,0,0,0],"id":85,"left_children":[1,3,5,7,-1,-1,9,-1,-1,11,-1,-1,-1],"loss_changes":[3.2697674E-2,3.7496984E-2,6.4286485E-2,1.8618908E-2,0E0,0E0,1.812847E-2,0E0,0E0,1.7588317E-2,0E0,0E0,0E0],"parents":[2147483647,0,0,1,1,2,2,3,3,6,6,9,9],"right_children":[2,4,6,8,-1,-1,10,-1,-1,12,-1,-1,-1],"split_conditions":[1.5098684E0,3.1792568E1,3E0,1.3092896E0,-0E0,-0E0,7E0,-1.0588312E-3,-0E0,3.8306667E1,-0E0,-0E0,7.3522195E-4],"split_indices":[16,13,9,16,0,0,2,0,0,15,0,0,0],"split_type":[0,0,0,0,0,0,0,0,0,0,0,0,0],"sum_hessian":[6.69E2,3.47E2,3.22E2,7.9E1,2.68E2,6.5E1,2.57E2,3.3E1,4.6E1,2.31E2,2.6E1,4.9E1,1.82E2],"tree_param":{"num_deleted":"0","num_feature":"24","num_nodes":"13","size_leaf_vector":"1"}},{"base_weights":[-0E0,-0E0,-1.4765624E-2,6.062585E-3,-0E0,-4.770488E-2,-0E0,-0E0,1.3864728E-2,-5.764522E-2,-0E0,-0E0,4.7312485E-4,-2.0544315E-3,-0E0],"categories":[],"categories_nodes":[],"categories_segments":[],"categories_sizes":[],"default_left":[0,0,0,0,0,0,0,0,0,0,0,0,0,0,0],"id":86,"left_children":[1,3,5,7,-1,9,-1,-1,11,13,-1,-1,-1,-1,-1],"loss_changes":[4.8872177E-2,1.6839642E-2,1.9954929E-1,2.0483859E-2,0E0,3.1239778E-2,0E0,0E0,8.233532E-3,9.103984E-3,0E0,0E0,0E0,0E0,0E0],"parents":[2147483647,0,0,1,1,2,2,3,3,5,5,8,8,9,9],"right_children":[2,4,6,8,-1,10,-1,-1,12,14,-1,-1,-1,-1,-1],"split_conditions":[6.6E0,7.5665306E1,2.3010778E1,2E0,-0E0,2.4E1,-0E0,-0E0,3E0,4.381E0,-0E0,-0E0,4.7312485E-4,-2.0544315E-3,-0E0],"split_indices":[22,15,14,0,0,1,0,0,9,11,0,0,0,0,0],"split_type":[0,0,0,0,0,0,0,0,0,0,0,0,0,0,0],"sum_hessian":[7.14E2,4.95E2,2.19E2,4.53E2,4.2E1,1.04E2,1.15E2,2.64E2,1.89E2,7.9E1,2.5E1,3.9E1,1.5E2,4.7E1,3.2E1],"tree_param":{"num_deleted":"0","num_feature":"24","num_nodes":"15","size_leaf_vector":"1"}},{"base_weights":[-0E0,-5.644617E-3,1.2148309E-3,-2.4366764E-2,-0E0,5.3278673E-3,-0E0,-3.2628927E-2,-0E0,-0E0,6.2490324E-4,-1.1070672E-3,-0E0],"categories":[],"categories_nodes":[],"categories_segments":[],"categories_sizes":[],"default_left":[0,0,0,0,0,0,0,0,0,0,0,0,0],"id":87,"left_children":[1,3,5,7,-1,9,-1,11,-1,-1,-1,-1,-1],"loss_changes":[8.082632E-3,7.347837E-2,1.2060836E-2,2.8985433E-2,0E0,3.289049E-2,0E0,1.4211759E-2,0E0,0E0,0E0,0E0,0E0],"parents":[2147483647,0,0,1,1,2,2,3,3,5,5,7,7],"right_children":[2,4,6,8,-1,10,-1,12,-1,-1,-1,-1,-1],"split_conditions":[9.2E0,2.4036528E1,7.5665306E1,2.4E1,-0E0,3E0,-0E0,1.5E1,-0E0,-0E0,6.2490324E-4,-1.1070672E-3,-0E0],"split_indices":[21,14,15,1,0,0,0,23,0,0,0,0,0],"split_type":[0,0,0,0,0,0,0,0,0,0,0,0,0],"sum_hessian":[7.07E2,2.26E2,4.81E2,1.31E2,9.5E1,4.45E2,3.6E1,9.8E1,3.3E1,3.61E2,8.4E1,7.2E1,2.6E1],"tree_param":{"num_deleted":"0","num_feature":"24","num_nodes":"13","size_leaf_vector":"1"}},{"base_weights":[-0E0,-2.5240362E-3,-0E0,-0E0,-1.3162058E-2,2.9642574E-4,-0E0,6.315075E-5,-0E0,-7.5668603E-4,-0E0],"categories":[],"categories_nodes":[],"categories_segments":[],"categories_sizes":[],"default_left":[0,0,0,0,0,0,0,0,0,0,0],"id":88,"left_children":[1,3,5,7,9,-1,-1,-1,-1,-1,-1],"loss_changes":[2.1033697E-3,4.019485E-2,1.972687E-2,2.9900143E-4,7.573317E-2,0E0,0E0,0E0,0E0,0E0,0E0],"parents":[2147483647,0,0,1,1,2,2,3,3,4,4],"right_children":[2,4,6,8,10,-1,-1,-1,-1,-1,-1],"split_conditions":[3E0,5.7851852E1,4.2664E1,4E0,1.33992E2,2.9642574E-4,-0E0,6.315075E-5,-0E0,-7.5668603E-4,-0E0],"split_indices":[4,20,13,2,18,0,0,0,0,0,0],"split_type":[0,0,0,0,0,0,0,0,0,0,0],"sum_hessian":[6.92E2,3.25E2,3.67E2,8.6E1,2.39E2,1.66E2,2.01E2,5.2E1,3.4E1,1.52E2,8.7E1],"tree_param":{"num_deleted":"0","num_feature":"24","num_nodes":"11","size_leaf_vector":"1"}},{"base_weights":[-0E0,-8.861311E-3,-0E0,-1.7165141E-2,-0E0,9.360099E-3,-0E0,-0E0,-2.6228437E-2,1.0849952E-2,-0E0,-0E0,-8.858366E-4,3.3222552E-4,-0E0],"categories":[],"categories_nodes":[],"categories_segments":[],"categories_sizes":[],"default_left":[0,0,0,0,0,0,0,0,0,0,0,0,0,0,0],"id":89,"left_children":[1,3,5,7,-1,9,-1,-1,11,13,-1,-1,-1,-1,-1],"loss_changes":[2.380498E-2,4.6956256E-2,2.2792999E-2,6.418328E-2,0E0,4.654931E-3,0E0,0E0,2.9904157E-2,5.16586E-4,0E0,0E0,0E0,0E0,0E0],"parents":[2147483647,0,0,1,1,2,2,3,3,5,5,8,8,9,9],"right_children":[2,4,6,8,-1,10,-1,-1,12,14,-1,-1,-1,-1,-1],"split_conditions":[6.2123375E1,1.4144907E2,1.6809511E2,5.251875E1,-0E0,8.6E0,-0E0,-0E0,4E0,1.2941632E2,-0E0,-0E0,-8.858366E-4,3.3222552E-4,-0E0],"split_indices":[19,18,18,20,0,17,0,0,17,19,0,0,0,0,0],"split_type":[0,0,0,0,0,0,0,0,0,0,0,0,0,0,0],"sum_hessian":[7.04E2,2.98E2,4.06E2,2.35E2,6.3E1,2.55E2,1.51E2,4.4E1,1.91E2,2.28E2,2.7E1,3.6E1,1.55E2,1.88E2,4E1],"tree_param":{"num_deleted":"0","num_feature":"24","num_nodes":"15","size_leaf_vector":"1"}},{"base_weights":[-0E0,-1.0039225E-2,-0E0,-2.136891E-2,-0E0,-0E0,2.9004621E-3,-3.0617634E-2,-0E0,-0E0,1.2813114E-4,-0E0,-1.113385E-3],"categories":[],"categories_nodes":[],"categories_segments":[],"categories_sizes":[],"default_left":[0,0,0,0,0,0,0,0,0,0,0,0,0],"id":90,"left_children":[1,3,5,7,-1,-1,9,11,-1,-1,-1,-1,-1],"loss_changes":[2.25922E-2,5.6934528E-2,8.8467734E-4,5.373966E-2,0E0,0E0,6.9078204E-4,3.6095545E-2,0E0,0E0,0E0,0E0,0E0],"parents":[2147483647,0,0,1,1,2,2,3,3,6,6,7,7],"right_children":[2,4,6,8,-1,-1,10,12,-1,-1,-1,-1,-1],"split_conditions":[9.2E0,2.676111E1,3E0,2.4E1,-0E0,-0E0,3.1061687E1,4.692258E1,-0E0,-0E0,1.2813114E-4,-0E0,-1.113385E-3],"split_indices":[21,14,0,1,0,0,13,15,0,0,0,0,0],"split_type":[0,0,0,0,0,0,0,0,0,0,0,0,0],"sum_hessian":[6.92E2,2.19E2,4.73E2,1.69E2,5E1,3.73E2,1E2,1.37E2,3.2E1,3.2E1,6.8E1,3.8E1,9.9E1],"tree_param":{"num_deleted":"0","num_feature":"24","num_nodes":"13","size_leaf_vector":"1"}},{"base_weights":[-0E0,2.4845434E-4,-1.1097508E-2,-8.0168335E-5,8.9936545E-3,-1.2262014E-3,-0E0,-0E0,1.3450129E-2,-0E0,8.149496E-4],"categories":[],"categories_nodes":[],"categories_segments":[],"categories_sizes":[],"default_left":[0,0,0,0,0,0,0,0,0,0,0],"id":91,"left_children":[1,3,5,-1,7,-1,-1,-1,9,-1,-1],"loss_changes":[1.2741929E-2,4.6845417E-2,6.649832E-2,0E0,4.7858685E-2,0E0,0E0,0E0,9.819844E-2,0E0,0E0],"parents":[2147483647,0,0,1,1,2,2,4,4,8,8],"right_children":[2,4,6,-1,8,-1,-1,-1,10,-1,-1],"split_conditions":[7.338053E1,7E0,1.19170906E2,-8.0168335E-5,3.6E0,-1.2262014E-3,-0E0,-0E0,2E0,-0E0,8.149496E-4],"split_indices":[15,1,18,0,21,0,0,0,0,0,0],"split_type":[0,0,0,0,0,0,0,0,0,0,0],"sum_hessian":[6.97E2,5.99E2,9.8E1,2.8E1,5.71E2,3.5E1,6.3E1,5.4E1,5.17E2,3.01E2,2.16E2],"tree_param":{"num_deleted":"0","num_feature":"24","num_nodes":"11","size_leaf_vector":"1"}},{"base_weights":[-0E0,9.927977E-4,-5.1626586E-3,-0E0,7.234001E-3,-1.3289168E-2,-0E0,1.6151542E-2,-0E0,-6.794893E-4,-0E0,4.918373E-4,-0E0],"categories":[],"categories_nodes":[],"categories_segments":[],"categories_sizes":[],"default_left":[0,0,0,0,0,0,0,0,0,0,0,0,0],"id":92,"left_children":[1,3,5,-1,7,9,-1,11,-1,-1,-1,-1,-1],"loss_changes":[5.3697834E-3,2.3932178E-2,2.0780422E-2,0E0,7.263939E-2,3.5021834E-2,0E0,7.355489E-3,0E0,0E0,0E0,0E0,0E0],"parents":[2147483647,0,0,1,1,2,2,4,4,5,5,7,7],"right_children":[2,4,6,-1,8,10,-1,12,-1,-1,-1,-1,-1],"split_conditions":[5E0,8E0,1.7702E2,-0E0,7.11761E1,2.6405556E1,-0E0,2.9E1,-0E0,-6.794893E-4,-0E0,4.918373E-4,-0E0],"split_indices":[2,1,20,0,15,14,0,1,0,0,0,0,0],"split_type":[0,0,0,0,0,0,0,0,0,0,0,0,0],"sum_hessian":[6.94E2,5.17E2,1.77E2,5.5E1,4.62E2,1.4E2,3.7E1,3.67E2,9.5E1,9.5E1,4.5E1,3.24E2,4.3E1],"tree_param":{"num_deleted":"0","num_feature":"24","num_nodes":"13","size_leaf_vector":"1"}},{"base_weights":[-0E0,-0E0,-8.824237E-3,-0E0,1.343043E-2,-3.339061E-2,-0E0,6.720127E-4,-0E0,-1.3742626E-3,-0E0],"categories":[],"categories_nodes":[],"categories_segments":[],"categories_sizes":[],"default_left":[0,0,0,0,0,0,0,0,0,0,0],"id":93,"left_children":[1,3,5,-1,7,9,-1,-1,-1,-1,-1],"loss_changes":[1.53522855E-2,2.0411395E-2,9.520445E-2,0E0,3.1217914E-2,5.8290184E-2,0E0,0E0,0E0,0E0,0E0],"parents":[2147483647,0,0,1,1,2,2,4,4,5,5],"right_children":[2,4,6,-1,8,10,-1,-1,-1,-1,-1],"split_conditions":[8.2E0,3E0,2.3010778E1,-0E0,1.03E1,4E0,-0E0,6.720127E-4,-0E0,-1.3742626E-3,-0E0],"split_indices":[22,0,14,0,17,0,0,0,0,0,0],"split_type":[0,0,0,0,0,0,0,0,0,0,0],"sum_hessian":[6.84E2,4.92E2,1.92E2,3.84E2,1.08E2,9.4E1,9.8E1,8.2E1,2.6E1,6.3E1,3.1E1],"tree_param":{"num_deleted":"0","num_feature":"24","num_nodes":"11","size_leaf_vector":"1"}},{"base_weights":[-0E0,-5.8499444E-4,2.8506637E-4,1.04484055E-2,-8.989047E-3,1.7023424E-2,-0E0,-1.2441013E-3,-0E0,-0E0,7.231887E-4],"categories":[],"categories_nodes":[],"categories_segments":[],"categories_sizes":[],"default_left":[0,0,0,0,0,0,0,0,0,0,0],"id":94,"left_children":[1,-1,3,5,7,9,-1,-1,-1,-1,-1],"loss_changes":[1.6736114E-2,0E0,7.245608E-2,6.204597E-2,7.279255E-2,8.2837135E-2,0E0,0E0,0E0,0E0,0E0],"parents":[2147483647,0,0,2,2,3,3,4,4,5,5],"right_children":[2,-1,4,6,8,10,-1,-1,-1,-1,-1],"split_conditions":[7E0,-5.8499444E-4,7.338053E1,5E0,3.1061687E1,4.1910713E1,-0E0,-1.2441013E-3,-0E0,-0E0,7.231887E-4],"split_indices":[1,0,15,2,13,15,0,0,0,0,0],"split_type":[0,0,0,0,0,0,0,0,0,0,0],"sum_hessian":[7.14E2,3.2E1,6.82E2,5.79E2,1.03E2,4.29E2,1.5E2,3.5E1,6.8E1,1.3E2,2.99E2],"tree_param":{"num_deleted":"0","num_feature":"24","num_nodes":"11","size_leaf_vector":"1"}},{"base_weights":[-0E0,-0E0,-5.2235336E-3,7.781835E-3,-0E0,-8.89997E-4,-0E0,-0E0,1.7119996E-2,-2.1865219E-5,-0E0,5.2235066E-4,-0E0],"categories":[],"categories_nodes":[],"categories_segments":[],"categories_sizes":[],"default_left":[0,0,0,0,0,0,0,0,0,0,0,0,0],"id":95,"left_children":[1,3,5,7,9,-1,-1,-1,11,-1,-1,-1,-1],"loss_changes":[3.4150279E-3,2.6351962E-2,3.830982E-2,6.396797E-2,5.5284487E-5,0E0,0E0,0E0,8.872613E-3,0E0,0E0,0E0,0E0],"parents":[2147483647,0,0,1,1,2,2,3,3,4,4,8,8],"right_children":[2,4,6,8,10,-1,-1,-1,12,-1,-1,-1,-1],"split_conditions":[7.202841E1,5E0,1.19170906E2,4.1910713E1,2.2274694E1,-8.89997E-4,-0E0,-0E0,5E0,-2.1865219E-5,-0E0,5.2235066E-4,-0E0],"split_indices":[15,2,18,15,14,0,0,0,6,0,0,0,0],"split_type":[0,0,0,0,0,0,0,0,0,0,0,0,0],"sum_hessian":[6.91E2,5.71E2,1.2E2,4.3E2,1.41E2,3.5E1,8.5E1,1.27E2,3.03E2,8.3E1,5.8E1,2.72E2,3.1E1],"tree_param":{"num_deleted":"0","num_feature":"24","num_nodes":"13","size_leaf_vector":"1"}},{"base_weights":[-1.9173563E-4,-1.2201937E-2,-0E0,-0E0,-2.7743764E-2,-0E0,7.126517E-3,-4.8253182E-2,-0E0,-0E0,1.1873642E-2,-1.795745E-3,-0E0,-0E0,4.6930107E-4],"categories":[],"categories_nodes":[],"categories_segments":[],"categories_sizes":[],"default_left":[0,0,0,0,0,0,0,0,0,0,0,0,0,0,0],"id":96,"left_children":[1,3,5,-1,7,-1,9,11,-1,-1,13,-1,-1,-1,-1],"loss_changes":[4.6897016E-2,1.04064256E-1,1.4025406E-2,0E0,1.3344604E-1,0E0,2.1524962E-2,7.5770825E-2,0E0,0E0,2.1695375E-2,0E0,0E0,0E0,0E0],"parents":[2147483647,0,0,1,1,2,2,4,4,6,6,7,7,10,10],"right_children":[2,4,6,-1,8,-1,10,12,-1,-1,14,-1,-1,-1,-1],"split_conditions":[1.4443114E0,5.1E1,4.786014E1,-0E0,2.6405556E1,-0E0,8E0,2.4E1,-0E0,-0E0,2E-1,-1.795745E-3,-0E0,-0E0,4.6930107E-4],"split_indices":[16,15,15,0,14,0,1,1,0,0,22,0,0,0,0],"split_type":[0,0,0,0,0,0,0,0,0,0,0,0,0,0,0],"sum_hessian":[7.1E2,3.1E2,4E2,1.19E2,1.91E2,1.29E2,2.71E2,1.17E2,7.4E1,2.4E1,2.47E2,8E1,3.7E1,5.4E1,1.93E2],"tree_param":{"num_deleted":"0","num_feature":"24","num_nodes":"15","size_leaf_vector":"1"}}]},"name":"gbtree"},"learner_model_param":{"base_score":"[3.222418E-2]","boost_from_average":"1","num_class":"0","num_feature":"24","num_target":"1"},"objective":{"name":"reg:squarederror","reg_loss_param":{"scale_pos_weight":"1"}}},"version":[3,1,3]}