{"learner":{"attributes":{"scikit_learn":"{\"_estimator_type\": \"regressor\"}"},"feature_names":[],"feature_types":[],"gradient_booster":{"model":{"cats":{"enc":[],"feature_segments":[],"sorted_idx":[]},"gbtree_model_param":{"num_parallel_tree":"1","num_trees":"116"},"iteration_indptr":[0,1,2,3,4,5,6,7,8,9,10,11,12,13,14,15,16,17,18,19,20,21,22,23,24,25,26,27,28,29,30,31,32,33,34,35,36,37,38,39,40,41,42,43,44,45,46,47,48,49,50,51,52,53,54,55,56,57,58,59,60,61,62,63,64,65,66,67,68,69,70,71,72,73,74,75,76,77,78,79,80,81,82,83,84,85,86,87,88,89,90,91,92,93,94,95,96,97,98,99,100,101,102,103,104,105,106,107,108,109,110,111,112,113,114,115,116],"tree_info":[0,0,0,0,0,0,0,0,0,0,0,0,0,0,0,0,0,0,0,0,0,0,0,0,0,0,0,0,0,0,0,0,0,0,0,0,0,0,0,0,0,0,0,0,0,0,0,0,0,0,0,0,0,0,0,0,0,0,0,0,0,0,0,0,0,0,0,0,0,0,0,0,0,0,0,0,0,0,0,0,0,0,0,0,0,0,0,0,0,0,0,0,0,0,0,0,0,0,0,0,0,0,0,0,0,0,0,0,0,0,0,0,0,0,0,0],"trees":[{"base_weights":[-0E0,3.2170475E-2,-1.8558493E-2,-0E0,6.069447E-2,-4.2809322E-2,-0E0,-0E0,3.9634374E-3,-0E0,-5.091236E-2,-0E0,-3.315641E-3],"categories":[],"categories_nodes":[],"categories_segments":[],"categories_sizes":[],"default_left":[0,0,0,0,0,0,0,0,0,0,0,0,0],"id":0,"left_children":[1,3,5,-1,7,9,-1,-1,-1,-1,11,-1,-1],"loss_changes":[9.3140626E-1,7.170419E-1,3.5684818E-1,0E0,1.475972E-1,1.34794E-1,0E0,0E0,0E0,0E0,7.735342E-2,0E0,0E0],"parents":[2147483647,0,0,1,1,2,2,4,4,5,5,10,10],"right_children":[2,4,6,-1,8,10,-1,-1,-1,-1,12,-1,-1],"split_conditions":[4.736111E1,2.35E1,1.49E0,-0E0,4E0,3.2E0,-0E0,-0E0,3.9634374E-3,-0E0,5.4157658E1,-0E0,-3.315641E-3],"split_indices":[16,13,17,0,6,18,0,0,0,0,16,0,0],"split_type":[0,0,0,0,0,0,0,0,0,0,0,0,0],"sum_hessian":[1.552E3,5.73E2,9.79E2,2.18E2,3.55E2,3.78E2,6.01E2,7E1,2.85E2,5.9E1,3.19E2,6.6E1,2.53E2],"tree_param":{"num_deleted":"0","num_feature":"19","num_nodes":"13","size_leaf_vector":"1"}},{"base_weights":[-0E0,2.8795607E-2,-1.1711353E-2,-0E0,5.1681712E-2,-3.0464444E-2,-0E0,-0E0,3.3724809E-3,-0E0,-3.9988015E-2,-1.3091677E-4,3.1252739E-3,-0E0,-2.5316444E-3,-0E0,1.0449563E-2,9.2291215E-4,-0E0],"categories":[],"categories_nodes":[],"categories_segments":[],"categories_sizes":[],"default_left":[0,0,0,0,0,0,0,0,0,0,0,0,0,0,0,0,0,0,0],"id":1,"left_children":[1,3,5,-1,7,9,11,-1,-1,-1,13,-1,15,-1,-1,-1,17,-1,-1],"loss_changes":[5.786945E-1,5.004846E-1,2.4848588E-1,0E0,1.2357944E-1,1.3006431E-1,5.0603077E-3,0E0,0E0,0E0,1.8912554E-4,0E0,3.4309413E-2,0E0,0E0,0E0,4.105017E-2,0E0,0E0],"parents":[2147483647,0,0,1,1,2,2,4,4,5,5,6,6,10,10,12,12,16,16],"right_children":[2,4,6,-1,8,10,12,-1,-1,-1,14,-1,16,-1,-1,-1,18,-1,-1],"split_conditions":[4.3653847E1,2.3E1,1.49E0,-0E0,4E0,5.4157658E1,3E0,-0E0,3.3724809E-3,-0E0,3.6E0,-1.3091677E-4,2.25E1,-0E0,-2.5316444E-3,-0E0,3.6083973E1,9.2291215E-4,-0E0],"split_indices":[16,13,17,0,6,16,11,0,0,0,18,0,13,0,0,0,14,0,0],"split_type":[0,0,0,0,0,0,0,0,0,0,0,0,0,0,0,0,0,0,0],"sum_hessian":[1.544E3,5.29E2,1.015E3,1.78E2,3.51E2,4.17E2,5.98E2,6.4E1,2.87E2,9.4E1,3.23E2,1.89E2,4.09E2,7.5E1,2.48E2,5.9E1,3.5E2,2.86E2,6.4E1],"tree_param":{"num_deleted":"0","num_feature":"19","num_nodes":"19","size_leaf_vector":"1"}},{"base_weights":[-0E0,2.3967309E-2,-1.3308834E-2,-0E0,4.4193007E-2,-3.840056E-2,-0E0,-0E0,2.9699262E-3,-0E0,-4.6683963E-2,-0E0,2.417221E-3,-0E0,-3.0972597E-3,8.054621E-4,-0E0],"categories":[],"categories_nodes":[],"categories_segments":[],"categories_sizes":[],"default_left":[0,0,0,0,0,0,0,0,0,0,0,0,0,0,0,0,0],"id":2,"left_children":[1,3,5,-1,7,9,11,-1,-1,-1,13,-1,15,-1,-1,-1,-1],"loss_changes":[4.9502346E-1,3.4090352E-1,4.05184E-1,0E0,1.2264758E-1,1.3677037E-1,2.3130558E-3,0E0,0E0,0E0,6.522465E-2,0E0,4.2331863E-2,0E0,0E0,0E0,0E0],"parents":[2147483647,0,0,1,1,2,2,4,4,5,5,6,6,10,10,12,12],"right_children":[2,4,6,-1,8,10,12,-1,-1,-1,14,-1,16,-1,-1,-1,-1],"split_conditions":[4.736111E1,2.35E1,1.49E0,-0E0,4E0,3.2E0,3E0,-0E0,2.9699262E-3,-0E0,5.4157658E1,-0E0,9.3E0,-0E0,-3.0972597E-3,8.054621E-4,-0E0],"split_indices":[16,13,17,0,6,18,5,0,0,0,16,0,18,0,0,0,0],"split_type":[0,0,0,0,0,0,0,0,0,0,0,0,0,0,0,0,0],"sum_hessian":[1.517E3,5.68E2,9.49E2,2.27E2,3.41E2,3.88E2,5.61E2,6.6E1,2.75E2,6.3E1,3.25E2,1.66E2,3.95E2,7.7E1,2.48E2,2.11E2,1.84E2],"tree_param":{"num_deleted":"0","num_feature":"19","num_nodes":"17","size_leaf_vector":"1"}},{"base_weights":[-0E0,-2.296015E-2,1.0404731E-2,-2.1129982E-3,-0E0,-0E0,2.2392444E-2,4.656696E-2,-0E0,3.7395805E-3,-0E0],"categories":[],"categories_nodes":[],"categories_segments":[],"categories_sizes":[],"default_left":[0,0,0,0,0,0,0,0,0,0,0],"id":3,"left_children":[1,3,5,-1,-1,-1,7,9,-1,-1,-1],"loss_changes":[3.940664E-1,2.0496017E-1,2.7751762E-1,0E0,0E0,0E0,3.0993545E-1,1.5989852E-1,0E0,0E0,0E0],"parents":[2147483647,0,0,1,1,2,2,6,6,7,7],"right_children":[2,4,6,-1,-1,-1,8,10,-1,-1,-1],"split_conditions":[3E0,2.696282E1,4.318E0,-2.1129982E-3,-0E0,-0E0,4E0,5E0,-0E0,3.7395805E-3,-0E0],"split_indices":[4,15,12,0,0,0,10,7,0,0,0],"split_type":[0,0,0,0,0,0,0,0,0,0,0],"sum_hessian":[1.557E3,5.37E2,1.02E3,3.36E2,2.01E2,2.47E2,7.73E2,3.21E2,4.52E2,1.88E2,1.33E2],"tree_param":{"num_deleted":"0","num_feature":"19","num_nodes":"11","size_leaf_vector":"1"}},{"base_weights":[-0E0,2.2826537E-2,-1.6745485E-2,-0E0,4.766987E-2,-4.1247033E-2,-0E0,3.0523746E-3,-0E0,-0E0,-3.4618368E-3,-3.9308125E-4,2.8247559E-3,-0E0,1.124408E-2,8.6080126E-4,-0E0],"categories":[],"categories_nodes":[],"categories_segments":[],"categories_sizes":[],"default_left":[0,0,0,0,0,0,0,0,0,0,0,0,0,0,0,0,0],"id":4,"left_children":[1,3,5,-1,7,9,11,-1,-1,-1,-1,-1,13,-1,15,-1,-1],"loss_changes":[5.7298315E-1,4.8836508E-1,3.856477E-1,0E0,5.9441864E-2,6.700528E-2,1.27399415E-2,0E0,0E0,0E0,0E0,0E0,3.7583034E-2,0E0,1.9201066E-2,0E0,0E0],"parents":[2147483647,0,0,1,1,2,2,4,4,5,5,6,6,12,12,14,14],"right_children":[2,4,6,-1,8,10,12,-1,-1,-1,-1,-1,14,-1,16,-1,-1],"split_conditions":[4.736111E1,2.35E1,1.49E0,-0E0,5E0,4.4E0,3E0,3.0523746E-3,-0E0,-0E0,-3.4618368E-3,-3.9308125E-4,4.381E0,-0E0,2.3E1,8.6080126E-4,-0E0],"split_indices":[16,13,17,0,7,18,11,0,0,0,0,0,12,0,2,0,0],"split_type":[0,0,0,0,0,0,0,0,0,0,0,0,0,0,0,0,0],"sum_hessian":[1.544E3,5.79E2,9.65E2,2.32E2,3.47E2,3.85E2,5.8E2,2.8E2,6.7E1,2E2,1.85E2,1.91E2,3.89E2,6.8E1,3.21E2,2.48E2,7.3E1],"tree_param":{"num_deleted":"0","num_feature":"19","num_nodes":"17","size_leaf_vector":"1"}},{"base_weights":[-0E0,2.5850272E-2,-1.2749012E-2,-0E0,4.751299E-2,-2.9109452E-2,-0E0,-0E0,5.5845592E-2,-0E0,-3.7898794E-2,3.5256364E-3,-0E0,-0E0,-4.5833707E-2,-0E0,-3.2516618E-3],"categories":[],"categories_nodes":[],"categories_segments":[],"categories_sizes":[],"default_left":[0,0,0,0,0,0,0,0,0,0,0,0,0,0,0,0,0],"id":5,"left_children":[1,3,5,-1,7,9,-1,-1,11,-1,13,-1,-1,-1,15,-1,-1],"loss_changes":[5.2495706E-1,4.3759075E-1,1.926608E-1,0E0,1.15923405E-1,1.1580625E-1,0E0,0E0,1.6310215E-3,0E0,8.815238E-2,0E0,0E0,0E0,1.5105844E-2,0E0,0E0],"parents":[2147483647,0,0,1,1,2,2,4,4,5,5,8,8,10,10,14,14],"right_children":[2,4,6,-1,8,10,-1,-1,12,-1,14,-1,-1,-1,16,-1,-1],"split_conditions":[4.3653847E1,4.657E0,1.49E0,-0E0,4E0,5.4157658E1,-0E0,-0E0,1.8E1,-0E0,3.2E0,3.5256364E-3,-0E0,-0E0,4E0,-0E0,-3.2516618E-3],"split_indices":[16,12,17,0,6,16,0,0,2,0,18,0,0,0,10,0,0],"split_type":[0,0,0,0,0,0,0,0,0,0,0,0,0,0,0,0,0],"sum_hessian":[1.567E3,5.33E2,1.034E3,1.82E2,3.51E2,4.25E2,6.09E2,6E1,2.91E2,9.4E1,3.31E2,2.25E2,6.6E1,6.3E1,2.68E2,1E2,1.68E2],"tree_param":{"num_deleted":"0","num_feature":"19","num_nodes":"17","size_leaf_vector":"1"}},{"base_weights":[-0E0,1.7957393E-2,-1.379702E-2,-0E0,3.9061747E-2,-1.9524385E-3,-0E0,2.5898272E-3,-0E0,-9.965184E-6,-0E0,-0E0,4.5589235E-4],"categories":[],"categories_nodes":[],"categories_segments":[],"categories_sizes":[],"default_left":[0,0,0,0,0,0,0,0,0,0,0,0,0],"id":6,"left_children":[1,3,5,-1,7,-1,9,-1,-1,-1,11,-1,-1],"loss_changes":[3.7029105E-1,3.378682E-1,2.8627875E-1,0E0,7.7165425E-2,0E0,6.446599E-6,0E0,0E0,0E0,2.2402907E-2,0E0,0E0],"parents":[2147483647,0,0,1,1,2,2,4,4,6,6,10,10],"right_children":[2,4,6,-1,8,-1,10,-1,-1,-1,12,-1,-1],"split_conditions":[4.736111E1,2.35E1,1.49E0,-0E0,5E0,-1.9524385E-3,3E0,2.5898272E-3,-0E0,-9.965184E-6,4.381E0,-0E0,4.5589235E-4],"split_indices":[16,13,17,0,7,0,11,0,0,0,12,0,0],"split_type":[0,0,0,0,0,0,0,0,0,0,0,0,0],"sum_hessian":[1.548E3,5.69E2,9.79E2,2.28E2,3.41E2,3.81E2,5.98E2,2.74E2,6.7E1,1.99E2,3.99E2,6.8E1,3.31E2],"tree_param":{"num_deleted":"0","num_feature":"19","num_nodes":"13","size_leaf_vector":"1"}},{"base_weights":[-0E0,1.9525466E-2,-1.341941E-2,-0E0,3.6854777E-2,-3.2377213E-2,-0E0,-0E0,4.3505087E-2,-0E0,-4.170353E-2,-1.8223231E-4,-0E0,2.882578E-3,-0E0,-0E0,-5.19025E-2,-4.0658633E-3,-0E0,2.6795716E-4,-0E0,-3.5271049E-3,-0E0,-4.9961923E-4,-0E0],"categories":[],"categories_nodes":[],"categories_segments":[],"categories_sizes":[],"default_left":[0,0,0,0,0,0,0,0,0,0,0,0,0,0,0,0,0,0,0,0,0,0,0,0,0],"id":7,"left_children":[1,3,5,-1,7,9,11,-1,13,-1,15,17,19,-1,-1,-1,21,23,-1,-1,-1,-1,-1,-1,-1],"loss_changes":[3.880099E-1,2.7728546E-1,2.4156441E-1,0E0,6.177005E-2,1.409241E-1,1.2980276E-5,0E0,1.4541268E-2,0E0,1.5312034E-1,5.2252878E-3,3.938183E-3,0E0,0E0,0E0,1.730156E-2,1.4533645E-2,0E0,0E0,0E0,0E0,0E0,0E0,0E0],"parents":[2147483647,0,0,1,1,2,2,4,4,5,5,6,6,8,8,10,10,11,11,12,12,16,16,17,17],"right_children":[2,4,6,-1,8,10,12,-1,14,-1,16,18,20,-1,-1,-1,22,24,-1,-1,-1,-1,-1,-1,-1],"split_conditions":[4.3653847E1,4.657E0,1.49E0,-0E0,4E0,5.4157658E1,3E0,-0E0,4E0,-0E0,3.2E0,4.2928204E1,2.3E1,2.882578E-3,-0E0,-0E0,4E0,2.608387E0,-0E0,2.6795716E-4,-0E0,-3.5271049E-3,-0E0,-4.9961923E-4,-0E0],"split_indices":[16,12,17,0,6,16,4,0,4,0,18,14,2,0,0,0,4,17,0,0,0,0,0,0,0],"split_type":[0,0,0,0,0,0,0,0,0,0,0,0,0,0,0,0,0,0,0,0,0,0,0,0,0],"sum_hessian":[1.561E3,5.29E2,1.032E3,1.77E2,3.52E2,4.07E2,6.25E2,6.7E1,2.85E2,8.1E1,3.26E2,3.9E2,2.35E2,2.05E2,8E1,5.9E1,2.67E2,3.16E2,7.4E1,1.68E2,6.7E1,1.82E2,8.5E1,2.43E2,7.3E1],"tree_param":{"num_deleted":"0","num_feature":"19","num_nodes":"25","size_leaf_vector":"1"}},{"base_weights":[-0E0,1.2164058E-2,-1.4922602E-2,-0E0,2.675246E-2,-5.270995E-2,-0E0,5.075165E-2,-0E0,-3.9829714E-3,-0E0,3.4137764E-3,-0E0],"categories":[],"categories_nodes":[],"categories_segments":[],"categories_sizes":[],"default_left":[0,0,0,0,0,0,0,0,0,0,0,0,0],"id":8,"left_children":[1,3,5,-1,7,9,-1,11,-1,-1,-1,-1,-1],"loss_changes":[2.8146297E-1,3.404663E-1,3.213258E-1,0E0,2.2184962E-1,1.01282656E-1,0E0,3.3874452E-2,0E0,0E0,0E0,0E0,0E0],"parents":[2147483647,0,0,1,1,2,2,4,4,5,5,7,7],"right_children":[2,4,6,-1,8,10,-1,12,-1,-1,-1,-1,-1],"split_conditions":[6.6E0,4E0,3.1792568E1,-0E0,4E0,1.9460938E0,-0E0,5E0,-0E0,-3.9829714E-3,-0E0,3.4137764E-3,-0E0],"split_indices":[18,6,14,0,10,17,0,7,0,0,0,0,0],"split_type":[0,0,0,0,0,0,0,0,0,0,0,0,0],"sum_hessian":[1.54E3,8.27E2,7.13E2,1.81E2,6.46E2,1.72E2,5.41E2,2.65E2,3.81E2,1.12E2,6E1,1.89E2,7.6E1],"tree_param":{"num_deleted":"0","num_feature":"19","num_nodes":"13","size_leaf_vector":"1"}},{"base_weights":[-0E0,1.5560961E-2,-1.1573353E-2,-0E0,2.5252787E-2,-0E0,-1.9866636E-3,-0E0,2.0150489E-3],"categories":[],"categories_nodes":[],"categories_segments":[],"categories_sizes":[],"default_left":[0,0,0,0,0,0,0,0,0],"id":9,"left_children":[1,3,5,-1,7,-1,-1,-1,-1],"loss_changes":[2.6905143E-1,9.866841E-2,1.9742803E-1,0E0,1.3459055E-1,0E0,0E0,0E0,0E0],"parents":[2147483647,0,0,1,1,2,2,4,4],"right_children":[2,4,6,-1,8,-1,-1,-1,-1],"split_conditions":[4.736111E1,4.657E0,4E0,-0E0,4E0,-0E0,-1.9866636E-3,-0E0,2.0150489E-3],"split_indices":[16,12,3,0,6,0,0,0,0],"split_type":[0,0,0,0,0,0,0,0,0],"sum_hessian":[1.545E3,5.71E2,9.74E2,2E2,3.71E2,7.19E2,2.55E2,9E1,2.81E2],"tree_param":{"num_deleted":"0","num_feature":"19","num_nodes":"9","size_leaf_vector":"1"}},{"base_weights":[-0E0,-3.1356502E-2,5.3423713E-3,-2.7918138E-3,-0E0,2.3171308E-2,-0E0,3.6111344E-2,-0E0,-4.8139384E-3,-0E0,4.2894375E-2,-0E0,-0E0,-5.446907E-4,5.4967966E-2,-0E0,3.7438462E-3,-0E0],"categories":[],"categories_nodes":[],"categories_segments":[],"categories_sizes":[],"default_left":[0,0,0,0,0,0,0,0,0,0,0,0,0,0,0,0,0,0,0],"id":10,"left_children":[1,3,5,-1,-1,7,9,11,-1,13,-1,15,-1,-1,-1,17,-1,-1,-1],"loss_changes":[3.4101605E-1,1.0159212E-1,3.3235508E-1,0E0,0E0,3.5454997E-1,9.614216E-3,1.5514404E-1,0E0,1.7258625E-2,0E0,1.3137537E-1,0E0,0E0,0E0,3.7695885E-2,0E0,0E0,0E0],"parents":[2147483647,0,0,1,1,2,2,5,5,6,6,7,7,9,9,11,11,15,15],"right_children":[2,4,6,-1,-1,8,10,12,-1,14,-1,16,-1,-1,-1,18,-1,-1,-1],"split_conditions":[3E0,3.205425E1,6.6E0,-2.7918138E-3,-0E0,7.0775116E1,2.7288607E1,4E0,-0E0,1.6E1,-0E0,5E0,-0E0,-0E0,-5.446907E-4,1.8E1,-0E0,3.7438462E-3,-0E0],"split_indices":[5,14,18,0,0,16,15,4,0,2,0,7,0,0,0,2,0,0,0],"split_type":[0,0,0,0,0,0,0,0,0,0,0,0,0,0,0,0,0,0,0],"sum_hessian":[1.548E3,3.1E2,1.238E3,1.6E2,1.5E2,6.84E2,5.54E2,5.53E2,1.31E2,4.14E2,1.4E2,4.76E2,7.7E1,1.36E2,2.78E2,3.33E2,1.43E2,2.29E2,1.04E2],"tree_param":{"num_deleted":"0","num_feature":"19","num_nodes":"19","size_leaf_vector":"1"}},{"base_weights":[-0E0,-1.2920998E-3,5.9102606E-3,2.0294772E-2,-0E0,3.222117E-2,-0E0,-1.9675645E-3,-0E0,-0E0,3.5242993E-2,-2.0895286E-4,-0E0,3.7817113E-2,-0E0,2.2829648E-3,-0E0],"categories":[],"categories_nodes":[],"categories_segments":[],"categories_sizes":[],"default_left":[0,0,0,0,0,0,0,0,0,0,0,0,0,0,0,0,0],"id":11,"left_children":[1,-1,3,5,7,9,-1,11,-1,-1,13,-1,-1,15,-1,-1,-1],"loss_changes":[2.1756645E-1,0E0,2.386405E-1,2.933595E-1,1.5867366E-3,3.7148595E-2,0E0,2.438839E-3,0E0,0E0,2.5935173E-3,0E0,0E0,1.3042331E-2,0E0,0E0,0E0],"parents":[2147483647,0,0,2,2,3,3,4,4,5,5,7,7,10,10,13,13],"right_children":[2,-1,4,6,8,10,-1,12,-1,-1,14,-1,-1,16,-1,-1,-1],"split_conditions":[3E0,-1.2920998E-3,6.6E0,7.0775116E1,2.7288607E1,4E0,-0E0,6.1683872E1,-0E0,-0E0,2.5E1,-2.0895286E-4,-0E0,5E0,-0E0,2.2829648E-3,-0E0],"split_indices":[5,0,18,16,15,6,0,16,0,0,2,0,0,7,0,0,0],"split_type":[0,0,0,0,0,0,0,0,0,0,0,0,0,0,0,0,0],"sum_hessian":[1.552E3,3.21E2,1.231E3,6.83E2,5.48E2,5.53E2,1.3E2,4.09E2,1.39E2,6.1E1,4.92E2,2.83E2,1.26E2,4.29E2,6.3E1,3.7E2,5.9E1],"tree_param":{"num_deleted":"0","num_feature":"19","num_nodes":"17","size_leaf_vector":"1"}},{"base_weights":[-0E0,-2.1143325E-2,5.9579574E-3,-1.9533252E-3,-0E0,2.4844283E-2,-0E0,3.9061952E-2,-0E0,-7.0498963E-3,-0E0,-0E0,2.75233E-3,-0E0,-6.177854E-4],"categories":[],"categories_nodes":[],"categories_segments":[],"categories_sizes":[],"default_left":[0,0,0,0,0,0,0,0,0,0,0,0,0,0,0],"id":12,"left_children":[1,3,5,-1,-1,7,9,11,-1,13,-1,-1,-1,-1,-1],"loss_changes":[2.710539E-1,1.5804462E-1,2.2336201E-1,0E0,0E0,2.206636E-1,1.4058969E-2,5.5615366E-2,0E0,1.2452715E-2,0E0,0E0,0E0,0E0,0E0],"parents":[2147483647,0,0,1,1,2,2,5,5,6,6,7,7,9,9],"right_children":[2,4,6,-1,-1,8,10,12,-1,14,-1,-1,-1,-1,-1],"split_conditions":[3E0,2.696282E1,4E0,-1.9533252E-3,-0E0,4E0,1.5192307E0,4.361E0,-0E0,4.304E0,-0E0,-0E0,2.75233E-3,-0E0,-6.177854E-4],"split_indices":[4,15,10,0,0,0,17,12,0,12,0,0,0,0,0],"split_type":[0,0,0,0,0,0,0,0,0,0,0,0,0,0,0],"sum_hessian":[1.549E3,5.24E2,1.025E3,3.16E2,2.08E2,4.2E2,6.05E2,3.14E2,1.06E2,2.82E2,3.23E2,9.7E1,2.17E2,6.9E1,2.13E2],"tree_param":{"num_deleted":"0","num_feature":"19","num_nodes":"15","size_leaf_vector":"1"}},{"base_weights":[-0E0,-2.0695385E-2,1.8747738E-3,-2.111266E-3,-0E0,1.4039341E-2,-0E0,1.6344994E-3,-0E0,-5.6615034E-3,-0E0,-8.322838E-4,-0E0],"categories":[],"categories_nodes":[],"categories_segments":[],"categories_sizes":[],"default_left":[0,0,0,0,0,0,0,0,0,0,0,0,0],"id":13,"left_children":[1,3,5,-1,-1,7,9,-1,-1,11,-1,-1,-1],"loss_changes":[1.3920966E-1,9.9491194E-2,1.2768276E-1,0E0,0E0,3.2167256E-1,1.5509325E-2,0E0,0E0,6.950594E-2,0E0,0E0,0E0],"parents":[2147483647,0,0,1,1,2,2,5,5,6,6,9,9],"right_children":[2,4,6,-1,-1,8,10,-1,-1,12,-1,-1,-1],"split_conditions":[3E0,3.205425E1,3.6422157E1,-2.111266E-3,-0E0,5E0,4.8957317E1,1.6344994E-3,-0E0,5.793E0,-0E0,-8.322838E-4,-0E0],"split_indices":[5,14,14,0,0,8,14,0,0,12,0,0,0],"split_type":[0,0,0,0,0,0,0,0,0,0,0,0,0],"sum_hessian":[1.551E3,3.14E2,1.237E3,1.61E2,1.53E2,6.69E2,5.68E2,5.22E2,1.47E2,4.83E2,8.5E1,3.77E2,1.06E2],"tree_param":{"num_deleted":"0","num_feature":"19","num_nodes":"13","size_leaf_vector":"1"}},{"base_weights":[-0E0,-1.3790517E-2,8.101831E-3,-1.7772728E-3,-0E0,1.5741926E-2,-0E0,-0E0,1.5881798E-3],"categories":[],"categories_nodes":[],"categories_segments":[],"categories_sizes":[],"default_left":[0,0,0,0,0,0,0,0,0],"id":14,"left_children":[1,3,5,-1,-1,7,-1,-1,-1],"loss_changes":[1.6801515E-1,7.377124E-2,1.18596226E-1,0E0,0E0,1.0154672E-1,0E0,0E0,0E0],"parents":[2147483647,0,0,1,1,2,2,5,5],"right_children":[2,4,6,-1,-1,8,-1,-1,-1],"split_conditions":[3E0,3.205425E1,2.2E1,-1.7772728E-3,-0E0,1.4822785E0,-0E0,-0E0,1.5881798E-3],"split_indices":[4,14,2,0,0,17,0,0,0],"split_type":[0,0,0,0,0,0,0,0,0],"sum_hessian":[1.545E3,5.33E2,1.012E3,1.7E2,3.63E2,7.46E2,2.66E2,3.97E2,3.49E2],"tree_param":{"num_deleted":"0","num_feature":"19","num_nodes":"9","size_leaf_vector":"1"}},{"base_weights":[-0E0,1.1774081E-2,-1.1244262E-2,-0E0,2.710861E-2,-2.4973975E-2,-0E0,-0E0,3.0451642E-2,-0E0,-3.0515343E-2,3.535749E-2,-0E0,-2.1424023E-3,-0E0,2.36293E-3,-0E0],"categories":[],"categories_nodes":[],"categories_segments":[],"categories_sizes":[],"default_left":[0,0,0,0,0,0,0,0,0,0,0,0,0,0,0,0,0],"id":15,"left_children":[1,3,5,-1,7,9,-1,-1,11,-1,13,15,-1,-1,-1,-1,-1],"loss_changes":[2.0406921E-1,1.8264428E-1,1.2218116E-1,0E0,8.7117255E-3,4.0685624E-2,0E0,0E0,9.783179E-3,0E0,5.2464426E-2,1.5050292E-2,0E0,0E0,0E0,0E0,0E0],"parents":[2147483647,0,0,1,1,2,2,4,4,5,5,8,8,10,10,11,11],"right_children":[2,4,6,-1,8,10,-1,-1,12,-1,14,16,-1,-1,-1,-1,-1],"split_conditions":[4.3653847E1,4.657E0,1.49E0,-0E0,4E0,5.4157658E1,-0E0,-0E0,1.8E1,-0E0,4E0,4E0,-0E0,-2.1424023E-3,-0E0,2.36293E-3,-0E0],"split_indices":[16,12,17,0,6,16,0,0,2,0,4,4,0,0,0,0,0],"split_type":[0,0,0,0,0,0,0,0,0,0,0,0,0,0,0,0,0],"sum_hessian":[1.561E3,5.31E2,1.03E3,1.83E2,3.48E2,4.04E2,6.26E2,6.3E1,2.85E2,9E1,3.14E2,2.19E2,6.6E1,2.31E2,8.3E1,1.59E2,6E1],"tree_param":{"num_deleted":"0","num_feature":"19","num_nodes":"17","size_leaf_vector":"1"}},{"base_weights":[-0E0,1.5809935E-2,-5.2305944E-3,-0E0,1.5654715E-3,-2.0984728E-2,-0E0,-0E0,-2.5673442E-2,-0E0,3.0785413E-3,-0E0,-2.1888257E-3,-0E0,4.2036478E-4],"categories":[],"categories_nodes":[],"categories_segments":[],"categories_sizes":[],"default_left":[0,0,0,0,0,0,0,0,0,0,0,0,0,0,0],"id":16,"left_children":[1,3,5,-1,-1,7,9,-1,11,-1,13,-1,-1,-1,-1],"loss_changes":[1.6831225E-1,1.3018005E-1,1.4619309E-1,0E0,0E0,4.2885154E-2,3.68549E-3,0E0,1.4650419E-2,0E0,1.5017404E-2,0E0,0E0,0E0,0E0],"parents":[2147483647,0,0,1,1,2,2,5,5,6,6,8,8,10,10],"right_children":[2,4,6,-1,-1,8,10,-1,12,-1,14,-1,-1,-1,-1],"split_conditions":[4.736111E1,2.35E1,1.49E0,-0E0,1.5654715E-3,3.2E0,3E0,-0E0,4E0,-0E0,4.381E0,-0E0,-2.1888257E-3,-0E0,4.2036478E-4],"split_indices":[16,13,17,0,0,18,11,0,10,0,12,0,0,0,0],"split_type":[0,0,0,0,0,0,0,0,0,0,0,0,0,0,0],"sum_hessian":[1.53E3,5.67E2,9.63E2,2.26E2,3.41E2,3.91E2,5.72E2,6.5E1,3.26E2,1.84E2,3.88E2,1.79E2,1.47E2,6.3E1,3.25E2],"tree_param":{"num_deleted":"0","num_feature":"19","num_nodes":"15","size_leaf_vector":"1"}},{"base_weights":[-0E0,1.5146833E-2,-1.3790543E-2,2.40386E-2,-0E0,-3.6176242E-2,-0E0,-0E0,1.6840543E-3,-0E0,-2.2611679E-3,-0E0,1.8774168E-4,-0E0,6.860151E-3,6.417941E-4,-0E0],"categories":[],"categories_nodes":[],"categories_segments":[],"categories_sizes":[],"default_left":[0,0,0,0,0,0,0,0,0,0,0,0,0,0,0,0,0],"id":17,"left_children":[1,3,5,7,-1,9,11,-1,-1,-1,-1,-1,13,-1,15,-1,-1],"loss_changes":[3.1419033E-1,1.4040777E-1,3.347311E-1,6.101945E-2,0E0,1.0489583E-2,1.36360095E-5,0E0,0E0,0E0,0E0,0E0,1.4710585E-2,0E0,1.6563803E-2,0E0,0E0],"parents":[2147483647,0,0,1,1,2,2,3,3,5,5,6,6,12,12,14,14],"right_children":[2,4,6,8,-1,10,12,-1,-1,-1,-1,-1,14,-1,16,-1,-1],"split_conditions":[4.736111E1,2.8E1,1.49E0,3E0,-0E0,5.4157658E1,3E0,-0E0,1.6840543E-3,-0E0,-2.2611679E-3,-0E0,4.381E0,-0E0,2.3E1,6.417941E-4,-0E0],"split_indices":[16,2,17,10,0,16,11,0,0,0,0,0,12,0,2,0,0],"split_type":[0,0,0,0,0,0,0,0,0,0,0,0,0,0,0,0,0],"sum_hessian":[1.535E3,5.58E2,9.77E2,4.64E2,9.4E1,3.97E2,5.8E2,1.07E2,3.57E2,7.8E1,3.19E2,1.94E2,3.86E2,7.4E1,3.12E2,2.33E2,7.9E1],"tree_param":{"num_deleted":"0","num_feature":"19","num_nodes":"17","size_leaf_vector":"1"}},{"base_weights":[-0E0,-7.93668E-3,6.985259E-3,-9.276966E-4,-0E0,2.0141486E-2,-0E0,3.1105546E-2,-0E0,-0E0,2.379473E-3],"categories":[],"categories_nodes":[],"categories_segments":[],"categories_sizes":[],"default_left":[0,0,0,0,0,0,0,0,0,0,0],"id":18,"left_children":[1,3,5,-1,-1,7,-1,9,-1,-1,-1],"loss_changes":[8.4044516E-2,5.7633683E-2,1.4642008E-1,0E0,0E0,1.3198537E-1,0E0,8.56522E-2,0E0,0E0,0E0],"parents":[2147483647,0,0,1,1,2,2,5,5,7,7],"right_children":[2,4,6,-1,-1,8,-1,10,-1,-1,-1],"split_conditions":[3E0,2.696282E1,1.6E1,-9.276966E-4,-0E0,2.7734694E1,-0E0,4.361E0,-0E0,-0E0,2.379473E-3],"split_indices":[4,15,2,0,0,15,0,12,0,0,0],"split_type":[0,0,0,0,0,0,0,0,0,0,0],"sum_hessian":[1.561E3,5.48E2,1.013E3,3.29E2,2.19E2,4.82E2,5.31E2,3.38E2,1.44E2,1.14E2,2.24E2],"tree_param":{"num_deleted":"0","num_feature":"19","num_nodes":"11","size_leaf_vector":"1"}},{"base_weights":[-0E0,-1.0456334E-2,7.173015E-3,-1.7042374E-2,-0E0,1.790424E-2,-0E0,-1.2097216E-3,-0E0,2.7758963E-2,-0E0,3.4105662E-2,-0E0,4.534563E-2,-0E0,2.7946788E-3,-0E0],"categories":[],"categories_nodes":[],"categories_segments":[],"categories_sizes":[],"default_left":[0,0,0,0,0,0,0,0,0,0,0,0,0,0,0,0,0],"id":19,"left_children":[1,3,5,7,-1,9,-1,-1,-1,11,-1,13,-1,15,-1,-1,-1],"loss_changes":[1.104272E-1,7.240021E-2,1.6577479E-1,6.643027E-3,0E0,2.1424402E-1,0E0,0E0,0E0,1.2716246E-1,0E0,1.2922287E-1,0E0,3.6299229E-3,0E0,0E0,0E0],"parents":[2147483647,0,0,1,1,2,2,3,3,5,5,9,9,11,11,13,13],"right_children":[2,4,6,8,-1,10,-1,-1,-1,12,-1,14,-1,16,-1,-1,-1],"split_conditions":[3E0,1.66E1,6.6E0,3E0,-0E0,7.0775116E1,-0E0,-1.2097216E-3,-0E0,4E0,-0E0,5E0,-0E0,2.1E1,-0E0,2.7946788E-3,-0E0],"split_indices":[4,18,18,5,0,16,0,0,0,4,0,7,0,2,0,0,0],"split_type":[0,0,0,0,0,0,0,0,0,0,0,0,0,0,0,0,0],"sum_hessian":[1.545E3,5.32E2,1.013E3,4.49E2,8.3E1,6.79E2,3.34E2,2.88E2,1.61E2,5.6E2,1.19E2,4.8E2,8E1,3.34E2,1.46E2,2.72E2,6.2E1],"tree_param":{"num_deleted":"0","num_feature":"19","num_nodes":"17","size_leaf_vector":"1"}},{"base_weights":[-0E0,1.0031958E-2,-1.1277629E-2,-0E0,2.288489E-2,-0E0,-1.7437473E-2,2.7453393E-2,-0E0,-2.1515556E-3,-0E0,1.773561E-3,-0E0],"categories":[],"categories_nodes":[],"categories_segments":[],"categories_sizes":[],"default_left":[0,0,0,0,0,0,0,0,0,0,0,0,0],"id":20,"left_children":[1,3,5,-1,7,-1,9,11,-1,-1,-1,-1,-1],"loss_changes":[1.8480015E-1,1.2461447E-1,4.2671323E-2,0E0,3.1176478E-2,0E0,9.963149E-2,1.0195494E-2,0E0,0E0,0E0,0E0,0E0],"parents":[2147483647,0,0,1,1,2,2,4,4,6,6,7,7],"right_children":[2,4,6,-1,8,-1,10,12,-1,-1,-1,-1,-1],"split_conditions":[4.736111E1,2.35E1,6.6E0,-0E0,5E0,-0E0,3.1792568E1,1.8E1,-0E0,-2.1515556E-3,-0E0,1.773561E-3,-0E0],"split_indices":[16,13,18,0,7,0,14,2,0,0,0,0,0],"split_type":[0,0,0,0,0,0,0,0,0,0,0,0,0],"sum_hessian":[1.575E3,5.92E2,9.83E2,2.41E2,3.51E2,4.32E2,5.51E2,2.85E2,6.6E1,1.77E2,3.74E2,2.2E2,6.5E1],"tree_param":{"num_deleted":"0","num_feature":"19","num_nodes":"13","size_leaf_vector":"1"}},{"base_weights":[-0E0,8.809792E-3,-6.528632E-3,-0E0,1.8560767E-2,-2.2894071E-2,-0E0,-0E0,1.1726246E-3,-0E0,-2.9623456E-2,-0E0,-1.8785535E-3],"categories":[],"categories_nodes":[],"categories_segments":[],"categories_sizes":[],"default_left":[0,0,0,0,0,0,0,0,0,0,0,0,0],"id":21,"left_children":[1,3,5,-1,7,9,-1,-1,-1,-1,11,-1,-1],"loss_changes":[8.628167E-2,7.4036345E-2,1.6545764E-1,0E0,7.0777163E-3,8.075574E-2,0E0,0E0,0E0,0E0,9.698868E-4,0E0,0E0],"parents":[2147483647,0,0,1,1,2,2,4,4,5,5,10,10],"right_children":[2,4,6,-1,8,10,-1,-1,-1,-1,12,-1,-1],"split_conditions":[4.736111E1,2.35E1,1.49E0,-0E0,4E0,3.2E0,-0E0,-0E0,1.1726246E-3,-0E0,5.4157658E1,-0E0,-1.8785535E-3],"split_indices":[16,13,17,0,6,18,0,0,0,0,16,0,0],"split_type":[0,0,0,0,0,0,0,0,0,0,0,0,0],"sum_hessian":[1.549E3,5.76E2,9.73E2,2.32E2,3.44E2,3.94E2,5.79E2,6.3E1,2.81E2,6.7E1,3.27E2,7.6E1,2.51E2],"tree_param":{"num_deleted":"0","num_feature":"19","num_nodes":"13","size_leaf_vector":"1"}},{"base_weights":[-0E0,-1.2685386E-2,6.93294E-3,-1.8046313E-3,-0E0,-0E0,2.246334E-2,1.5801796E-3,-0E0],"categories":[],"categories_nodes":[],"categories_segments":[],"categories_sizes":[],"default_left":[0,0,0,0,0,0,0,0,0],"id":22,"left_children":[1,3,5,-1,-1,-1,7,-1,-1],"loss_changes":[1.36751E-1,9.6808694E-2,1.572241E-1,0E0,0E0,0E0,6.495863E-2,0E0,0E0],"parents":[2147483647,0,0,1,1,2,2,6,6],"right_children":[2,4,6,-1,-1,-1,8,-1,-1],"split_conditions":[3E0,3.205425E1,1.5192307E0,-1.8046313E-3,-0E0,-0E0,2.3E1,1.5801796E-3,-0E0],"split_indices":[4,14,17,0,0,0,2,0,0],"split_type":[0,0,0,0,0,0,0,0,0],"sum_hessian":[1.557E3,5.47E2,1.01E3,1.74E2,3.73E2,6.03E2,4.07E2,3.33E2,7.4E1],"tree_param":{"num_deleted":"0","num_feature":"19","num_nodes":"9","size_leaf_vector":"1"}},{"base_weights":[-0E0,-1.9373955E-2,3.0887185E-4,-1.7763929E-3,-0E0,1.1067346E-2,-0E0,2.3338448E-2,-0E0,-3.064707E-3,-0E0,2.9507084E-2,-0E0,-4.1227667E-3,-0E0,1.9162229E-3,-0E0,-3.730625E-4,-0E0],"categories":[],"categories_nodes":[],"categories_segments":[],"categories_sizes":[],"default_left":[0,0,0,0,0,0,0,0,0,0,0,0,0,0,0,0,0,0,0],"id":23,"left_children":[1,3,5,-1,-1,7,9,11,-1,13,-1,15,-1,17,-1,-1,-1,-1,-1],"loss_changes":[1.2280938E-1,4.731276E-2,8.523863E-2,0E0,0E0,1.2917776E-1,3.783935E-3,5.4389134E-2,0E0,1.9419261E-3,0E0,4.0323436E-3,0E0,4.9815723E-3,0E0,0E0,0E0,0E0,0E0],"parents":[2147483647,0,0,1,1,2,2,5,5,6,6,7,7,9,9,11,11,13,13],"right_children":[2,4,6,-1,-1,8,10,12,-1,14,-1,16,-1,18,-1,-1,-1,-1,-1],"split_conditions":[3E0,3.205425E1,6.6E0,-1.7763929E-3,-0E0,2.7734694E1,2.7288607E1,7.0775116E1,-0E0,4E0,-0E0,5E0,-0E0,6.1683872E1,-0E0,1.9162229E-3,-0E0,-3.730625E-4,-0E0],"split_indices":[5,14,18,0,0,15,15,16,0,1,0,7,0,16,0,0,0,0,0],"split_type":[0,0,0,0,0,0,0,0,0,0,0,0,0,0,0,0,0,0,0],"sum_hessian":[1.566E3,3.26E2,1.24E3,1.65E2,1.61E2,6.96E2,5.44E2,3.93E2,3.03E2,4.02E2,1.42E2,3.08E2,8.5E1,3.36E2,6.6E1,2.28E2,8E1,2.36E2,1E2],"tree_param":{"num_deleted":"0","num_feature":"19","num_nodes":"19","size_leaf_vector":"1"}},{"base_weights":[-0E0,2.5964116E-3,-8.131005E-3,-0E0,1.3289842E-2,-1.6137832E-3,-0E0,2.179607E-2,-0E0,1.4718935E-3,-0E0],"categories":[],"categories_nodes":[],"categories_segments":[],"categories_sizes":[],"default_left":[0,0,0,0,0,0,0,0,0,0,0],"id":24,"left_children":[1,3,5,-1,7,-1,-1,9,-1,-1,-1],"loss_changes":[5.354083E-2,1.09737076E-1,1.22118235E-1,0E0,6.782852E-2,0E0,0E0,3.8247198E-2,0E0,0E0,0E0],"parents":[2147483647,0,0,1,1,2,2,4,4,7,7],"right_children":[2,4,6,-1,8,-1,-1,10,-1,-1,-1],"split_conditions":[6.6E0,4E0,2.2398039E1,-0E0,2.7734694E1,-1.6137832E-3,-0E0,2.3E1,-0E0,1.4718935E-3,-0E0],"split_indices":[18,6,15,0,15,0,0,2,0,0,0],"split_type":[0,0,0,0,0,0,0,0,0,0,0],"sum_hessian":[1.574E3,8.52E2,7.22E2,1.99E2,6.53E2,2E2,5.22E2,3.85E2,2.68E2,3.14E2,7.1E1],"tree_param":{"num_deleted":"0","num_feature":"19","num_nodes":"11","size_leaf_vector":"1"}},{"base_weights":[-0E0,6.205315E-3,-9.911402E-3,-0E0,1.9079024E-2,-0E0,-1.3853746E-2,-0E0,2.1937437E-2,-0E0,-1.9784266E-2,1.4149345E-3,-0E0,-2.4006004E-3,-0E0],"categories":[],"categories_nodes":[],"categories_segments":[],"categories_sizes":[],"default_left":[0,0,0,0,0,0,0,0,0,0,0,0,0,0,0],"id":25,"left_children":[1,3,5,-1,7,-1,9,-1,11,-1,13,-1,-1,-1,-1],"loss_changes":[1.1918576E-1,1.0379909E-1,5.927068E-2,0E0,8.541256E-3,0E0,6.821264E-2,0E0,6.502077E-3,0E0,6.0425714E-2,0E0,0E0,0E0,0E0],"parents":[2147483647,0,0,1,1,2,2,4,4,6,6,8,8,10,10],"right_children":[2,4,6,-1,8,-1,10,-1,12,-1,14,-1,-1,-1,-1],"split_conditions":[4.736111E1,2.35E1,2.840921E1,-0E0,4E0,-0E0,5.779054E1,-0E0,1.8E1,-0E0,3.205425E1,1.4149345E-3,-0E0,-2.4006004E-3,-0E0],"split_indices":[16,13,14,0,6,0,16,0,2,0,14,0,0,0,0],"split_type":[0,0,0,0,0,0,0,0,0,0,0,0,0,0,0],"sum_hessian":[1.572E3,5.92E2,9.8E2,2.45E2,3.47E2,1.7E2,8.1E2,6.7E1,2.8E2,2.39E2,5.71E2,2.17E2,6.3E1,1.51E2,4.2E2],"tree_param":{"num_deleted":"0","num_feature":"19","num_nodes":"15","size_leaf_vector":"1"}},{"base_weights":[-0E0,5.3549637E-3,-5.7550436E-3,-0E0,7.955368E-4,-1.0846725E-2,-0E0,-0E0,-1.436498E-2,-0E0,-9.423133E-4],"categories":[],"categories_nodes":[],"categories_segments":[],"categories_sizes":[],"default_left":[0,0,0,0,0,0,0,0,0,0,0],"id":26,"left_children":[1,3,5,-1,-1,7,-1,-1,9,-1,-1],"loss_changes":[4.826732E-2,5.4142743E-2,5.7557054E-2,0E0,0E0,5.2868076E-2,0E0,0E0,3.2585308E-2,0E0,0E0],"parents":[2147483647,0,0,1,1,2,2,5,5,8,8],"right_children":[2,4,6,-1,-1,8,-1,-1,10,-1,-1],"split_conditions":[4.736111E1,2.35E1,2.608387E0,-0E0,7.955368E-4,1.805E1,-0E0,-0E0,3E0,-0E0,-9.423133E-4],"split_indices":[16,13,17,0,0,15,0,0,10,0,0],"split_type":[0,0,0,0,0,0,0,0,0,0,0],"sum_hessian":[1.533E3,5.76E2,9.57E2,2.33E2,3.43E2,7.58E2,1.99E2,7E1,6.88E2,8.3E1,6.05E2],"tree_param":{"num_deleted":"0","num_feature":"19","num_nodes":"11","size_leaf_vector":"1"}},{"base_weights":[-0E0,-1.1495083E-3,6.0361068E-5,-0E0,9.837878E-3,-0E0,-5.2060247E-3,1.0733734E-3,-0E0,-1.1691509E-2,-0E0,-1.6226329E-2,-0E0,-0E0,-1.1503764E-3],"categories":[],"categories_nodes":[],"categories_segments":[],"categories_sizes":[],"default_left":[0,0,0,0,0,0,0,0,0,0,0,0,0,0,0],"id":27,"left_children":[1,-1,3,5,7,-1,9,-1,-1,11,-1,13,-1,-1,-1],"loss_changes":[1.398603E-1,0E0,6.2408507E-2,1.3574948E-2,1.1753234E-1,0E0,3.4796137E-2,0E0,0E0,2.5317132E-2,0E0,1.0455996E-3,0E0,0E0,0E0],"parents":[2147483647,0,0,2,2,3,3,4,4,6,6,9,9,11,11],"right_children":[2,-1,4,6,8,-1,10,-1,-1,12,-1,14,-1,-1,-1],"split_conditions":[3E0,-1.1495083E-3,1.5192307E0,8.899371E-1,2.3E1,-0E0,5E0,1.0733734E-3,-0E0,4E0,-0E0,4.309E0,-0E0,-0E0,-1.1503764E-3],"split_indices":[5,0,17,17,2,0,7,0,0,1,0,12,0,0,0],"split_type":[0,0,0,0,0,0,0,0,0,0,0,0,0,0,0],"sum_hessian":[1.576E3,3.25E2,1.251E3,6.07E2,6.44E2,1.07E2,5E2,4.8E2,1.64E2,3.53E2,1.47E2,2.79E2,7.4E1,1.06E2,1.73E2],"tree_param":{"num_deleted":"0","num_feature":"19","num_nodes":"15","size_leaf_vector":"1"}},{"base_weights":[-0E0,-0E0,-9.429258E-3,-0E0,1.2312073E-2,-3.8143475E-2,-0E0,8.57494E-4,-0E0,-3.3195713E-3,-0E0],"categories":[],"categories_nodes":[],"categories_segments":[],"categories_sizes":[],"default_left":[0,0,0,0,0,0,0,0,0,0,0],"id":28,"left_children":[1,3,5,-1,7,9,-1,-1,-1,-1,-1],"loss_changes":[6.2848516E-2,4.5911312E-2,1.9739491E-1,0E0,7.3149577E-3,1.4885217E-2,0E0,0E0,0E0,0E0,0E0],"parents":[2147483647,0,0,1,1,2,2,4,4,5,5],"right_children":[2,4,6,-1,8,10,-1,-1,-1,-1,-1],"split_conditions":[6.6E0,5.1E0,3.1792568E1,-0E0,3.1038368E1,1.4822785E0,-0E0,8.57494E-4,-0E0,-3.3195713E-3,-0E0],"split_indices":[18,18,14,0,14,17,0,0,0,0,0],"split_type":[0,0,0,0,0,0,0,0,0,0,0],"sum_hessian":[1.543E3,8.37E2,7.06E2,5.35E2,3.02E2,1.78E2,5.28E2,2.22E2,8E1,7.6E1,1.02E2],"tree_param":{"num_deleted":"0","num_feature":"19","num_nodes":"11","size_leaf_vector":"1"}},{"base_weights":[-0E0,6.0089463E-3,-3.948737E-3,-0E0,1.6377026E-2,-9.2825096E-4,-0E0,1.105101E-3,-0E0],"categories":[],"categories_nodes":[],"categories_segments":[],"categories_sizes":[],"default_left":[0,0,0,0,0,0,0,0,0],"id":29,"left_children":[1,3,5,-1,7,-1,-1,-1,-1],"loss_changes":[3.6281943E-2,7.425662E-2,9.065953E-2,0E0,1.3582274E-2,0E0,0E0,0E0,0E0],"parents":[2147483647,0,0,1,1,2,2,4,4],"right_children":[2,4,6,-1,8,-1,-1,-1,-1],"split_conditions":[4.736111E1,2.35E1,1.49E0,-0E0,4E0,-9.2825096E-4,-0E0,1.105101E-3,-0E0],"split_indices":[16,13,17,0,4,0,0,0,0],"split_type":[0,0,0,0,0,0,0,0,0],"sum_hessian":[1.553E3,5.86E2,9.67E2,2.31E2,3.55E2,3.77E2,5.9E2,2.74E2,8.1E1],"tree_param":{"num_deleted":"0","num_feature":"19","num_nodes":"9","size_leaf_vector":"1"}},{"base_weights":[-0E0,-9.170697E-3,1.58638E-3,-7.882472E-4,-0E0,1.1695822E-2,-0E0,2.012979E-2,-0E0,2.6098875E-2,-0E0,-0E0,1.6748791E-3],"categories":[],"categories_nodes":[],"categories_segments":[],"categories_sizes":[],"default_left":[0,0,0,0,0,0,0,0,0,0,0,0,0],"id":30,"left_children":[1,3,5,-1,-1,7,-1,9,-1,11,-1,-1,-1],"loss_changes":[4.8566908E-2,4.6812255E-2,9.097406E-2,0E0,0E0,1.3088492E-1,0E0,9.766339E-2,0E0,4.861334E-2,0E0,0E0,0E0],"parents":[2147483647,0,0,1,1,2,2,5,5,7,7,9,9],"right_children":[2,4,6,-1,-1,8,-1,10,-1,12,-1,-1,-1],"split_conditions":[3E0,1.66E1,6.6E0,-7.882472E-4,-0E0,7.0775116E1,-0E0,4E0,-0E0,3E0,-0E0,-0E0,1.6748791E-3],"split_indices":[4,18,18,0,0,16,0,4,0,8,0,0,0],"split_type":[0,0,0,0,0,0,0,0,0,0,0,0,0],"sum_hessian":[1.568E3,5.46E2,1.022E3,4.59E2,8.7E1,6.83E2,3.39E2,5.53E2,1.3E2,4.72E2,8.1E1,6.6E1,4.06E2],"tree_param":{"num_deleted":"0","num_feature":"19","num_nodes":"13","size_leaf_vector":"1"}},{"base_weights":[-0E0,2.4385238E-3,-6.9468296E-3,-0E0,1.0809228E-2,-2.0209987E-2,-0E0,2.0406859E-2,-0E0,-1.913226E-3,-0E0,1.3325516E-3,-0E0],"categories":[],"categories_nodes":[],"categories_segments":[],"categories_sizes":[],"default_left":[0,0,0,0,0,0,0,0,0,0,0,0,0],"id":31,"left_children":[1,3,5,-1,7,9,-1,11,-1,-1,-1,-1,-1],"loss_changes":[3.918925E-2,7.279177E-2,7.943028E-2,0E0,9.1936864E-2,7.619038E-3,0E0,2.5009364E-2,0E0,0E0,0E0,0E0,0E0],"parents":[2147483647,0,0,1,1,2,2,4,4,5,5,7,7],"right_children":[2,4,6,-1,8,10,-1,12,-1,-1,-1,-1,-1],"split_conditions":[6.6E0,4E0,1.5192307E0,-0E0,2.7734694E1,2.2398039E1,-0E0,2.3E1,-0E0,-1.913226E-3,-0E0,1.3325516E-3,-0E0],"split_indices":[18,6,17,0,15,15,0,2,0,0,0,0,0],"split_type":[0,0,0,0,0,0,0,0,0,0,0,0,0],"sum_hessian":[1.566E3,8.61E2,7.05E2,1.95E2,6.66E2,2.77E2,4.28E2,4.07E2,2.59E2,1.01E2,1.76E2,3.37E2,7E1],"tree_param":{"num_deleted":"0","num_feature":"19","num_nodes":"13","size_leaf_vector":"1"}},{"base_weights":[-0E0,-1.1142801E-2,5.0159113E-4,-9.916488E-4,-0E0,7.875727E-3,-0E0,1.4917647E-2,-0E0,1.5051953E-3,-0E0],"categories":[],"categories_nodes":[],"categories_segments":[],"categories_sizes":[],"default_left":[0,0,0,0,0,0,0,0,0,0,0],"id":32,"left_children":[1,3,5,-1,-1,7,-1,9,-1,-1,-1],"loss_changes":[3.8661703E-2,1.1434134E-2,5.3395737E-2,0E0,0E0,5.4193854E-2,0E0,1.7015952E-1,0E0,0E0,0E0],"parents":[2147483647,0,0,1,1,2,2,5,5,7,7],"right_children":[2,4,6,-1,-1,8,-1,10,-1,-1,-1],"split_conditions":[3E0,3.205425E1,2.2E1,-9.916488E-4,-0E0,3.6422157E1,-0E0,5E0,-0E0,1.5051953E-3,-0E0],"split_indices":[5,14,2,0,0,14,0,8,0,0,0],"split_type":[0,0,0,0,0,0,0,0,0,0,0],"sum_hessian":[1.546E3,3.08E2,1.238E3,1.55E2,1.53E2,8.65E2,3.73E2,4.84E2,3.81E2,3.77E2,1.07E2],"tree_param":{"num_deleted":"0","num_feature":"19","num_nodes":"11","size_leaf_vector":"1"}},{"base_weights":[-0E0,4.2807427E-3,-8.626834E-3,-0E0,1.1538926E-2,-0E0,-1.2467717E-2,-0E0,1.3332063E-2,-0E0,-1.3564978E-3,9.3678164E-4,-0E0],"categories":[],"categories_nodes":[],"categories_segments":[],"categories_sizes":[],"default_left":[0,0,0,0,0,0,0,0,0,0,0,0,0],"id":33,"left_children":[1,3,5,-1,7,-1,9,-1,11,-1,-1,-1,-1],"loss_changes":[8.347127E-2,3.7129596E-2,6.266406E-2,0E0,4.5404434E-3,0E0,6.252968E-2,0E0,7.514827E-3,0E0,0E0,0E0,0E0],"parents":[2147483647,0,0,1,1,2,2,4,4,6,6,8,8],"right_children":[2,4,6,-1,8,-1,10,-1,12,-1,-1,-1,-1],"split_conditions":[4.736111E1,2.35E1,1.805E1,-0E0,4E0,-0E0,2.45E1,-0E0,4E0,-0E0,-1.3564978E-3,9.3678164E-4,-0E0],"split_indices":[16,13,15,0,6,0,13,0,4,0,0,0,0],"split_type":[0,0,0,0,0,0,0,0,0,0,0,0,0],"sum_hessian":[1.569E3,5.95E2,9.74E2,2.35E2,3.6E2,1.05E2,8.69E2,6.5E1,2.95E2,5.39E2,3.3E2,2.1E2,8.5E1],"tree_param":{"num_deleted":"0","num_feature":"19","num_nodes":"13","size_leaf_vector":"1"}},{"base_weights":[-0E0,-5.788795E-3,1.3640169E-3,-5.080976E-4,-0E0,8.459062E-3,-0E0,1.5396272E-2,-0E0,2.0672182E-2,-0E0,-0E0,1.3243806E-3],"categories":[],"categories_nodes":[],"categories_segments":[],"categories_sizes":[],"default_left":[0,0,0,0,0,0,0,0,0,0,0,0,0],"id":34,"left_children":[1,3,5,-1,-1,7,-1,9,-1,11,-1,-1,-1],"loss_changes":[2.0167395E-2,2.0351978E-2,4.72028E-2,0E0,0E0,8.292553E-2,0E0,6.96453E-2,0E0,2.6152387E-2,0E0,0E0,0E0],"parents":[2147483647,0,0,1,1,2,2,5,5,7,7,9,9],"right_children":[2,4,6,-1,-1,8,-1,10,-1,12,-1,-1,-1],"split_conditions":[3E0,1.66E1,6.6E0,-5.080976E-4,-0E0,7.0775116E1,-0E0,4E0,-0E0,4E0,-0E0,-0E0,1.3243806E-3],"split_indices":[4,18,18,0,0,16,0,4,0,6,0,0,0],"split_type":[0,0,0,0,0,0,0,0,0,0,0,0,0],"sum_hessian":[1.552E3,5.45E2,1.007E3,4.6E2,8.5E1,6.85E2,3.22E2,5.56E2,1.29E2,4.71E2,8.5E1,7.2E1,3.99E2],"tree_param":{"num_deleted":"0","num_feature":"19","num_nodes":"13","size_leaf_vector":"1"}},{"base_weights":[-0E0,3.332397E-3,-6.569404E-3,-0E0,1.1355097E-2,-0E0,-1.0026201E-3,1.3795747E-2,-0E0,-0E0,9.088583E-4],"categories":[],"categories_nodes":[],"categories_segments":[],"categories_sizes":[],"default_left":[0,0,0,0,0,0,0,0,0,0,0],"id":35,"left_children":[1,3,5,-1,7,-1,-1,9,-1,-1,-1],"loss_changes":[4.9195148E-2,3.9194863E-2,3.927576E-2,0E0,6.367404E-3,0E0,0E0,3.91395E-3,0E0,0E0,0E0],"parents":[2147483647,0,0,1,1,2,2,4,4,7,7],"right_children":[2,4,6,-1,8,-1,-1,10,-1,-1,-1],"split_conditions":[4.736111E1,2.35E1,4E0,-0E0,4E0,-0E0,-1.0026201E-3,3E0,-0E0,-0E0,9.088583E-4],"split_indices":[16,13,3,0,4,0,0,8,0,0,0],"split_type":[0,0,0,0,0,0,0,0,0,0,0],"sum_hessian":[1.577E3,5.9E2,9.87E2,2.36E2,3.54E2,7.37E2,2.5E2,2.73E2,8.1E1,6.5E1,2.08E2],"tree_param":{"num_deleted":"0","num_feature":"19","num_nodes":"11","size_leaf_vector":"1"}},{"base_weights":[-0E0,-9.246493E-3,-0E0,-1.8275449E-2,-0E0,-0E0,1.0353857E-2,-1.3112943E-3,-0E0,1.5471746E-2,-0E0,1.9877134E-2,-0E0,1.3355595E-3,-0E0],"categories":[],"categories_nodes":[],"categories_segments":[],"categories_sizes":[],"default_left":[0,0,0,0,0,0,0,0,0,0,0,0,0,0,0],"id":36,"left_children":[1,3,5,7,-1,-1,9,-1,-1,11,-1,13,-1,-1,-1],"loss_changes":[4.7696624E-2,6.347956E-2,4.308149E-2,7.7087954E-3,0E0,0E0,3.5641927E-2,0E0,0E0,1.0123119E-2,0E0,6.0911626E-3,0E0,0E0,0E0],"parents":[2147483647,0,0,1,1,2,2,3,3,6,6,9,9,11,11],"right_children":[2,4,6,8,-1,-1,10,-1,-1,12,-1,14,-1,-1,-1],"split_conditions":[3E0,2.696282E1,1.5192307E0,3.925568E1,-0E0,-0E0,2.3E1,-1.3112943E-3,-0E0,4E0,-0E0,6.6E0,-0E0,1.3355595E-3,-0E0],"split_indices":[4,15,17,14,0,0,2,0,0,4,0,18,0,0,0],"split_type":[0,0,0,0,0,0,0,0,0,0,0,0,0,0,0],"sum_hessian":[1.561E3,5.57E2,1.004E3,3.32E2,2.25E2,6.03E2,4.01E2,2.12E2,1.2E2,3.28E2,7.3E1,2.24E2,1.04E2,1.63E2,6.1E1],"tree_param":{"num_deleted":"0","num_feature":"19","num_nodes":"15","size_leaf_vector":"1"}},{"base_weights":[-0E0,-2.4202417E-3,7.304036E-4,-4.2409304E-4,-0E0,-0E0,1.3631344E-2,-0E0,-1.4380255E-3,2.218353E-2,-0E0,-0E0,-2.2372631E-4,1.6851375E-3,-0E0],"categories":[],"categories_nodes":[],"categories_segments":[],"categories_sizes":[],"default_left":[0,0,0,0,0,0,0,0,0,0,0,0,0,0,0],"id":37,"left_children":[1,3,5,-1,-1,7,9,-1,11,13,-1,-1,-1,-1,-1],"loss_changes":[3.6361516E-3,1.5137968E-2,7.578952E-2,0E0,0E0,5.808175E-4,5.0063066E-2,0E0,2.8961147E-3,2.8422073E-2,0E0,0E0,0E0,0E0,0E0],"parents":[2147483647,0,0,1,1,2,2,5,5,6,6,8,8,9,9],"right_children":[2,4,6,-1,-1,8,10,-1,12,14,-1,-1,-1,-1,-1],"split_conditions":[3E0,2.696282E1,1.5192307E0,-4.2409304E-4,-0E0,4E0,1.8E1,-0E0,4.304E0,4E0,-0E0,-0E0,-2.2372631E-4,1.6851375E-3,-0E0],"split_indices":[4,15,17,0,0,10,2,0,12,4,0,0,0,0,0],"split_type":[0,0,0,0,0,0,0,0,0,0,0,0,0,0,0],"sum_hessian":[1.566E3,5.25E2,1.041E3,3.11E2,2.14E2,6.31E2,4.1E2,3.51E2,2.8E2,2.56E2,1.54E2,6.7E1,2.13E2,1.67E2,8.9E1],"tree_param":{"num_deleted":"0","num_feature":"19","num_nodes":"15","size_leaf_vector":"1"}},{"base_weights":[-0E0,1.1379818E-3,-3.71064E-3,6.7173354E-3,-0E0,-1.3833287E-2,-0E0,-0E0,7.249704E-4,-1.1362288E-3,-0E0],"categories":[],"categories_nodes":[],"categories_segments":[],"categories_sizes":[],"default_left":[0,0,0,0,0,0,0,0,0,0,0],"id":38,"left_children":[1,3,5,7,-1,9,-1,-1,-1,-1,-1],"loss_changes":[1.42925205E-2,2.108775E-2,6.0676113E-2,3.2258548E-2,0E0,4.858277E-2,0E0,0E0,0E0,0E0,0E0],"parents":[2147483647,0,0,1,1,2,2,3,3,5,5],"right_children":[2,4,6,8,-1,10,-1,-1,-1,-1,-1],"split_conditions":[4.736111E1,2.9E1,1.49E0,2E0,-0E0,4E0,-0E0,-0E0,7.249704E-4,-1.1362288E-3,-0E0],"split_indices":[16,2,17,1,0,1,0,0,0,0,0],"split_type":[0,0,0,0,0,0,0,0,0,0,0],"sum_hessian":[1.558E3,5.75E2,9.83E2,4.83E2,9.2E1,3.87E2,5.96E2,1.67E2,3.16E2,2.92E2,9.5E1],"tree_param":{"num_deleted":"0","num_feature":"19","num_nodes":"11","size_leaf_vector":"1"}},{"base_weights":[-0E0,8.3926256E-4,-3.596847E-3,-0E0,7.014478E-3,-0E0,-1.1714434E-3,-0E0,4.5085928E-4],"categories":[],"categories_nodes":[],"categories_segments":[],"categories_sizes":[],"default_left":[0,0,0,0,0,0,0,0,0],"id":39,"left_children":[1,3,5,-1,7,-1,-1,-1,-1],"loss_changes":[1.2453773E-2,1.6472362E-2,9.129143E-2,0E0,1.9376781E-3,0E0,0E0,0E0,0E0],"parents":[2147483647,0,0,1,1,2,2,4,4],"right_children":[2,4,6,-1,8,-1,-1,-1,-1],"split_conditions":[4.736111E1,2.35E1,4E0,-0E0,4E0,-0E0,-1.1714434E-3,-0E0,4.5085928E-4],"split_indices":[16,13,3,0,6,0,0,0,0],"split_type":[0,0,0,0,0,0,0,0,0],"sum_hessian":[1.495E3,5.64E2,9.31E2,2.22E2,3.42E2,7E2,2.31E2,5.8E1,2.84E2],"tree_param":{"num_deleted":"0","num_feature":"19","num_nodes":"9","size_leaf_vector":"1"}},{"base_weights":[-0E0,4.8309555E-3,-6.281046E-3,9.827583E-3,-0E0,-2.1368934E-2,-0E0,-0E0,8.612283E-4,-0E0,-2.6352992E-2,-0E0,-1.7375374E-3],"categories":[],"categories_nodes":[],"categories_segments":[],"categories_sizes":[],"default_left":[0,0,0,0,0,0,0,0,0,0,0,0,0],"id":40,"left_children":[1,3,5,7,-1,9,-1,-1,-1,-1,11,-1,-1],"loss_changes":[5.1469266E-2,3.3333384E-2,1.4478725E-1,5.0032374E-2,0E0,4.9510956E-2,0E0,0E0,0E0,0E0,8.532643E-3,0E0,0E0],"parents":[2147483647,0,0,1,1,2,2,3,3,5,5,10,10],"right_children":[2,4,6,8,-1,10,-1,-1,-1,-1,12,-1,-1],"split_conditions":[4.736111E1,2.9E1,1.49E0,3E0,-0E0,3.2E0,-0E0,-0E0,8.612283E-4,-0E0,5.618543E1,-0E0,-1.7375374E-3],"split_indices":[16,2,17,8,0,18,0,0,0,0,16,0,0],"split_type":[0,0,0,0,0,0,0,0,0,0,0,0,0],"sum_hessian":[1.534E3,5.65E2,9.69E2,4.81E2,8.4E1,4E2,5.69E2,8.1E1,4E2,6.6E1,3.34E2,8.9E1,2.45E2],"tree_param":{"num_deleted":"0","num_feature":"19","num_nodes":"13","size_leaf_vector":"1"}},{"base_weights":[-6.501729E-5,-5.2453694E-3,-0E0,-2.3308702E-2,-0E0,-1.4430971E-3,-0E0],"categories":[],"categories_nodes":[],"categories_segments":[],"categories_sizes":[],"default_left":[0,0,0,0,0,0,0],"id":41,"left_children":[1,3,-1,5,-1,-1,-1],"loss_changes":[4.0297773E-2,1.6227475E-1,0E0,9.045899E-3,0E0,0E0,0E0],"parents":[2147483647,0,0,1,1,3,3],"right_children":[2,4,-1,6,-1,-1,-1],"split_conditions":[7.004E0,2.2398039E1,-0E0,4E0,-0E0,-1.4430971E-3,-0E0],"split_indices":[12,15,0,1,0,0,0],"split_type":[0,0,0,0,0,0,0],"sum_hessian":[1.545E3,1.464E3,8.1E1,3.72E2,1.092E3,3.12E2,6E1],"tree_param":{"num_deleted":"0","num_feature":"19","num_nodes":"7","size_leaf_vector":"1"}},{"base_weights":[-0E0,-0E0,-8.945664E-3,-0E0,6.081504E-3,-1.3749672E-3,-0E0,1.2574588E-2,-0E0,8.808568E-4,-0E0],"categories":[],"categories_nodes":[],"categories_segments":[],"categories_sizes":[],"default_left":[0,0,0,0,0,0,0,0,0,0,0],"id":42,"left_children":[1,3,5,-1,7,-1,-1,9,-1,-1,-1],"loss_changes":[5.672732E-2,2.3850344E-2,1.1819421E-1,0E0,2.8625146E-2,0E0,0E0,1.42751485E-2,0E0,0E0,0E0],"parents":[2147483647,0,0,1,1,2,2,4,4,7,7],"right_children":[2,4,6,-1,8,-1,-1,10,-1,-1,-1],"split_conditions":[6.6E0,4E0,1.5192307E0,-0E0,2.4312727E1,-1.3749672E-3,-0E0,2.3E1,-0E0,8.808568E-4,-0E0],"split_indices":[18,9,17,0,15,0,0,2,0,0,0],"split_type":[0,0,0,0,0,0,0,0,0,0,0],"sum_hessian":[1.552E3,8.44E2,7.08E2,2E2,6.44E2,2.84E2,4.24E2,3.31E2,3.13E2,2.64E2,6.7E1],"tree_param":{"num_deleted":"0","num_feature":"19","num_nodes":"11","size_leaf_vector":"1"}},{"base_weights":[-0E0,-0E0,-5.783494E-3,-0E0,8.318579E-3,-2.0200685E-2,-0E0,1.55858975E-2,-0E0,-0E0,-1.7234015E-3,1.0909113E-3,-0E0],"categories":[],"categories_nodes":[],"categories_segments":[],"categories_sizes":[],"default_left":[0,0,0,0,0,0,0,0,0,0,0,0,0],"id":43,"left_children":[1,3,5,-1,7,9,-1,11,-1,-1,-1,-1,-1],"loss_changes":[2.3610532E-2,4.5454632E-2,9.14118E-2,0E0,8.1318304E-2,6.814234E-2,0E0,4.7504723E-2,0E0,0E0,0E0,0E0,0E0],"parents":[2147483647,0,0,1,1,2,2,4,4,5,5,7,7],"right_children":[2,4,6,-1,8,10,-1,12,-1,-1,-1,-1,-1],"split_conditions":[6.6E0,4E0,1.5192307E0,-0E0,7.3157234E1,4.736111E1,-0E0,4E0,-0E0,-0E0,-1.7234015E-3,1.0909113E-3,-0E0],"split_indices":[18,6,17,0,16,16,0,4,0,0,0,0,0],"split_type":[0,0,0,0,0,0,0,0,0,0,0,0,0],"sum_hessian":[1.56E3,8.55E2,7.05E2,1.99E2,6.56E2,2.81E2,4.24E2,5.21E2,1.35E2,9.2E1,1.89E2,4.5E2,7.1E1],"tree_param":{"num_deleted":"0","num_feature":"19","num_nodes":"13","size_leaf_vector":"1"}},{"base_weights":[-0E0,-1.6201794E-3,-0E0,-6.733007E-3,-0E0,-0E0,7.1844743E-3,-5.110064E-4,-0E0,6.4943737E-4,-0E0],"categories":[],"categories_nodes":[],"categories_segments":[],"categories_sizes":[],"default_left":[0,0,0,0,0,0,0,0,0,0,0],"id":44,"left_children":[1,3,5,7,-1,-1,9,-1,-1,-1,-1],"loss_changes":[1.3777758E-3,1.8971054E-2,2.0846466E-2,4.744917E-3,0E0,0E0,2.4890115E-2,0E0,0E0,0E0,0E0],"parents":[2147483647,0,0,1,1,2,2,3,3,6,6],"right_children":[2,4,6,8,-1,-1,10,-1,-1,-1,-1],"split_conditions":[3E0,1.66E1,1.5192307E0,3E0,-0E0,-0E0,2.3E1,-5.110064E-4,-0E0,6.4943737E-4,-0E0],"split_indices":[4,18,17,5,0,0,2,0,0,0,0],"split_type":[0,0,0,0,0,0,0,0,0,0,0],"sum_hessian":[1.531E3,5.24E2,1.007E3,4.48E2,7.6E1,6.04E2,4.03E2,2.95E2,1.53E2,3.33E2,7E1],"tree_param":{"num_deleted":"0","num_feature":"19","num_nodes":"11","size_leaf_vector":"1"}},{"base_weights":[-0E0,-0E0,-2.5102794E-3,-0E0,6.7125116E-3,-0E0,-1.0176781E-3,-0E0,4.5361687E-4],"categories":[],"categories_nodes":[],"categories_segments":[],"categories_sizes":[],"default_left":[0,0,0,0,0,0,0,0,0],"id":45,"left_children":[1,3,5,-1,7,-1,-1,-1,-1],"loss_changes":[6.1809598E-3,1.5719354E-2,8.291656E-2,0E0,3.0520037E-3,0E0,0E0,0E0,0E0],"parents":[2147483647,0,0,1,1,2,2,4,4],"right_children":[2,4,6,-1,8,-1,-1,-1,-1],"split_conditions":[4.736111E1,2.35E1,4E0,-0E0,4E0,-0E0,-1.0176781E-3,-0E0,4.5361687E-4],"split_indices":[16,13,3,0,6,0,0,0,0],"split_type":[0,0,0,0,0,0,0,0,0],"sum_hessian":[1.557E3,5.77E2,9.8E2,2.29E2,3.48E2,7.16E2,2.64E2,6.8E1,2.8E2],"tree_param":{"num_deleted":"0","num_feature":"19","num_nodes":"9","size_leaf_vector":"1"}},{"base_weights":[-0E0,-1.2633172E-2,-0E0,-1.0060869E-3,-0E0,2.2759961E-3,-0E0,-0E0,4.3236633E-4,-3.08339E-4,-0E0],"categories":[],"categories_nodes":[],"categories_segments":[],"categories_sizes":[],"default_left":[0,0,0,0,0,0,0,0,0,0,0],"id":46,"left_children":[1,3,5,-1,-1,7,9,-1,-1,-1,-1],"loss_changes":[5.073123E-2,2.156973E-3,3.6099006E-3,0E0,0E0,2.552669E-2,5.8939573E-3,0E0,0E0,0E0,0E0],"parents":[2147483647,0,0,1,1,2,2,5,5,6,6],"right_children":[2,4,6,-1,-1,8,10,-1,-1,-1,-1],"split_conditions":[3E0,3.205425E1,5.4157658E1,-1.0060869E-3,-0E0,2.35E1,6.1683872E1,-0E0,4.3236633E-4,-3.08339E-4,-0E0],"split_indices":[5,14,16,0,0,13,16,0,0,0,0],"split_type":[0,0,0,0,0,0,0,0,0,0,0],"sum_hessian":[1.57E3,3.17E2,1.253E3,1.6E2,1.57E2,6.96E2,5.57E2,2.17E2,4.79E2,1.9E2,3.67E2],"tree_param":{"num_deleted":"0","num_feature":"19","num_nodes":"11","size_leaf_vector":"1"}},{"base_weights":[-2.5079594E-4,-0E0,-7.7641113E-3,-0E0,3.1058386E-3,-1.7705797E-3,-0E0,7.963122E-3,-0E0,1.0212597E-2,-0E0,6.645892E-4,-0E0],"categories":[],"categories_nodes":[],"categories_segments":[],"categories_sizes":[],"default_left":[0,0,0,0,0,0,0,0,0,0,0,0,0],"id":47,"left_children":[1,3,5,-1,7,-1,-1,9,-1,11,-1,-1,-1],"loss_changes":[4.2634197E-2,6.172342E-3,1.4245273E-1,0E0,2.2544786E-2,0E0,0E0,1.2153873E-2,0E0,6.8811513E-3,0E0,0E0,0E0],"parents":[2147483647,0,0,1,1,2,2,4,4,7,7,9,9],"right_children":[2,4,6,-1,8,-1,-1,10,-1,12,-1,-1,-1],"split_conditions":[6.6E0,4E0,3.1792568E1,-0E0,3.6689034E1,-1.7705797E-3,-0E0,2.7E1,-0E0,5E0,-0E0,6.645892E-4,-0E0],"split_indices":[18,6,14,0,14,0,0,2,0,8,0,0,0],"split_type":[0,0,0,0,0,0,0,0,0,0,0,0,0],"sum_hessian":[1.55E3,8.42E2,7.08E2,2.03E2,6.39E2,1.81E2,5.27E2,4.52E2,1.87E2,3.91E2,6.1E1,3.32E2,5.9E1],"tree_param":{"num_deleted":"0","num_feature":"19","num_nodes":"13","size_leaf_vector":"1"}},{"base_weights":[-0E0,1.7180835E-3,-3.1485702E-4,6.768044E-3,-0E0,-0E0,-3.3578186E-3,-0E0,6.827985E-4,-6.7638676E-3,-0E0,-0E0,-9.744941E-3,-0E0,-6.6611083E-4],"categories":[],"categories_nodes":[],"categories_segments":[],"categories_sizes":[],"default_left":[0,0,0,0,0,0,0,0,0,0,0,0,0,0,0],"id":48,"left_children":[1,3,5,7,-1,-1,9,-1,-1,11,-1,-1,13,-1,-1],"loss_changes":[1.8120573E-3,2.1365896E-2,8.966162E-3,4.049817E-2,0E0,0E0,2.0439178E-2,0E0,0E0,1.739711E-2,0E0,0E0,1.4617819E-2,0E0,0E0],"parents":[2147483647,0,0,1,1,2,2,3,3,6,6,9,9,12,12],"right_children":[2,4,6,8,-1,-1,10,-1,-1,12,-1,-1,14,-1,-1],"split_conditions":[4.736111E1,2.9E1,2.840921E1,3E0,-0E0,-0E0,4.2928204E1,-0E0,6.827985E-4,5.4157658E1,-0E0,-0E0,2E0,-0E0,-6.6611083E-4],"split_indices":[16,2,14,8,0,0,14,0,0,16,0,0,0,0,0],"split_type":[0,0,0,0,0,0,0,0,0,0,0,0,0,0,0],"sum_hessian":[1.562E3,5.8E2,9.82E2,5.03E2,7.7E1,1.79E2,8.03E2,8.4E1,4.19E2,6.44E2,1.59E2,1.51E2,4.93E2,6.7E1,4.26E2],"tree_param":{"num_deleted":"0","num_feature":"19","num_nodes":"15","size_leaf_vector":"1"}},{"base_weights":[-0E0,-0E0,-4.6922015E-3,-0E0,5.3128987E-3,-2.0207027E-2,-0E0,-0E0,7.1293446E-3,-2.3308203E-2,-0E0,-0E0,4.7745727E-4,5.094049E-4,-0E0,-0E0,-1.4891141E-3,2.6025609E-4,-0E0],"categories":[],"categories_nodes":[],"categories_segments":[],"categories_sizes":[],"default_left":[0,0,0,0,0,0,0,0,0,0,0,0,0,0,0,0,0,0,0],"id":49,"left_children":[1,3,5,-1,7,9,11,-1,13,15,-1,-1,17,-1,-1,-1,-1,-1,-1],"loss_changes":[2.1419456E-2,1.0045125E-2,1.373658E-1,0E0,4.7899513E-3,8.472398E-3,9.024485E-5,0E0,4.2018555E-3,4.6111643E-4,0E0,0E0,7.2987406E-3,0E0,0E0,0E0,0E0,0E0,0E0],"parents":[2147483647,0,0,1,1,2,2,4,4,5,5,6,6,8,8,9,9,12,12],"right_children":[2,4,6,-1,8,10,12,-1,14,16,-1,-1,18,-1,-1,-1,-1,-1,-1],"split_conditions":[4.736111E1,2.35E1,1.49E0,-0E0,4E0,2.6697435E1,3E0,-0E0,1.8E1,5.4157658E1,-0E0,-0E0,5E0,5.094049E-4,-0E0,-0E0,-1.4891141E-3,2.6025609E-4,-0E0],"split_indices":[16,13,17,0,6,15,11,0,2,16,0,0,8,0,0,0,0,0,0],"split_type":[0,0,0,0,0,0,0,0,0,0,0,0,0,0,0,0,0,0,0],"sum_hessian":[1.565E3,5.93E2,9.72E2,2.38E2,3.55E2,3.88E2,5.84E2,6.4E1,2.91E2,3.07E2,8.1E1,1.89E2,3.95E2,2.25E2,6.6E1,7.5E1,2.32E2,3.35E2,6E1],"tree_param":{"num_deleted":"0","num_feature":"19","num_nodes":"19","size_leaf_vector":"1"}},{"base_weights":[-0E0,-0E0,-7.691663E-3,4.559318E-3,-0E0,-0E0,-1.0524635E-3,-0E0,6.080456E-4],"categories":[],"categories_nodes":[],"categories_segments":[],"categories_sizes":[],"default_left":[0,0,0,0,0,0,0,0,0],"id":50,"left_children":[1,3,5,7,-1,-1,-1,-1,-1],"loss_changes":[5.791164E-2,1.0120767E-2,3.342342E-2,3.801716E-2,0E0,0E0,0E0,0E0,0E0],"parents":[2147483647,0,0,1,1,2,2,3,3],"right_children":[2,4,6,8,-1,-1,-1,-1,-1],"split_conditions":[4.736111E1,2.9E1,4E0,3E0,-0E0,-0E0,-1.0524635E-3,-0E0,6.080456E-4],"split_indices":[16,2,3,8,0,0,0,0,0],"split_type":[0,0,0,0,0,0,0,0,0],"sum_hessian":[1.551E3,5.73E2,9.78E2,4.86E2,8.7E1,7.25E2,2.53E2,8.6E1,4E2],"tree_param":{"num_deleted":"0","num_feature":"19","num_nodes":"9","size_leaf_vector":"1"}},{"base_weights":[-0E0,-0E0,-6.294816E-4,-0E0,3.0084563E-4,-0E0,-7.031364E-4],"categories":[],"categories_nodes":[],"categories_segments":[],"categories_sizes":[],"default_left":[0,0,0,0,0,0,0],"id":51,"left_children":[1,3,5,-1,-1,-1,-1],"loss_changes":[3.751948E-4,1.0725986E-2,3.6697898E-2,0E0,0E0,0E0,0E0],"parents":[2147483647,0,0,1,1,2,2],"right_children":[2,4,6,-1,-1,-1,-1],"split_conditions":[4.736111E1,2.35E1,4E0,-0E0,3.0084563E-4,-0E0,-7.031364E-4],"split_indices":[16,13,3,0,0,0,0],"split_type":[0,0,0,0,0,0,0],"sum_hessian":[1.55E3,6.04E2,9.46E2,2.4E2,3.64E2,7.16E2,2.3E2],"tree_param":{"num_deleted":"0","num_feature":"19","num_nodes":"7","size_leaf_vector":"1"}},{"base_weights":[-0E0,1.9164398E-4,-5.361117E-5,4.9177385E-3,-0E0,-6.1043206E-4,-0E0,-0E0,8.323022E-3,-0E0,2.2563587E-3,5.9554866E-4,-0E0,3.1211053E-4,-0E0],"categories":[],"categories_nodes":[],"categories_segments":[],"categories_sizes":[],"default_left":[0,0,0,0,0,0,0,0,0,0,0,0,0,0,0],"id":52,"left_children":[1,3,5,7,-1,-1,9,-1,11,-1,13,-1,-1,-1,-1],"loss_changes":[2.4155295E-5,1.1995028E-2,4.7182444E-2,1.6237907E-2,0E0,0E0,2.0001659E-3,0E0,3.410278E-3,0E0,8.5632885E-3,0E0,0E0,0E0,0E0],"parents":[2147483647,0,0,1,1,2,2,3,3,6,6,8,8,10,10],"right_children":[2,4,6,8,-1,-1,10,-1,12,-1,14,-1,-1,-1,-1],"split_conditions":[4.736111E1,2.9E1,1.49E0,3E0,-0E0,-6.1043206E-4,3E0,-0E0,2.7734694E1,-0E0,5E0,5.9554866E-4,-0E0,3.1211053E-4,-0E0],"split_indices":[16,2,17,8,0,0,11,0,15,0,8,0,0,0,0],"split_type":[0,0,0,0,0,0,0,0,0,0,0,0,0,0,0],"sum_hessian":[1.549E3,5.81E2,9.68E2,4.96E2,8.5E1,3.89E2,5.79E2,8.9E1,4.07E2,1.87E2,3.92E2,2.74E2,1.33E2,3.33E2,5.9E1],"tree_param":{"num_deleted":"0","num_feature":"19","num_nodes":"15","size_leaf_vector":"1"}},{"base_weights":[-2.0667998E-4,-0E0,-8.2888E-3,-0E0,1.5873488E-4,-1.901466E-2,-0E0,-0E0,-2.3763357E-2,-0E0,-2.1169935E-3],"categories":[],"categories_nodes":[],"categories_segments":[],"categories_sizes":[],"default_left":[0,0,0,0,0,0,0,0,0,0,0],"id":53,"left_children":[1,3,5,-1,-1,7,-1,-1,9,-1,-1],"loss_changes":[6.636166E-2,2.9532977E-3,7.814811E-2,0E0,0E0,4.565376E-2,0E0,0E0,4.8304588E-2,0E0,0E0],"parents":[2147483647,0,0,1,1,2,2,5,5,8,8],"right_children":[2,4,6,-1,-1,8,-1,-1,10,-1,-1],"split_conditions":[4.736111E1,2.35E1,1.49E0,-0E0,1.5873488E-4,3.2E0,-0E0,-0E0,4E0,-0E0,-2.1169935E-3],"split_indices":[16,13,17,0,0,18,0,0,10,0,0],"split_type":[0,0,0,0,0,0,0,0,0,0,0],"sum_hessian":[1.554E3,5.88E2,9.66E2,2.28E2,3.6E2,3.99E2,5.67E2,6.3E1,3.36E2,1.73E2,1.63E2],"tree_param":{"num_deleted":"0","num_feature":"19","num_nodes":"11","size_leaf_vector":"1"}},{"base_weights":[-0E0,1.313907E-3,-4.868714E-3,-0E0,1.0539151E-2,-1.8137358E-2,-0E0,9.265144E-4,-0E0,-0E0,-1.7106244E-3],"categories":[],"categories_nodes":[],"categories_segments":[],"categories_sizes":[],"default_left":[0,0,0,0,0,0,0,0,0,0,0],"id":54,"left_children":[1,3,5,-1,7,9,-1,-1,-1,-1,-1],"loss_changes":[1.8370047E-2,7.017999E-2,7.58034E-2,0E0,5.7426833E-2,8.583273E-2,0E0,0E0,0E0,0E0,0E0],"parents":[2147483647,0,0,1,1,2,2,4,4,5,5],"right_children":[2,4,6,-1,8,10,-1,-1,-1,-1,-1],"split_conditions":[6.6E0,4E0,1.5192307E0,-0E0,3.6689034E1,4.736111E1,-0E0,9.265144E-4,-0E0,-0E0,-1.7106244E-3],"split_indices":[18,6,17,0,14,16,0,0,0,0,0],"split_type":[0,0,0,0,0,0,0,0,0,0,0],"sum_hessian":[1.551E3,8.38E2,7.13E2,1.94E2,6.44E2,2.81E2,4.32E2,4.62E2,1.82E2,9.4E1,1.87E2],"tree_param":{"num_deleted":"0","num_feature":"19","num_nodes":"11","size_leaf_vector":"1"}},{"base_weights":[-0E0,2.6385573E-4,-2.14106E-3,4.2243223E-3,-0E0,-1.1666312E-2,-0E0,-0E0,9.933757E-3,-0E0,-1.5760135E-2,1.0712951E-3,-0E0,-0E0,-1.0759487E-3],"categories":[],"categories_nodes":[],"categories_segments":[],"categories_sizes":[],"default_left":[0,0,0,0,0,0,0,0,0,0,0,0,0,0,0],"id":55,"left_children":[1,3,5,7,-1,9,-1,-1,11,-1,13,-1,-1,-1,-1],"loss_changes":[4.389498E-3,8.719795E-3,4.8984963E-2,3.0995551E-2,0E0,2.7357277E-2,0E0,0E0,4.4067673E-2,0E0,9.876683E-3,0E0,0E0,0E0,0E0],"parents":[2147483647,0,0,1,1,2,2,3,3,5,5,8,8,10,10],"right_children":[2,4,6,8,-1,10,-1,-1,12,-1,14,-1,-1,-1,-1],"split_conditions":[4.736111E1,2.9E1,1.49E0,3E0,-0E0,3.2E0,-0E0,-0E0,2.7431677E1,-0E0,5.618543E1,1.0712951E-3,-0E0,-0E0,-1.0759487E-3],"split_indices":[16,2,17,8,0,18,0,0,15,0,16,0,0,0,0],"split_type":[0,0,0,0,0,0,0,0,0,0,0,0,0,0,0],"sum_hessian":[1.518E3,5.7E2,9.48E2,4.9E2,8E1,3.91E2,5.57E2,8.8E1,4.02E2,6.7E1,3.24E2,2.24E2,1.78E2,8.4E1,2.4E2],"tree_param":{"num_deleted":"0","num_feature":"19","num_nodes":"15","size_leaf_vector":"1"}},{"base_weights":[-0E0,-1.2879742E-3,-0E0,-0E0,-1.3116231E-2,-0E0,8.450838E-3,-0E0,-1.4916533E-2,6.764077E-4,-0E0,-2.0025358E-2,-0E0,-0E0,-1.4292178E-3],"categories":[],"categories_nodes":[],"categories_segments":[],"categories_sizes":[],"default_left":[0,0,0,0,0,0,0,0,0,0,0,0,0,0,0],"id":56,"left_children":[1,3,5,-1,7,-1,9,-1,11,-1,-1,13,-1,-1,-1],"loss_changes":[1.2157428E-3,6.706013E-2,2.9557269E-2,0E0,3.1188205E-3,0E0,2.035416E-2,0E0,1.0761552E-2,0E0,0E0,4.6698228E-3,0E0,0E0,0E0],"parents":[2147483647,0,0,1,1,2,2,4,4,6,6,8,8,11,11],"right_children":[2,4,6,-1,8,-1,10,-1,12,-1,-1,14,-1,-1,-1],"split_conditions":[1.5192307E0,4.736111E1,4E0,-0E0,3.6E0,-0E0,2.3E1,-0E0,1.3369697E0,6.764077E-4,-0E0,5.4157658E1,-0E0,-0E0,-1.4292178E-3],"split_indices":[17,16,6,0,18,0,2,0,17,0,0,16,0,0,0],"split_type":[0,0,0,0,0,0,0,0,0,0,0,0,0,0,0],"sum_hessian":[1.548E3,7.32E2,8.16E2,3.36E2,3.96E2,4.03E2,4.13E2,7.6E1,3.2E2,3.35E2,7.8E1,2.04E2,1.16E2,7.4E1,1.3E2],"tree_param":{"num_deleted":"0","num_feature":"19","num_nodes":"15","size_leaf_vector":"1"}},{"base_weights":[-0E0,-1.5813379E-3,-0E0,-1.4737503E-2,-0E0,-1.9907845E-2,-0E0,-0E0,-1.6775574E-3],"categories":[],"categories_nodes":[],"categories_segments":[],"categories_sizes":[],"default_left":[0,0,0,0,0,0,0,0,0],"id":57,"left_children":[1,3,-1,5,-1,7,-1,-1,-1],"loss_changes":[3.6630991E-3,7.645341E-2,0E0,2.01018E-2,0E0,6.96751E-2,0E0,0E0,0E0],"parents":[2147483647,0,0,1,1,3,3,5,5],"right_children":[2,4,-1,6,-1,8,-1,-1,-1],"split_conditions":[7.004E0,2.2398039E1,-0E0,3.0238411E0,-0E0,3E0,-0E0,-0E0,-1.6775574E-3],"split_indices":[12,15,0,17,0,10,0,0,0],"split_type":[0,0,0,0,0,0,0,0,0],"sum_hessian":[1.543E3,1.464E3,7.9E1,3.68E2,1.096E3,2.52E2,1.16E2,6.7E1,1.85E2],"tree_param":{"num_deleted":"0","num_feature":"19","num_nodes":"9","size_leaf_vector":"1"}},{"base_weights":[-0E0,-0E0,-2.2761934E-3,-0E0,3.2010176E-3,-0E0,-9.028426E-3,1.0325E-2,-0E0,-0E0,-1.28454855E-2,6.728083E-4,-0E0,-8.708001E-4,-0E0],"categories":[],"categories_nodes":[],"categories_segments":[],"categories_sizes":[],"default_left":[0,0,0,0,0,0,0,0,0,0,0,0,0,0,0],"id":58,"left_children":[1,3,5,-1,7,-1,9,11,-1,-1,13,-1,-1,-1,-1],"loss_changes":[3.6157074E-3,6.925319E-3,2.73485E-2,0E0,2.8240755E-2,0E0,2.0001475E-2,3.4827068E-3,0E0,0E0,2.4475232E-3,0E0,0E0,0E0,0E0],"parents":[2147483647,0,0,1,1,2,2,4,4,6,6,7,7,10,10],"right_children":[2,4,6,-1,8,-1,10,12,-1,-1,14,-1,-1,-1,-1],"split_conditions":[6.6E0,3E0,5.779054E1,-0E0,2.4312727E1,-0E0,3E0,2.3E1,-0E0,-0E0,2.300926E0,6.728083E-4,-0E0,-8.708001E-4,-0E0],"split_indices":[18,4,16,0,15,0,8,2,0,0,17,0,0,0,0],"split_type":[0,0,0,0,0,0,0,0,0,0,0,0,0,0,0],"sum_hessian":[1.537E3,8.4E2,6.97E2,1.65E2,6.75E2,3.18E2,3.79E2,3.29E2,3.46E2,7.1E1,3.08E2,2.62E2,6.7E1,2.16E2,9.2E1],"tree_param":{"num_deleted":"0","num_feature":"19","num_nodes":"15","size_leaf_vector":"1"}},{"base_weights":[-0E0,-0E0,-3.3490832E-3,-0E0,1.90158E-3,-1.9285813E-2,-0E0,9.327866E-3,-0E0,-0E0,-1.6893309E-3,-0E0,1.1711662E-2,7.537675E-4,-0E0],"categories":[],"categories_nodes":[],"categories_segments":[],"categories_sizes":[],"default_left":[0,0,0,0,0,0,0,0,0,0,0,0,0,0,0],"id":59,"left_children":[1,3,5,-1,7,9,-1,11,-1,-1,-1,-1,13,-1,-1],"loss_changes":[8.018247E-3,2.360785E-3,5.813946E-2,0E0,3.800019E-2,4.4952348E-2,0E0,1.5172325E-2,0E0,0E0,0E0,0E0,7.923886E-3,0E0,0E0],"parents":[2147483647,0,0,1,1,2,2,4,4,5,5,7,7,12,12],"right_children":[2,4,6,-1,8,10,-1,12,-1,-1,-1,-1,14,-1,-1],"split_conditions":[6.6E0,4E0,3.1792568E1,-0E0,3.6689034E1,4E0,-0E0,2E0,-0E0,-0E0,-1.6893309E-3,-0E0,2.6E1,7.537675E-4,-0E0],"split_indices":[18,6,14,0,14,10,0,0,0,0,0,0,2,0,0],"split_type":[0,0,0,0,0,0,0,0,0,0,0,0,0,0,0],"sum_hessian":[1.563E3,8.49E2,7.14E2,1.97E2,6.52E2,1.77E2,5.37E2,4.63E2,1.89E2,5.8E1,1.19E2,5.9E1,4.04E2,3.43E2,6.1E1],"tree_param":{"num_deleted":"0","num_feature":"19","num_nodes":"15","size_leaf_vector":"1"}},{"base_weights":[-0E0],"categories":[],"categories_nodes":[],"categories_segments":[],"categories_sizes":[],"default_left":[0],"id":60,"left_children":[-1],"loss_changes":[0E0],"parents":[2147483647],"right_children":[-1],"split_conditions":[-0E0],"split_indices":[0],"split_type":[0],"sum_hessian":[1.576E3],"tree_param":{"num_deleted":"0","num_feature":"19","num_nodes":"1","size_leaf_vector":"1"}},{"base_weights":[-0E0,-5.6591136E-3,-0E0,-6.5754866E-4,-0E0,-0E0,7.1097203E-3,1.0646137E-2,-0E0,7.4475136E-4,-0E0],"categories":[],"categories_nodes":[],"categories_segments":[],"categories_sizes":[],"default_left":[0,0,0,0,0,0,0,0,0,0,0],"id":61,"left_children":[1,3,5,-1,-1,-1,7,9,-1,-1,-1],"loss_changes":[1.7353717E-2,3.0094203E-2,2.1577515E-2,0E0,0E0,0E0,1.8190265E-2,1.102902E-3,0E0,0E0,0E0],"parents":[2147483647,0,0,1,1,2,2,6,6,7,7],"right_children":[2,4,6,-1,-1,-1,8,10,-1,-1,-1],"split_conditions":[3E0,2.696282E1,1.5192307E0,-6.5754866E-4,-0E0,-0E0,1.19E1,4E0,-0E0,7.4475136E-4,-0E0],"split_indices":[4,15,17,0,0,0,18,4,0,0,0],"split_type":[0,0,0,0,0,0,0,0,0,0,0],"sum_hessian":[1.553E3,5.41E2,1.012E3,3.37E2,2.04E2,5.86E2,4.26E2,3.5E2,7.6E1,2.26E2,1.24E2],"tree_param":{"num_deleted":"0","num_feature":"19","num_nodes":"11","size_leaf_vector":"1"}},{"base_weights":[-0E0,1.077936E-4,-2.8581752E-3,-0E0,6.7809797E-3,-1.6127141E-2,-0E0,1.2237816E-2,-0E0,-1.4726651E-3,-0E0,1.8163472E-2,-0E0,1.1142318E-3,-0E0],"categories":[],"categories_nodes":[],"categories_segments":[],"categories_sizes":[],"default_left":[0,0,0,0,0,0,0,0,0,0,0,0,0,0,0],"id":62,"left_children":[1,3,5,-1,7,9,-1,11,-1,-1,-1,13,-1,-1,-1],"loss_changes":[5.8090664E-3,3.0791773E-2,4.254308E-2,0E0,4.9751967E-2,7.2143413E-3,0E0,7.050319E-2,0E0,0E0,0E0,5.0856173E-4,0E0,0E0,0E0],"parents":[2147483647,0,0,1,1,2,2,4,4,5,5,7,7,11,11],"right_children":[2,4,6,-1,8,10,-1,12,-1,-1,-1,14,-1,-1,-1],"split_conditions":[6.6E0,4E0,3.1792568E1,-0E0,7.3157234E1,1.4822785E0,-0E0,4E0,-0E0,-1.4726651E-3,-0E0,5E0,-0E0,1.1142318E-3,-0E0],"split_indices":[18,6,14,0,16,17,0,4,0,0,0,7,0,0,0],"split_type":[0,0,0,0,0,0,0,0,0,0,0,0,0,0,0],"sum_hessian":[1.57E3,8.61E2,7.09E2,1.92E2,6.69E2,1.85E2,5.24E2,5.37E2,1.32E2,7.8E1,1.07E2,4.57E2,8E1,3.75E2,8.2E1],"tree_param":{"num_deleted":"0","num_feature":"19","num_nodes":"15","size_leaf_vector":"1"}},{"base_weights":[-0E0,-2.2677123E-3,-0E0,-7.185032E-3,-0E0,5.740328E-3,-0E0,-6.5864826E-4,-0E0,1.2529124E-2,-0E0,8.786092E-4,-0E0],"categories":[],"categories_nodes":[],"categories_segments":[],"categories_sizes":[],"default_left":[0,0,0,0,0,0,0,0,0,0,0,0,0],"id":63,"left_children":[1,3,5,7,-1,9,-1,-1,-1,11,-1,-1,-1],"loss_changes":[2.7608683E-3,2.1289561E-2,1.3604655E-2,1.721571E-2,0E0,3.550946E-2,0E0,0E0,0E0,8.520842E-3,0E0,0E0,0E0],"parents":[2147483647,0,0,1,1,2,2,3,3,5,5,9,9],"right_children":[2,4,6,8,-1,10,-1,-1,-1,12,-1,-1,-1],"split_conditions":[3E0,4.2928204E1,1.5E1,2.696282E1,-0E0,7.0775116E1,-0E0,-6.5864826E-4,-0E0,2.7734694E1,-0E0,8.786092E-4,-0E0],"split_indices":[4,14,2,15,0,16,0,0,0,15,0,0,0],"split_type":[0,0,0,0,0,0,0,0,0,0,0,0,0],"sum_hessian":[1.538E3,5.36E2,1.002E3,4.65E2,7.1E1,4.12E2,5.9E2,2.92E2,1.73E2,3.12E2,1E2,2.29E2,8.3E1],"tree_param":{"num_deleted":"0","num_feature":"19","num_nodes":"13","size_leaf_vector":"1"}},{"base_weights":[-0E0,-1.5910381E-3,8.6759514E-4,-6.883561E-3,-0E0,6.8397904E-3,-0E0,-6.3041336E-4,-0E0,6.1078096E-4,-0E0],"categories":[],"categories_nodes":[],"categories_segments":[],"categories_sizes":[],"default_left":[0,0,0,0,0,0,0,0,0,0,0],"id":64,"left_children":[1,3,5,7,-1,9,-1,-1,-1,-1,-1],"loss_changes":[2.1333494E-3,1.4448244E-2,1.8506784E-2,1.1141261E-2,0E0,1.8398607E-2,0E0,0E0,0E0,0E0,0E0],"parents":[2147483647,0,0,1,1,2,2,3,3,5,5],"right_children":[2,4,6,8,-1,10,-1,-1,-1,-1,-1],"split_conditions":[3E0,2.696282E1,4E0,3.925568E1,-0E0,4E0,-0E0,-6.3041336E-4,-0E0,6.1078096E-4,-0E0],"split_indices":[4,15,10,14,0,0,0,0,0,0,0],"split_type":[0,0,0,0,0,0,0,0,0,0,0],"sum_hessian":[1.552E3,5.41E2,1.011E3,3.33E2,2.08E2,4.11E2,6E2,2.08E2,1.25E2,3.1E2,1.01E2],"tree_param":{"num_deleted":"0","num_feature":"19","num_nodes":"11","size_leaf_vector":"1"}},{"base_weights":[-0E0,-0E0,-4.3842246E-4,-0E0,5.983404E-3,-0E0,-7.250059E-3,1.19141685E-2,-0E0,-8.1413495E-4,-0E0,9.0186927E-4,-0E0],"categories":[],"categories_nodes":[],"categories_segments":[],"categories_sizes":[],"default_left":[0,0,0,0,0,0,0,0,0,0,0,0,0],"id":65,"left_children":[1,3,5,-1,7,-1,9,11,-1,-1,-1,-1,-1],"loss_changes":[1.3452514E-4,2.391052E-2,2.0831458E-2,0E0,5.2864686E-2,0E0,1.0437058E-2,4.392036E-2,0E0,0E0,0E0,0E0,0E0],"parents":[2147483647,0,0,1,1,2,2,4,4,6,6,7,7],"right_children":[2,4,6,-1,8,-1,10,12,-1,-1,-1,-1,-1],"split_conditions":[6.6E0,4E0,5.779054E1,-0E0,7.3157234E1,-0E0,4E0,4E0,-0E0,-8.1413495E-4,-0E0,9.0186927E-4,-0E0],"split_indices":[18,6,16,0,16,0,7,4,0,0,0,0,0],"split_type":[0,0,0,0,0,0,0,0,0,0,0,0,0],"sum_hessian":[1.553E3,8.54E2,6.99E2,1.87E2,6.67E2,3.01E2,3.98E2,5.4E2,1.27E2,1.45E2,2.53E2,4.56E2,8.4E1],"tree_param":{"num_deleted":"0","num_feature":"19","num_nodes":"13","size_leaf_vector":"1"}},{"base_weights":[-0E0,-0E0,-9.804154E-4,-0E0,3.6211843E-3,-1.4110731E-2,-0E0,1.0492351E-2,-0E0,-0E0,-1.1071751E-3,1.2668697E-2,-0E0,1.4311757E-2,-0E0,1.0197113E-3,-0E0],"categories":[],"categories_nodes":[],"categories_segments":[],"categories_sizes":[],"default_left":[0,0,0,0,0,0,0,0,0,0,0,0,0,0,0,0,0],"id":66,"left_children":[1,3,5,-1,7,9,-1,11,-1,-1,-1,13,-1,15,-1,-1,-1],"loss_changes":[6.8137667E-4,8.731547E-3,3.55314E-2,0E0,4.3766875E-2,1.2707826E-2,0E0,1.4728613E-2,0E0,0E0,0E0,5.0502047E-3,0E0,8.395746E-3,0E0,0E0,0E0],"parents":[2147483647,0,0,1,1,2,2,4,4,5,5,7,7,11,11,13,13],"right_children":[2,4,6,-1,8,10,-1,12,-1,-1,-1,14,-1,16,-1,-1,-1],"split_conditions":[6.6E0,4E0,3.1792568E1,-0E0,3.6689034E1,4E0,-0E0,2.7E1,-0E0,-0E0,-1.1071751E-3,5E0,-0E0,2.4312727E1,-0E0,1.0197113E-3,-0E0],"split_indices":[18,6,14,0,14,10,0,2,0,0,0,7,0,15,0,0,0],"split_type":[0,0,0,0,0,0,0,0,0,0,0,0,0,0,0,0,0],"sum_hessian":[1.571E3,8.63E2,7.08E2,1.98E2,6.65E2,1.81E2,5.27E2,4.76E2,1.89E2,5.9E1,1.22E2,4.18E2,5.8E1,3.52E2,6.6E1,2.38E2,1.14E2],"tree_param":{"num_deleted":"0","num_feature":"19","num_nodes":"17","size_leaf_vector":"1"}},{"base_weights":[-0E0,-0E0,-7.837185E-4,-0E0,1.0529534E-2,-4.9943766E-3,-0E0,9.935629E-4,-0E0,-0E0,-9.346967E-3,-0E0,-1.15425885E-2,-8.3265256E-4,-0E0],"categories":[],"categories_nodes":[],"categories_segments":[],"categories_sizes":[],"default_left":[0,0,0,0,0,0,0,0,0,0,0,0,0,0,0],"id":67,"left_children":[1,3,5,-1,7,9,-1,-1,-1,-1,11,-1,13,-1,-1],"loss_changes":[6.0492207E-4,4.5553688E-2,1.4482851E-2,0E0,5.3158294E-2,2.7535435E-2,0E0,0E0,0E0,0E0,5.0563924E-3,0E0,9.713333E-3,0E0,0E0],"parents":[2147483647,0,0,1,1,2,2,4,4,5,5,10,10,12,12],"right_children":[2,4,6,-1,8,10,-1,-1,-1,-1,12,-1,14,-1,-1],"split_conditions":[1.5E1,4E0,2.696282E1,-0E0,7.0775116E1,3E0,-0E0,9.935629E-4,-0E0,-0E0,4.736111E1,-0E0,6.003E0,-8.3265256E-4,-0E0],"split_indices":[2,6,15,0,16,10,0,0,0,0,16,0,12,0,0],"split_type":[0,0,0,0,0,0,0,0,0,0,0,0,0,0,0],"sum_hessian":[1.563E3,5.79E2,9.84E2,1.69E2,4.1E2,6.04E2,3.8E2,3.07E2,1.03E2,1.17E2,4.87E2,1.3E2,3.57E2,2.54E2,1.03E2],"tree_param":{"num_deleted":"0","num_feature":"19","num_nodes":"15","size_leaf_vector":"1"}},{"base_weights":[-0E0,-2.3289996E-3,-0E0,-6.8369396E-3,-0E0,-0E0,6.0683475E-3,-7.4995065E-4,-0E0,8.198916E-3,-0E0,6.2277797E-4,-0E0],"categories":[],"categories_nodes":[],"categories_segments":[],"categories_sizes":[],"default_left":[0,0,0,0,0,0,0,0,0,0,0,0,0],"id":68,"left_children":[1,3,5,7,-1,-1,9,-1,-1,11,-1,-1,-1],"loss_changes":[2.9609334E-3,1.8114453E-2,1.4909302E-2,3.3703122E-2,0E0,0E0,7.3997853E-3,0E0,0E0,6.7743734E-3,0E0,0E0,0E0],"parents":[2147483647,0,0,1,1,2,2,3,3,6,6,9,9],"right_children":[2,4,6,8,-1,-1,10,-1,-1,12,-1,-1,-1],"split_conditions":[3E0,1.62E1,1.5192307E0,2.696282E1,-0E0,-0E0,2.3E1,-7.4995065E-4,-0E0,4E0,-0E0,6.2277797E-4,-0E0],"split_indices":[4,18,17,15,0,0,2,0,0,4,0,0,0],"split_type":[0,0,0,0,0,0,0,0,0,0,0,0,0],"sum_hessian":[1.55E3,5.45E2,1.005E3,4.5E2,9.5E1,6.01E2,4.04E2,2.99E2,1.51E2,3.31E2,7.3E1,2.3E2,1.01E2],"tree_param":{"num_deleted":"0","num_feature":"19","num_nodes":"13","size_leaf_vector":"1"}},{"base_weights":[-0E0,-4.8521263E-4,-0E0,-1.0858007E-2,-0E0,-1.3636515E-2,-0E0,-1.8010812E-2,-0E0,-0E0,-1.8848896E-3],"categories":[],"categories_nodes":[],"categories_segments":[],"categories_sizes":[],"default_left":[0,0,0,0,0,0,0,0,0,0,0],"id":69,"left_children":[1,3,-1,5,-1,7,-1,9,-1,-1,-1],"loss_changes":[3.4817247E-4,4.337612E-2,0E0,1.203803E-2,0E0,6.154105E-3,0E0,7.409914E-2,0E0,0E0,0E0],"parents":[2147483647,0,0,1,1,3,3,5,5,7,7],"right_children":[2,4,-1,6,-1,8,-1,10,-1,-1,-1],"split_conditions":[7.004E0,2.2398039E1,-0E0,4E0,-0E0,3.0238411E0,-0E0,3E0,-0E0,-0E0,-1.8848896E-3],"split_indices":[12,15,0,1,0,17,0,10,0,0,0],"split_type":[0,0,0,0,0,0,0,0,0,0,0],"sum_hessian":[1.562E3,1.478E3,8.4E1,3.7E2,1.108E3,2.99E2,7.1E1,1.9E2,1.09E2,7.3E1,1.17E2],"tree_param":{"num_deleted":"0","num_feature":"19","num_nodes":"11","size_leaf_vector":"1"}},{"base_weights":[-0E0,-0E0,-4.6629537E-4,-0E0,1.6073357E-4,-1.0572338E-3,-0E0,4.446823E-3,-0E0,2.9519267E-4,-0E0],"categories":[],"categories_nodes":[],"categories_segments":[],"categories_sizes":[],"default_left":[0,0,0,0,0,0,0,0,0,0,0],"id":70,"left_children":[1,3,5,-1,7,-1,-1,9,-1,-1,-1],"loss_changes":[1.5391331E-4,1.6944607E-5,6.2241808E-2,0E0,9.116197E-3,0E0,0E0,2.2690315E-3,0E0,0E0,0E0],"parents":[2147483647,0,0,1,1,2,2,4,4,7,7],"right_children":[2,4,6,-1,8,-1,-1,10,-1,-1,-1],"split_conditions":[6.6E0,4E0,3.1792568E1,-0E0,3.6689034E1,-1.0572338E-3,-0E0,2.7E1,-0E0,2.9519267E-4,-0E0],"split_indices":[18,6,14,0,14,0,0,2,0,0,0],"split_type":[0,0,0,0,0,0,0,0,0,0,0],"sum_hessian":[1.569E3,8.62E2,7.07E2,2.07E2,6.55E2,1.71E2,5.36E2,4.61E2,1.94E2,4.02E2,5.9E1],"tree_param":{"num_deleted":"0","num_feature":"19","num_nodes":"11","size_leaf_vector":"1"}},{"base_weights":[-0E0,-1.956807E-3,-0E0,-3.8138108E-4,-0E0],"categories":[],"categories_nodes":[],"categories_segments":[],"categories_sizes":[],"default_left":[0,0,0,0,0],"id":71,"left_children":[1,3,-1,-1,-1],"loss_changes":[1.217157E-3,6.0992595E-3,0E0,0E0,0E0],"parents":[2147483647,0,0,1,1],"right_children":[2,4,-1,-1,-1],"split_conditions":[3E0,3.205425E1,-0E0,-3.8138108E-4,-0E0],"split_indices":[5,14,0,0,0],"split_type":[0,0,0,0,0],"sum_hessian":[1.567E3,3.17E2,1.25E3,1.54E2,1.63E2],"tree_param":{"num_deleted":"0","num_feature":"19","num_nodes":"5","size_leaf_vector":"1"}},{"base_weights":[-0E0,-1.9716485E-3,-0E0,-0E0,-5.234188E-3,-0E0,-1.1969234E-2,-7.5419585E-4,-0E0],"categories":[],"categories_nodes":[],"categories_segments":[],"categories_sizes":[],"default_left":[0,0,0,0,0,0,0,0,0],"id":72,"left_children":[1,3,-1,-1,5,-1,7,-1,-1],"loss_changes":[5.756734E-3,2.03488E-2,0E0,0E0,2.5020685E-2,0E0,3.1657293E-3,0E0,0E0],"parents":[2147483647,0,0,1,1,4,4,6,6],"right_children":[2,4,-1,-1,6,-1,8,-1,-1],"split_conditions":[7.004E0,4.736111E1,-0E0,-0E0,2.45E1,-0E0,3E0,-7.5419585E-4,-0E0],"split_indices":[12,16,0,0,13,0,1,0,0],"split_type":[0,0,0,0,0,0,0,0,0],"sum_hessian":[1.552E3,1.48E3,7.2E1,5.28E2,9.52E2,5.96E2,3.56E2,2.93E2,6.3E1],"tree_param":{"num_deleted":"0","num_feature":"19","num_nodes":"9","size_leaf_vector":"1"}},{"base_weights":[-0E0,-0E0,-1.5569832E-3,-1.043599E-2,-0E0,-0E0,-1.5795434E-2,-1.0870403E-3,-0E0],"categories":[],"categories_nodes":[],"categories_segments":[],"categories_sizes":[],"default_left":[0,0,0,0,0,0,0,0,0],"id":73,"left_children":[1,-1,3,5,-1,-1,7,-1,-1],"loss_changes":[2.2929767E-3,0E0,3.9514344E-2,3.8747553E-2,0E0,0E0,1.1506908E-2,0E0,0E0],"parents":[2147483647,0,0,2,2,3,3,6,6],"right_children":[2,-1,4,6,-1,-1,8,-1,-1],"split_conditions":[4.736111E1,-0E0,1.49E0,3.2E0,-0E0,-0E0,4E0,-1.0870403E-3,-0E0],"split_indices":[16,0,17,18,0,0,1,0,0],"split_type":[0,0,0,0,0,0,0,0,0],"sum_hessian":[1.524E3,5.79E2,9.45E2,3.83E2,5.62E2,6.1E1,3.22E2,2.39E2,8.3E1],"tree_param":{"num_deleted":"0","num_feature":"19","num_nodes":"9","size_leaf_vector":"1"}},{"base_weights":[-0E0,-6.326036E-4,-0E0,-6.663518E-3,-0E0,-6.5654726E-4,-0E0],"categories":[],"categories_nodes":[],"categories_segments":[],"categories_sizes":[],"default_left":[0,0,0,0,0,0,0],"id":74,"left_children":[1,3,-1,5,-1,-1,-1],"loss_changes":[5.9222546E-4,1.5964158E-2,0E0,2.6546987E-2,0E0,0E0,0E0],"parents":[2147483647,0,0,1,1,3,3],"right_children":[2,4,-1,6,-1,-1,-1],"split_conditions":[7.004E0,2.2398039E1,-0E0,4E0,-0E0,-6.5654726E-4,-0E0],"split_indices":[12,15,0,1,0,0,0],"split_type":[0,0,0,0,0,0,0],"sum_hessian":[1.555E3,1.479E3,7.6E1,3.72E2,1.107E3,3.07E2,6.5E1],"tree_param":{"num_deleted":"0","num_feature":"19","num_nodes":"7","size_leaf_vector":"1"}},{"base_weights":[-0E0],"categories":[],"categories_nodes":[],"categories_segments":[],"categories_sizes":[],"default_left":[0],"id":75,"left_children":[-1],"loss_changes":[0E0],"parents":[2147483647],"right_children":[-1],"split_conditions":[-0E0],"split_indices":[0],"split_type":[0],"sum_hessian":[1.556E3],"tree_param":{"num_deleted":"0","num_feature":"19","num_nodes":"1","size_leaf_vector":"1"}},{"base_weights":[-0E0,-5.146849E-4,-0E0,-0E0,-3.1303044E-3,-6.2054894E-3,-0E0,-9.060029E-3,-0E0,-1.36013925E-2,-0E0,-0E0,-1.0819517E-3],"categories":[],"categories_nodes":[],"categories_segments":[],"categories_sizes":[],"default_left":[0,0,0,0,0,0,0,0,0,0,0,0,0],"id":76,"left_children":[1,3,-1,-1,5,7,-1,9,-1,11,-1,-1,-1],"loss_changes":[3.8963443E-4,1.3013865E-2,0E0,0E0,2.4907084E-2,3.4569513E-2,0E0,6.325444E-2,0E0,7.445407E-2,0E0,0E0,0E0],"parents":[2147483647,0,0,1,1,4,4,5,5,7,7,9,9],"right_children":[2,4,-1,-1,6,8,-1,10,-1,12,-1,-1,-1],"split_conditions":[7.004E0,8.899371E-1,-0E0,-0E0,2.3592105E0,1.62E1,-0E0,4E0,-0E0,3E0,-0E0,-0E0,-1.0819517E-3],"split_indices":[12,17,0,0,17,18,0,4,0,10,0,0,0],"split_type":[0,0,0,0,0,0,0,0,0,0,0,0,0],"sum_hessian":[1.549E3,1.47E3,7.9E1,1.03E2,1.367E3,9.94E2,3.73E2,8.87E2,1.07E2,7.35E2,1.52E2,1.82E2,5.53E2],"tree_param":{"num_deleted":"0","num_feature":"19","num_nodes":"13","size_leaf_vector":"1"}},{"base_weights":[-0E0],"categories":[],"categories_nodes":[],"categories_segments":[],"categories_sizes":[],"default_left":[0],"id":77,"left_children":[-1],"loss_changes":[0E0],"parents":[2147483647],"right_children":[-1],"split_conditions":[-0E0],"split_indices":[0],"split_type":[0],"sum_hessian":[1.566E3],"tree_param":{"num_deleted":"0","num_feature":"19","num_nodes":"1","size_leaf_vector":"1"}},{"base_weights":[-0E0],"categories":[],"categories_nodes":[],"categories_segments":[],"categories_sizes":[],"default_left":[0],"id":78,"left_children":[-1],"loss_changes":[0E0],"parents":[2147483647],"right_children":[-1],"split_conditions":[-0E0],"split_indices":[0],"split_type":[0],"sum_hessian":[1.539E3],"tree_param":{"num_deleted":"0","num_feature":"19","num_nodes":"1","size_leaf_vector":"1"}},{"base_weights":[-0E0,-0E0,-8.694132E-5,-0E0,4.049731E-3,-2.75428E-3,-0E0,-0E0,5.2257483E-3,-0E0,-4.9811965E-3,4.316436E-4,-0E0,-4.4231288E-4,-0E0],"categories":[],"categories_nodes":[],"categories_segments":[],"categories_sizes":[],"default_left":[0,0,0,0,0,0,0,0,0,0,0,0,0,0,0],"id":79,"left_children":[1,3,5,-1,7,9,-1,-1,11,-1,13,-1,-1,-1,-1],"loss_changes":[7.3310516E-6,5.885595E-3,4.7178036E-3,0E0,2.1122494E-3,7.4545084E-3,0E0,0E0,5.6706714E-3,0E0,1.7916765E-3,0E0,0E0,0E0,0E0],"parents":[2147483647,0,0,1,1,2,2,4,4,5,5,8,8,10,10],"right_children":[2,4,6,-1,8,10,-1,-1,12,-1,14,-1,-1,-1,-1],"split_conditions":[4.736111E1,2.35E1,3E0,-0E0,4E0,4.657E0,-0E0,-0E0,1.8E1,-0E0,7.3E0,4.316436E-4,-0E0,-4.4231288E-4,-0E0],"split_indices":[16,13,1,0,6,12,0,0,2,0,18,0,0,0,0],"split_type":[0,0,0,0,0,0,0,0,0,0,0,0,0,0,0],"sum_hessian":[1.545E3,5.76E2,9.69E2,2.18E2,3.58E2,6.22E2,3.47E2,6.6E1,2.92E2,1.32E2,4.9E2,2.25E2,6.7E1,2.19E2,2.71E2],"tree_param":{"num_deleted":"0","num_feature":"19","num_nodes":"15","size_leaf_vector":"1"}},{"base_weights":[-0E0,-1.38857E-4,-0E0,-0E0,-3.3044375E-3,-0E0,-8.2212914E-4],"categories":[],"categories_nodes":[],"categories_segments":[],"categories_sizes":[],"default_left":[0,0,0,0,0,0,0],"id":80,"left_children":[1,3,-1,-1,5,-1,-1],"loss_changes":[2.8128874E-5,1.01144975E-2,0E0,0E0,4.7125928E-2,0E0,0E0],"parents":[2147483647,0,0,1,1,4,4],"right_children":[2,4,-1,-1,6,-1,-1],"split_conditions":[7.004E0,4.736111E1,-0E0,-0E0,4E0,-0E0,-8.2212914E-4],"split_indices":[12,16,0,0,3,0,0],"split_type":[0,0,0,0,0,0,0],"sum_hessian":[1.537E3,1.458E3,7.9E1,5.3E2,9.28E2,6.68E2,2.6E2],"tree_param":{"num_deleted":"0","num_feature":"19","num_nodes":"7","size_leaf_vector":"1"}},{"base_weights":[-0E0,-0E0,1.170998E-4,-4.671967E-5,-0E0,5.1700016E-3,-0E0,1.0020667E-2,-0E0,7.633856E-4,-0E0],"categories":[],"categories_nodes":[],"categories_segments":[],"categories_sizes":[],"default_left":[0,0,0,0,0,0,0,0,0,0,0],"id":81,"left_children":[1,3,5,-1,-1,7,-1,9,-1,-1,-1],"loss_changes":[1.38477135E-5,2.8561172E-4,1.847911E-2,0E0,0E0,3.7123285E-2,0E0,3.3887483E-2,0E0,0E0,0E0],"parents":[2147483647,0,0,1,1,2,2,5,5,7,7],"right_children":[2,4,6,-1,-1,8,-1,10,-1,-1,-1],"split_conditions":[3E0,2.7288607E1,6.6E0,-4.671967E-5,-0E0,7.0775116E1,-0E0,4E0,-0E0,7.633856E-4,-0E0],"split_indices":[4,15,18,0,0,16,0,4,0,0,0],"split_type":[0,0,0,0,0,0,0,0,0,0,0],"sum_hessian":[1.553E3,5.44E2,1.009E3,4.02E2,1.42E2,6.91E2,3.18E2,5.53E2,1.38E2,4.72E2,8.1E1],"tree_param":{"num_deleted":"0","num_feature":"19","num_nodes":"11","size_leaf_vector":"1"}},{"base_weights":[-0E0,-1.4741779E-3,-0E0,-0E0,-8.909936E-3,-0E0,2.6766597E-3,-0E0,-1.1320492E-2,4.4854567E-3,-0E0,-0E0,-7.6348503E-4,3.3403593E-4,-0E0],"categories":[],"categories_nodes":[],"categories_segments":[],"categories_sizes":[],"default_left":[0,0,0,0,0,0,0,0,0,0,0,0,0,0,0],"id":82,"left_children":[1,3,5,-1,7,-1,9,-1,11,13,-1,-1,-1,-1,-1],"loss_changes":[1.6383124E-3,3.0820698E-2,2.9580153E-3,0E0,1.2378167E-2,0E0,3.8799534E-3,0E0,3.0379966E-3,9.853477E-4,0E0,0E0,0E0,0E0,0E0],"parents":[2147483647,0,0,1,1,2,2,4,4,6,6,8,8,9,9],"right_children":[2,4,6,-1,8,-1,10,-1,12,14,-1,-1,-1,-1,-1],"split_conditions":[1.5192307E0,4.736111E1,3E0,-0E0,3.2E0,-0E0,1.19E1,-0E0,5.618543E1,4E0,-0E0,-0E0,-7.6348503E-4,3.3403593E-4,-0E0],"split_indices":[17,16,4,0,18,0,18,0,16,4,0,0,0,0,0],"split_type":[0,0,0,0,0,0,0,0,0,0,0,0,0,0,0],"sum_hessian":[1.577E3,7.53E2,8.24E2,3.45E2,4.08E2,4.12E2,4.12E2,5.9E1,3.49E2,3.39E2,7.3E1,9.7E1,2.52E2,2.15E2,1.24E2],"tree_param":{"num_deleted":"0","num_feature":"19","num_nodes":"15","size_leaf_vector":"1"}},{"base_weights":[-0E0],"categories":[],"categories_nodes":[],"categories_segments":[],"categories_sizes":[],"default_left":[0],"id":83,"left_children":[-1],"loss_changes":[0E0],"parents":[2147483647],"right_children":[-1],"split_conditions":[-0E0],"split_indices":[0],"split_type":[0],"sum_hessian":[1.592E3],"tree_param":{"num_deleted":"0","num_feature":"19","num_nodes":"1","size_leaf_vector":"1"}},{"base_weights":[-0E0,-2.359569E-4,-0E0,-0E0,-9.812344E-3,-0E0,7.401757E-3,-0E0,-8.1979187E-4,-0E0,1.0563288E-2,1.7220397E-2,-0E0,1.2113549E-3,-0E0],"categories":[],"categories_nodes":[],"categories_segments":[],"categories_sizes":[],"default_left":[0,0,0,0,0,0,0,0,0,0,0,0,0,0,0],"id":84,"left_children":[1,3,5,-1,7,-1,9,-1,-1,-1,11,13,-1,-1,-1],"loss_changes":[4.0469007E-5,3.258672E-2,3.467246E-2,0E0,2.7808711E-2,0E0,2.7464882E-2,0E0,0E0,0E0,6.1778918E-2,2.6627548E-2,0E0,0E0,0E0],"parents":[2147483647,0,0,1,1,2,2,4,4,6,6,10,10,11,11],"right_children":[2,4,6,-1,8,-1,10,-1,-1,-1,12,14,-1,-1,-1],"split_conditions":[1.5192307E0,4E0,3E0,-0E0,3.2E0,-0E0,3E0,-0E0,-8.1979187E-4,-0E0,2.2E1,4E0,-0E0,1.2113549E-3,-0E0],"split_indices":[17,10,11,0,18,0,10,0,0,0,2,4,0,0,0],"split_type":[0,0,0,0,0,0,0,0,0,0,0,0,0,0,0],"sum_hessian":[1.539E3,7.26E2,8.13E2,3.88E2,3.38E2,1.81E2,6.32E2,6.2E1,2.76E2,7.6E1,5.56E2,4.17E2,1.39E2,3.15E2,1.02E2],"tree_param":{"num_deleted":"0","num_feature":"19","num_nodes":"15","size_leaf_vector":"1"}},{"base_weights":[-0E0],"categories":[],"categories_nodes":[],"categories_segments":[],"categories_sizes":[],"default_left":[0],"id":85,"left_children":[-1],"loss_changes":[0E0],"parents":[2147483647],"right_children":[-1],"split_conditions":[-0E0],"split_indices":[0],"split_type":[0],"sum_hessian":[1.537E3],"tree_param":{"num_deleted":"0","num_feature":"19","num_nodes":"1","size_leaf_vector":"1"}},{"base_weights":[-0E0,-6.5078173E-4,-0E0,-3.030014E-4,-0E0,5.6836214E-3,-0E0,8.343542E-3,-0E0,5.378412E-4,-0E0],"categories":[],"categories_nodes":[],"categories_segments":[],"categories_sizes":[],"default_left":[0,0,0,0,0,0,0,0,0,0,0],"id":86,"left_children":[1,3,5,-1,-1,7,-1,9,-1,-1,-1],"loss_changes":[2.3118545E-4,9.605388E-3,1.3692532E-2,0E0,0E0,9.062476E-3,0E0,7.2154216E-4,0E0,0E0,0E0],"parents":[2147483647,0,0,1,1,2,2,5,5,7,7],"right_children":[2,4,6,-1,-1,8,-1,10,-1,-1,-1],"split_conditions":[3E0,2.696282E1,4E0,-3.030014E-4,-0E0,4E0,-0E0,2.4312727E1,-0E0,5.378412E-4,-0E0],"split_indices":[4,15,10,0,0,0,0,15,0,0,0],"split_type":[0,0,0,0,0,0,0,0,0,0,0],"sum_hessian":[1.575E3,5.45E2,1.03E3,3.29E2,2.16E2,4.23E2,6.07E2,3.26E2,9.7E1,2.49E2,7.7E1],"tree_param":{"num_deleted":"0","num_feature":"19","num_nodes":"11","size_leaf_vector":"1"}},{"base_weights":[-0E0,-0E0,-2.7911428E-3,-0E0,3.7221466E-3,-5.7482175E-3,-0E0,9.835024E-3,-0E0,-0E0,-5.852943E-4,1.4677841E-2,-0E0,-0E0,1.6146315E-2,1.179189E-3,-0E0],"categories":[],"categories_nodes":[],"categories_segments":[],"categories_sizes":[],"default_left":[0,0,0,0,0,0,0,0,0,0,0,0,0,0,0,0,0],"id":87,"left_children":[1,3,5,-1,7,9,-1,11,-1,-1,-1,13,-1,-1,15,-1,-1],"loss_changes":[5.4601184E-3,9.128244E-3,1.5285989E-2,0E0,4.1931488E-2,1.9851308E-2,0E0,4.521367E-2,0E0,0E0,0E0,1.717411E-3,0E0,0E0,1.2147196E-2,0E0,0E0],"parents":[2147483647,0,0,1,1,2,2,4,4,5,5,7,7,11,11,14,14],"right_children":[2,4,6,-1,8,10,-1,12,-1,-1,-1,14,-1,-1,16,-1,-1],"split_conditions":[6.6E0,4E0,4.714969E1,-0E0,7.3157234E1,5.779054E1,-0E0,4E0,-0E0,-0E0,-5.852943E-4,3E0,-0E0,-0E0,1.8E1,1.179189E-3,-0E0],"split_indices":[18,6,14,0,16,16,0,4,0,0,0,10,0,0,2,0,0],"split_type":[0,0,0,0,0,0,0,0,0,0,0,0,0,0,0,0,0],"sum_hessian":[1.551E3,8.51E2,7E2,1.93E2,6.58E2,6.27E2,7.3E1,5.27E2,1.31E2,2.63E2,3.64E2,4.46E2,8.1E1,7.1E1,3.75E2,2.43E2,1.32E2],"tree_param":{"num_deleted":"0","num_feature":"19","num_nodes":"17","size_leaf_vector":"1"}},{"base_weights":[-0E0],"categories":[],"categories_nodes":[],"categories_segments":[],"categories_sizes":[],"default_left":[0],"id":88,"left_children":[-1],"loss_changes":[0E0],"parents":[2147483647],"right_children":[-1],"split_conditions":[-0E0],"split_indices":[0],"split_type":[0],"sum_hessian":[1.551E3],"tree_param":{"num_deleted":"0","num_feature":"19","num_nodes":"1","size_leaf_vector":"1"}},{"base_weights":[-0E0,-0E0,-2.527085E-4,1.9394377E-3,-0E0,-5.9199957E-3,-0E0,-0E0,3.200012E-4,-0E0,-5.322218E-4],"categories":[],"categories_nodes":[],"categories_segments":[],"categories_sizes":[],"default_left":[0,0,0,0,0,0,0,0,0,0,0],"id":89,"left_children":[1,3,5,7,-1,9,-1,-1,-1,-1,-1],"loss_changes":[6.487512E-5,1.861416E-3,1.4089321E-2,1.17706265E-2,0E0,1.702251E-2,0E0,0E0,0E0,0E0,0E0],"parents":[2147483647,0,0,1,1,2,2,3,3,5,5],"right_children":[2,4,6,8,-1,10,-1,-1,-1,-1,-1],"split_conditions":[4.736111E1,2.9E1,1.49E0,3E0,-0E0,3.2E0,-0E0,-0E0,3.200012E-4,-0E0,-5.322218E-4],"split_indices":[16,2,17,8,0,18,0,0,0,0,0],"split_type":[0,0,0,0,0,0,0,0,0,0,0],"sum_hessian":[1.598E3,5.83E2,1.015E3,4.94E2,8.9E1,4.03E2,6.12E2,8.5E1,4.09E2,6.5E1,3.38E2],"tree_param":{"num_deleted":"0","num_feature":"19","num_nodes":"11","size_leaf_vector":"1"}},{"base_weights":[-0E0,-5.262106E-4,-0E0,-0E0,-8.205673E-3,-0E0,5.4422184E-3,-1.1182525E-2,-0E0,-0E0,1.153149E-2,-1.4490426E-2,-0E0,1.6257765E-2,-0E0,-0E0,-1.0311716E-3,1.1029255E-3,-0E0],"categories":[],"categories_nodes":[],"categories_segments":[],"categories_sizes":[],"default_left":[0,0,0,0,0,0,0,0,0,0,0,0,0,0,0,0,0,0,0],"id":90,"left_children":[1,3,5,-1,7,-1,9,11,-1,-1,13,15,-1,17,-1,-1,-1,-1,-1],"loss_changes":[2.0376082E-4,2.55761E-2,1.918847E-2,0E0,7.5920243E-3,0E0,5.233503E-2,9.435352E-3,0E0,0E0,4.051187E-2,2.3903474E-3,0E0,1.2368955E-2,0E0,0E0,0E0,0E0,0E0],"parents":[2147483647,0,0,1,1,2,2,4,4,6,6,7,7,10,10,11,11,13,13],"right_children":[2,4,6,-1,8,-1,10,12,-1,-1,14,16,-1,18,-1,-1,-1,-1,-1],"split_conditions":[1.5192307E0,4.736111E1,3E0,-0E0,1.3369697E0,-0E0,4.381E0,5E0,-0E0,-0E0,2.3E1,5.4157658E1,-0E0,4E0,-0E0,-0E0,-1.0311716E-3,1.1029255E-3,-0E0],"split_indices":[17,16,11,0,17,0,12,8,0,0,2,16,0,4,0,0,0,0,0],"split_type":[0,0,0,0,0,0,0,0,0,0,0,0,0,0,0,0,0,0,0],"sum_hessian":[1.574E3,7.35E2,8.39E2,3.53E2,3.82E2,1.92E2,6.47E2,2.66E2,1.16E2,1.1E2,5.37E2,2.03E2,6.3E1,4.23E2,1.14E2,7.3E1,1.3E2,3.14E2,1.09E2],"tree_param":{"num_deleted":"0","num_feature":"19","num_nodes":"19","size_leaf_vector":"1"}},{"base_weights":[-0E0,-0E0,2.544212E-3,-3.40631E-3,-0E0,7.1914913E-3,-0E0,-5.635135E-4,-0E0,7.658502E-4,-0E0],"categories":[],"categories_nodes":[],"categories_segments":[],"categories_sizes":[],"default_left":[0,0,0,0,0,0,0,0,0,0,0],"id":91,"left_children":[1,3,5,7,-1,9,-1,-1,-1,-1,-1],"loss_changes":[6.517489E-3,5.196621E-3,2.9988416E-2,2.5937773E-2,0E0,5.5481706E-2,0E0,0E0,0E0,0E0,0E0],"parents":[2147483647,0,0,1,1,2,2,3,3,5,5],"right_children":[2,4,6,8,-1,10,-1,-1,-1,-1,-1],"split_conditions":[3E0,1.62E1,2.1E1,2.696282E1,-0E0,2.7734694E1,-0E0,-5.635135E-4,-0E0,7.658502E-4,-0E0],"split_indices":[4,18,2,15,0,15,0,0,0,0,0],"split_type":[0,0,0,0,0,0,0,0,0,0,0],"sum_hessian":[1.556E3,5.5E2,1.006E3,4.47E2,1.03E2,7.05E2,3.01E2,3.01E2,1.46E2,4.82E2,2.23E2],"tree_param":{"num_deleted":"0","num_feature":"19","num_nodes":"11","size_leaf_vector":"1"}},{"base_weights":[-0E0,-2.623889E-3,-0E0,-8.848632E-3,-0E0,-6.536298E-4,-0E0],"categories":[],"categories_nodes":[],"categories_segments":[],"categories_sizes":[],"default_left":[0,0,0,0,0,0,0],"id":92,"left_children":[1,3,-1,5,-1,-1,-1],"loss_changes":[3.8683638E-3,2.3134427E-2,0E0,2.813369E-3,0E0,0E0,0E0],"parents":[2147483647,0,0,1,1,3,3],"right_children":[2,4,-1,6,-1,-1,-1],"split_conditions":[3E0,2.696282E1,-0E0,3.925568E1,-0E0,-6.536298E-4,-0E0],"split_indices":[4,15,0,14,0,0,0],"split_type":[0,0,0,0,0,0,0],"sum_hessian":[1.554E3,5.61E2,9.93E2,3.44E2,2.17E2,2.14E2,1.3E2],"tree_param":{"num_deleted":"0","num_feature":"19","num_nodes":"7","size_leaf_vector":"1"}},{"base_weights":[-0E0],"categories":[],"categories_nodes":[],"categories_segments":[],"categories_sizes":[],"default_left":[0],"id":93,"left_children":[-1],"loss_changes":[0E0],"parents":[2147483647],"right_children":[-1],"split_conditions":[-0E0],"split_indices":[0],"split_type":[0],"sum_hessian":[1.531E3],"tree_param":{"num_deleted":"0","num_feature":"19","num_nodes":"1","size_leaf_vector":"1"}},{"base_weights":[-0E0,-9.103223E-4,-0E0,-0E0,-8.621823E-3,-0E0,4.450867E-3,-6.6134566E-4,-0E0,5.032177E-4,-0E0],"categories":[],"categories_nodes":[],"categories_segments":[],"categories_sizes":[],"default_left":[0,0,0,0,0,0,0,0,0,0,0],"id":94,"left_children":[1,3,5,-1,7,-1,9,-1,-1,-1,-1],"loss_changes":[6.10635E-4,2.8296396E-2,8.080008E-3,0E0,1.2555741E-2,0E0,1.2388977E-2,0E0,0E0,0E0,0E0],"parents":[2147483647,0,0,1,1,2,2,4,4,6,6],"right_children":[2,4,6,-1,8,-1,10,-1,-1,-1,-1],"split_conditions":[1.5192307E0,4.736111E1,3E0,-0E0,4E0,-0E0,1.8E1,-6.6134566E-4,-0E0,5.032177E-4,-0E0],"split_indices":[17,16,4,0,1,0,2,0,0,0,0],"split_type":[0,0,0,0,0,0,0,0,0,0,0],"sum_hessian":[1.563E3,7.36E2,8.27E2,3.48E2,3.88E2,4.2E2,4.07E2,2.91E2,9.7E1,2.48E2,1.59E2],"tree_param":{"num_deleted":"0","num_feature":"19","num_nodes":"11","size_leaf_vector":"1"}},{"base_weights":[-0E0],"categories":[],"categories_nodes":[],"categories_segments":[],"categories_sizes":[],"default_left":[0],"id":95,"left_children":[-1],"loss_changes":[0E0],"parents":[2147483647],"right_children":[-1],"split_conditions":[-0E0],"split_indices":[0],"split_type":[0],"sum_hessian":[1.546E3],"tree_param":{"num_deleted":"0","num_feature":"19","num_nodes":"1","size_leaf_vector":"1"}},{"base_weights":[-0E0],"categories":[],"categories_nodes":[],"categories_segments":[],"categories_sizes":[],"default_left":[0],"id":96,"left_children":[-1],"loss_changes":[0E0],"parents":[2147483647],"right_children":[-1],"split_conditions":[-0E0],"split_indices":[0],"split_type":[0],"sum_hessian":[1.567E3],"tree_param":{"num_deleted":"0","num_feature":"19","num_nodes":"1","size_leaf_vector":"1"}},{"base_weights":[-0E0],"categories":[],"categories_nodes":[],"categories_segments":[],"categories_sizes":[],"default_left":[0],"id":97,"left_children":[-1],"loss_changes":[0E0],"parents":[2147483647],"right_children":[-1],"split_conditions":[-0E0],"split_indices":[0],"split_type":[0],"sum_hessian":[1.586E3],"tree_param":{"num_deleted":"0","num_feature":"19","num_nodes":"1","size_leaf_vector":"1"}},{"base_weights":[-0E0],"categories":[],"categories_nodes":[],"categories_segments":[],"categories_sizes":[],"default_left":[0],"id":98,"left_children":[-1],"loss_changes":[0E0],"parents":[2147483647],"right_children":[-1],"split_conditions":[-0E0],"split_indices":[0],"split_type":[0],"sum_hessian":[1.519E3],"tree_param":{"num_deleted":"0","num_feature":"19","num_nodes":"1","size_leaf_vector":"1"}},{"base_weights":[-0E0,-0E0,-3.24531E-4,-8.664983E-3,-0E0,-0E0,-5.930797E-4],"categories":[],"categories_nodes":[],"categories_segments":[],"categories_sizes":[],"default_left":[0,0,0,0,0,0,0],"id":99,"left_children":[1,-1,3,5,-1,-1,-1],"loss_changes":[1.0140989E-4,0E0,2.8269857E-2,4.630748E-3,0E0,0E0,0E0],"parents":[2147483647,0,0,2,2,3,3],"right_children":[2,-1,4,6,-1,-1,-1],"split_conditions":[4.736111E1,-0E0,1.49E0,5.618543E1,-0E0,-0E0,-5.930797E-4],"split_indices":[16,0,17,16,0,0,0],"split_type":[0,0,0,0,0,0,0],"sum_hessian":[1.539E3,5.77E2,9.62E2,3.77E2,5.85E2,8.9E1,2.88E2],"tree_param":{"num_deleted":"0","num_feature":"19","num_nodes":"7","size_leaf_vector":"1"}},{"base_weights":[-0E0,-1.8814596E-4,-0E0,-0E0,-4.230766E-3,-0E0,2.609217E-3,-3.5096912E-4,-0E0,3.5198443E-4,-0E0],"categories":[],"categories_nodes":[],"categories_segments":[],"categories_sizes":[],"default_left":[0,0,0,0,0,0,0,0,0,0,0],"id":100,"left_children":[1,3,5,-1,7,-1,9,-1,-1,-1,-1],"loss_changes":[2.5836625E-5,1.1713845E-2,2.824446E-3,0E0,8.779333E-3,0E0,1.0530024E-2,0E0,0E0,0E0,0E0],"parents":[2147483647,0,0,1,1,2,2,4,4,6,6],"right_children":[2,4,6,-1,8,-1,10,-1,-1,-1,-1],"split_conditions":[1.5192307E0,2.8973333E1,3E0,-0E0,5E0,-0E0,2.2E1,-3.5096912E-4,-0E0,3.5198443E-4,-0E0],"split_indices":[17,14,4,0,7,0,2,0,0,0,0],"split_type":[0,0,0,0,0,0,0,0,0,0,0],"sum_hessian":[1.561E3,7.29E2,8.32E2,7.4E1,6.55E2,4.18E2,4.14E2,5.12E2,1.43E2,3.31E2,8.3E1],"tree_param":{"num_deleted":"0","num_feature":"19","num_nodes":"11","size_leaf_vector":"1"}},{"base_weights":[-0E0],"categories":[],"categories_nodes":[],"categories_segments":[],"categories_sizes":[],"default_left":[0],"id":101,"left_children":[-1],"loss_changes":[0E0],"parents":[2147483647],"right_children":[-1],"split_conditions":[-0E0],"split_indices":[0],"split_type":[0],"sum_hessian":[1.561E3],"tree_param":{"num_deleted":"0","num_feature":"19","num_nodes":"1","size_leaf_vector":"1"}},{"base_weights":[-0E0],"categories":[],"categories_nodes":[],"categories_segments":[],"categories_sizes":[],"default_left":[0],"id":102,"left_children":[-1],"loss_changes":[0E0],"parents":[2147483647],"right_children":[-1],"split_conditions":[-0E0],"split_indices":[0],"split_type":[0],"sum_hessian":[1.551E3],"tree_param":{"num_deleted":"0","num_feature":"19","num_nodes":"1","size_leaf_vector":"1"}},{"base_weights":[-0E0],"categories":[],"categories_nodes":[],"categories_segments":[],"categories_sizes":[],"default_left":[0],"id":103,"left_children":[-1],"loss_changes":[0E0],"parents":[2147483647],"right_children":[-1],"split_conditions":[-0E0],"split_indices":[0],"split_type":[0],"sum_hessian":[1.564E3],"tree_param":{"num_deleted":"0","num_feature":"19","num_nodes":"1","size_leaf_vector":"1"}},{"base_weights":[-0E0,-7.59171E-4,-0E0,-2.967985E-3,-0E0,-4.723404E-3,-0E0,-0E0,-5.7988986E-3,-0E0,-7.222566E-3,-0E0,-4.230989E-4],"categories":[],"categories_nodes":[],"categories_segments":[],"categories_sizes":[],"default_left":[0,0,0,0,0,0,0,0,0,0,0,0,0],"id":104,"left_children":[1,3,-1,5,-1,7,-1,-1,9,-1,11,-1,-1],"loss_changes":[8.3907734E-4,1.1210408E-2,0E0,1.6482823E-2,0E0,1.0874454E-2,0E0,0E0,1.7603338E-2,0E0,3.1599961E-3,0E0,0E0],"parents":[2147483647,0,0,1,1,3,3,5,5,8,8,10,10],"right_children":[2,4,-1,6,-1,8,-1,-1,10,-1,12,-1,-1],"split_conditions":[7.004E0,4.8957317E1,-0E0,4.0341315E0,-0E0,8.899371E-1,-0E0,-0E0,2E0,-0E0,2E0,-0E0,-4.230989E-4],"split_indices":[12,14,0,17,0,17,0,0,0,0,10,0,0],"split_type":[0,0,0,0,0,0,0,0,0,0,0,0,0],"sum_hessian":[1.536E3,1.455E3,8.1E1,1.367E3,8.8E1,1.278E3,8.9E1,1.07E2,1.171E3,7.9E1,1.092E3,5.8E1,1.034E3],"tree_param":{"num_deleted":"0","num_feature":"19","num_nodes":"13","size_leaf_vector":"1"}},{"base_weights":[-0E0],"categories":[],"categories_nodes":[],"categories_segments":[],"categories_sizes":[],"default_left":[0],"id":105,"left_children":[-1],"loss_changes":[0E0],"parents":[2147483647],"right_children":[-1],"split_conditions":[-0E0],"split_indices":[0],"split_type":[0],"sum_hessian":[1.585E3],"tree_param":{"num_deleted":"0","num_feature":"19","num_nodes":"1","size_leaf_vector":"1"}},{"base_weights":[-0E0],"categories":[],"categories_nodes":[],"categories_segments":[],"categories_sizes":[],"default_left":[0],"id":106,"left_children":[-1],"loss_changes":[0E0],"parents":[2147483647],"right_children":[-1],"split_conditions":[-0E0],"split_indices":[0],"split_type":[0],"sum_hessian":[1.538E3],"tree_param":{"num_deleted":"0","num_feature":"19","num_nodes":"1","size_leaf_vector":"1"}},{"base_weights":[-0E0],"categories":[],"categories_nodes":[],"categories_segments":[],"categories_sizes":[],"default_left":[0],"id":107,"left_children":[-1],"loss_changes":[0E0],"parents":[2147483647],"right_children":[-1],"split_conditions":[-0E0],"split_indices":[0],"split_type":[0],"sum_hessian":[1.552E3],"tree_param":{"num_deleted":"0","num_feature":"19","num_nodes":"1","size_leaf_vector":"1"}},{"base_weights":[-0E0,-7.10796E-4,-0E0,-6.664544E-3,-0E0,-1.2789693E-2,-0E0,-0E0,-2.097332E-2,-1.5938169E-3,-0E0],"categories":[],"categories_nodes":[],"categories_segments":[],"categories_sizes":[],"default_left":[0,0,0,0,0,0,0,0,0,0,0],"id":108,"left_children":[1,3,-1,5,-1,7,-1,-1,9,-1,-1],"loss_changes":[7.3251955E-4,1.5606881E-2,0E0,2.4533516E-2,0E0,4.0448055E-2,0E0,0E0,2.3355506E-2,0E0,0E0],"parents":[2147483647,0,0,1,1,3,3,5,5,8,8],"right_children":[2,4,-1,6,-1,8,-1,-1,10,-1,-1],"split_conditions":[7.004E0,2.2398039E1,-0E0,3.0238411E0,-0E0,3E0,-0E0,-0E0,4E0,-1.5938169E-3,-0E0],"split_indices":[12,15,0,17,0,10,0,0,1,0,0],"split_type":[0,0,0,0,0,0,0,0,0,0,0],"sum_hessian":[1.528E3,1.449E3,7.9E1,3.67E2,1.082E3,2.49E2,1.18E2,6.5E1,1.84E2,1.26E2,5.8E1],"tree_param":{"num_deleted":"0","num_feature":"19","num_nodes":"11","size_leaf_vector":"1"}},{"base_weights":[-0E0],"categories":[],"categories_nodes":[],"categories_segments":[],"categories_sizes":[],"default_left":[0],"id":109,"left_children":[-1],"loss_changes":[0E0],"parents":[2147483647],"right_children":[-1],"split_conditions":[-0E0],"split_indices":[0],"split_type":[0],"sum_hessian":[1.556E3],"tree_param":{"num_deleted":"0","num_feature":"19","num_nodes":"1","size_leaf_vector":"1"}},{"base_weights":[-0E0,-4.5633118E-4,-0E0,-0E0,-7.6342425E-3,-0E0,2.6557494E-3,-0E0,-1.1588588E-2,4.6555633E-3,-0E0,-1.6040798E-2,-0E0,4.0328442E-4,-0E0,-1.2040231E-3,-0E0],"categories":[],"categories_nodes":[],"categories_segments":[],"categories_sizes":[],"default_left":[0,0,0,0,0,0,0,0,0,0,0,0,0,0,0,0,0],"id":110,"left_children":[1,3,5,-1,7,-1,9,-1,11,13,-1,15,-1,-1,-1,-1,-1],"loss_changes":[1.5365283E-4,2.2626944E-2,2.8978735E-3,0E0,2.1385226E-2,0E0,4.3168566E-3,0E0,1.6525418E-2,4.3997844E-3,0E0,1.8350307E-2,0E0,0E0,0E0,0E0,0E0],"parents":[2147483647,0,0,1,1,2,2,4,4,6,6,8,8,9,9,11,11],"right_children":[2,4,6,-1,8,-1,10,-1,12,14,-1,16,-1,-1,-1,-1,-1],"split_conditions":[1.5192307E0,4.736111E1,3E0,-0E0,3.2E0,-0E0,1.19E1,-0E0,4E0,4E0,-0E0,7.607784E1,-0E0,4.0328442E-4,-0E0,-1.2040231E-3,-0E0],"split_indices":[17,16,4,0,18,0,18,0,1,4,0,16,0,0,0,0,0],"split_type":[0,0,0,0,0,0,0,0,0,0,0,0,0,0,0,0,0],"sum_hessian":[1.559E3,7.37E2,8.22E2,3.47E2,3.9E2,4.12E2,4.1E2,6.2E1,3.28E2,3.32E2,7.8E1,2.35E2,9.3E1,2.19E2,1.13E2,1.67E2,6.8E1],"tree_param":{"num_deleted":"0","num_feature":"19","num_nodes":"17","size_leaf_vector":"1"}},{"base_weights":[-0E0],"categories":[],"categories_nodes":[],"categories_segments":[],"categories_sizes":[],"default_left":[0],"id":111,"left_children":[-1],"loss_changes":[0E0],"parents":[2147483647],"right_children":[-1],"split_conditions":[-0E0],"split_indices":[0],"split_type":[0],"sum_hessian":[1.567E3],"tree_param":{"num_deleted":"0","num_feature":"19","num_nodes":"1","size_leaf_vector":"1"}},{"base_weights":[-0E0],"categories":[],"categories_nodes":[],"categories_segments":[],"categories_sizes":[],"default_left":[0],"id":112,"left_children":[-1],"loss_changes":[0E0],"parents":[2147483647],"right_children":[-1],"split_conditions":[-0E0],"split_indices":[0],"split_type":[0],"sum_hessian":[1.57E3],"tree_param":{"num_deleted":"0","num_feature":"19","num_nodes":"1","size_leaf_vector":"1"}},{"base_weights":[-0E0],"categories":[],"categories_nodes":[],"categories_segments":[],"categories_sizes":[],"default_left":[0],"id":113,"left_children":[-1],"loss_changes":[0E0],"parents":[2147483647],"right_children":[-1],"split_conditions":[-0E0],"split_indices":[0],"split_type":[0],"sum_hessian":[1.545E3],"tree_param":{"num_deleted":"0","num_feature":"19","num_nodes":"1","size_leaf_vector":"1"}},{"base_weights":[-0E0],"categories":[],"categories_nodes":[],"categories_segments":[],"categories_sizes":[],"default_left":[0],"id":114,"left_children":[-1],"loss_changes":[0E0],"parents":[2147483647],"right_children":[-1],"split_conditions":[-0E0],"split_indices":[0],"split_type":[0],"sum_hessian":[1.57E3],"tree_param":{"num_deleted":"0","num_feature":"19","num_nodes":"1","size_leaf_vector":"1"}},{"base_weights":[-0E0],"categories":[],"categories_nodes":[],"categories_segments":[],"categories_sizes":[],"default_left":[0],"id":115,"left_children":[-1],"loss_changes":[0E0],"parents":[2147483647],"right_children":[-1],"split_conditions":[-0E0],"split_indices":[0],"split_type":[0],"sum_hessian":[1.57E3],"tree_param":{"num_deleted":"0","num_feature":"19","num_nodes":"1","size_leaf_vector":"1"}}]},"name":"gbtree"},"learner_model_param":{"base_score":"[5.8491252E-2]","boost_from_average":"1","num_class":"0","num_feature":"19","num_target":"1"},"objective":{"name":"reg:squarederror","reg_loss_param":{"scale_pos_weight":"1"}}},"version":[3,1,3]}